0.0042268 0.00690722 0.00350515 0 0.0071134 0.00247423 0.00804124 0.00597938 0.00639175 0.00659794 0.000515464 0.00463918 0.00835052 0.00278351 0.00628866 0.00938144 0.00979381 0.0043299 0.00278351 0.00371134 0.00938144 0.000412371 0.000206186 0.00546392 0.00948454 0.00845361 0.00216495 0.00164948 0.00185567 0.00979095 0.00482116 0.00259919 0.00731093 0.00393515 0.00709301 0.00125502 0.00666622 0.00984815 0.00325502 0.00931023 -0.000399118 0.000342559 0.00140214 0.00301324 0.00709323 0.00571851 0.0033196 0.00017177 0.00475688 0.00679436 0.00436063 0.00444959 0.00621081 0.00561868 0.00377618 0.00608247 0.00237113 0.00420285 0.00300635 0.00799443 0.00199319 0.0035635 0.00738381 0.00168679 0.00479209 -0.00390371 0.00035758 -0.00232185 -0.00195496 -0.00688683 -0.00953075 -0.00957587 -0.00118216 -0.0132077 -0.0179719 -0.0263913 -0.0287445 -0.00854113 0.00495297 0.00369211 0.00249742 0.00264484 0.00864205 0.00556701 0.0057732 0.0040569 0.00637549 0.00659739 0.00187816 -0.00193409 -0.00131054 -0.00203397 -0.00522672 -0.00781683 -0.00655463 -0.00949727 -0.0155595 -0.00968628 -0.0170464 -0.0151563 -0.0207536 -0.0561987 -0.0641507 -0.0572765 -0.058262 -0.0251572 0.00117757 -0.000482627 0.00766513 0.00843719 0.00207173 0.00463918 0.00249167 0.00724555 0.00561297 -0.000475564 0.00476281 0.00416254 0.0045826 -0.00689092 -0.000331057 -0.00182753 -0.00593634 -0.0147186 -0.0151279 -0.0130408 -0.0107806 -0.0112386 -0.0342064 -0.0618815 -0.0586597 -0.050351 -0.0439085 -0.0293544 0.0032719 0.00323591 -0.00126035 0.00627287 0.000551534 0.00381443 0.00597605 0.00883463 0.00414466 0.00591329 0.000591855 -0.00426159 -0.00770362 -0.00690501 -0.0114124 -0.00332032 -0.0136377 -0.0174956 -0.024373 -0.0175549 -0.0169359 -0.027298 -0.0505597 -0.044047 -0.0379312 -0.0295223 -0.0387362 -0.0283365 -0.000498833 -0.00200272 -0.00259154 0.00369075 0.00951994 0.0042268 0.000212532 0.00499427 0.00828787 0.000407963 -0.00078327 -0.00693998 -0.00236361 -0.0117943 -0.0067289 -0.00582216 -0.0145581 -0.0136526 -0.0100547 -0.00756083 -0.0249456 -0.0317119 -0.0394328 -0.0239453 -0.00240226 0.0111299 -0.0291138 -0.0280885 -0.0103894 -0.000142579 -0.00564685 0.00436079 0.000463139 0.00216513 0.000978992 0.00160176 -3.71438e-05 -0.00248035 -0.0102403 -0.0112297 -0.00909269 -0.00873659 -0.0118201 -0.0116378 -0.0144637 -0.00990316 -0.00544227 -0.00931037 -0.0366475 -0.0355875 -0.022358 -0.00452989 0.0114233 0.0105538 -0.00401322 -0.0240884 -0.01412 -0.00743308 -0.00733766 0.00440079 0.00117344 0.000320167 0.00494887 -3.59038e-05 0.00509965 -0.00179243 -0.00494865 -0.00645118 0.000615343 0.00181055 0.00506499 0.00150481 -0.00614512 -0.0026281 -0.00314568 -0.0137152 -0.0299826 -0.0179158 0.00120428 0.0159857 0.0161869 0.0182994 0.00897806 -0.0242314 -0.0336835 -0.00764947 -0.0042123 -0.00309093 2.83187e-07 0.0035071 0.00742268 0.00552853 0.0017767 -0.00133788 -0.00929922 -0.00484984 -0.000245557 0.00185766 0.0121867 0.0020767 -0.000289853 -0.0128165 -0.017253 -0.0267437 -0.0281226 0.00236315 0.0224255 0.0284025 0.0167675 0.0202748 0.0145626 -0.026672 -0.0275224 -0.0135983 -0.0114958 -0.00326365 0.000135238 0.0071134 0.00628866 0.00901943 -0.00201202 -0.00024161 -0.00986822 -0.0115981 -0.00662722 0.00803382 0.0132882 0.00635823 -0.00200954 -0.0279725 -0.0469973 -0.0354685 -0.0100552 0.0215093 0.0351 0.0272599 0.0133312 0.0194965 0.0111818 -0.0313877 -0.0278531 -0.00462179 -0.00916903 0.00131657 0.00323635 0.00505155 0.0042268 0.0011625 0.00244801 -0.00323528 -0.0101816 -0.00690527 0.000210763 0.00341469 0.010349 0.00559976 -0.00847819 -0.0388096 -0.0462643 -0.0329245 0.0213143 0.0337625 0.0367478 0.0253732 0.013018 0.00503596 0.000751578 -0.0386909 -0.0233738 -0.00550869 -0.00534135 -0.000365547 0.00119387 0.000103093 0.00164948 0.00727816 0.00565972 -0.00420302 -0.00806214 -0.00252667 0.00544603 -0.00698408 -0.0179875 -0.0214941 -0.0409388 -0.0459748 -0.0440162 -0.0244686 0.0157259 0.0281155 0.0170005 0.00920966 0.00547973 0.00894435 -0.00439442 -0.0398796 -0.0223064 -0.00313189 -0.00443697 0.00184613 0.00725676 0.00680412 0.00453608 0.00603602 0.0065799 -0.00707808 -0.00550111 -0.00519129 -0.000382987 -0.0310098 -0.0330423 -0.0333677 -0.0382468 -0.0434673 -0.030159 -0.0257409 -0.00917419 -0.0145232 -0.0159387 -0.032144 -0.0197672 -0.0100074 -0.0288495 -0.0415183 -0.0262356 -0.0152777 -0.0091789 -0.000324693 0.00337435 0.00762887 0.00742268 0.006052 0.000606332 -0.00373655 -0.00132412 0.00292308 -0.00146853 -0.00209432 -0.0103469 -0.0284279 -0.0415462 -0.038013 -0.0240843 -0.0175832 -0.0231943 -0.0174531 -0.0404318 -0.0397576 -0.0442508 -0.0319288 -0.0385779 -0.0412952 -0.0415691 -0.0415753 -0.0255716 0.00267352 0.00618789 0.00835052 0.000309278 0.00323757 -0.00274597 -0.000291121 -0.00982241 -0.0106501 0.0032507 0.00376834 -0.00913252 -0.0270044 -0.04037 -0.0355299 -0.0124093 -0.0159619 -0.0158713 -0.0153971 -0.0223572 -0.0191277 -0.0196026 -0.0245808 -0.0361721 -0.032809 -0.0229148 -0.0196679 -0.00272684 0.00197447 0.00392692 0.00969072 0.00979221 0.0023029 -0.000770857 -0.0042165 -0.00253983 -0.00517277 -0.00238743 -0.0221357 -0.0262272 -0.0266444 -0.00828754 0.000193721 -0.00575551 -0.00209315 -0.000629778 -0.00227458 -0.0132508 -0.0103245 -0.0103781 -0.00272558 -0.0268895 -0.0284526 -0.00634801 -0.000670842 0.00403396 7.2869e-05 0.00766478 0.00278351 0.00442273 0.0057054 0.00273593 -0.00240699 0.000222081 -0.00330903 -0.00406514 -0.0249944 -0.0197224 -0.0211731 -0.00273929 -0.00847279 -0.0127946 -0.0123838 -0.0126628 -0.0165524 -0.023418 -0.0155552 -0.00991957 -0.00265378 -0.0234827 -0.0156043 0.00966973 -0.0013437 0.00511335 0.00535567 7.3428e-05 0.00164948 0.00309278 0.00231697 -0.00297343 0.00532627 -0.00428446 -0.0109255 -0.0267335 -0.0363823 -0.0195476 -0.0135971 0.00592211 -0.00761981 -0.0048429 -0.00121644 -0.00194297 -0.00661352 -0.0148749 -0.00772686 0.0109094 0.00833926 -0.00412063 -0.00555127 0.0194633 -0.000508634 0.00302548 0.003011 0.000183946 0.00618557 0.00587629 0.00184873 0.00493642 0.00010894 -0.00351779 -0.0244189 -0.0392125 -0.0195877 -0.00168597 0.00640076 0.00264615 0.00711484 0.005482 0.0103054 0.00550863 0.00759432 0.0145222 0.019103 0.0308154 0.0164611 -0.00597083 0.00239446 0.0159535 0.000728823 -0.00400202 0.00490241 0.0026515 0.00587629 0.00381443 0.00715207 0.00485164 0.00349015 -0.00032326 -0.0200366 -0.0225986 0.00464202 0.0143126 0.0179474 0.0140099 0.0184784 0.0181845 0.0189322 0.018139 0.030106 0.0330732 0.0283579 0.0395947 0.0206886 -0.00855174 -0.00610118 0.0169051 0.00442632 -7.92239e-06 0.00570096 0.00578058 0.0071134 0.00329897 0.00626526 -0.0016637 -0.00651089 -0.022238 -0.0125767 0.00292372 0.0333305 0.0238763 0.0140576 0.0187045 0.0259454 0.0312954 0.0309343 0.0374521 0.0435811 0.0378762 0.0325126 0.036552 0.0283071 -0.00751235 -0.00886597 0.00581878 0.00868747 0.00556012 0.0102839 0.00811313 0.000103093 0.00958763 0.00311684 0.000770743 -0.0308073 -0.0260353 -0.00844739 0.00366357 0.0242647 0.0201783 0.0152237 0.0277062 0.0228096 0.0342699 0.0437791 0.0439143 0.0408436 0.0337274 0.0371489 0.0375307 0.0288964 -0.0091652 0.00530056 0.0132922 0.00836088 0.0130904 0.00789811 0.00410105 0.00134021 0.00773196 0.00689066 -0.0026053 -0.0360619 -0.0332183 -0.0156194 0.00645706 0.025567 0.018346 0.0124208 0.0215057 0.0313621 0.0354814 0.039639 0.0306086 0.0271151 0.0331474 0.030494 0.0305524 0.00758405 -0.0167952 0.000303504 0.00990674 0.0111287 0.00502542 0.00480014 0.00920354 0.000515464 0.00659794 0.00820599 -0.00136643 -0.0230316 -0.0218068 -0.00191851 0.0165294 0.0166905 0.00460628 0.0020797 0.00728319 0.00775521 0.0134258 0.0118719 0.00626995 0.009679 0.0127734 0.0218051 0.0130571 0.000338272 -0.0276353 0.0104148 0.00684027 0.0131997 0.00265413 -0.000429618 0.00942096 0.00608247 0.00721649 0.00277889 0.00151647 0.00759116 0.00683644 0.00814898 0.00888417 0.00511108 0.00537384 0.00165455 -0.0013575 -0.000776157 -0.00100313 -0.000119672 -0.00531321 0.00314724 0.000104611 0.00901275 0.00832406 -0.00462673 0.0011467 0.00403074 0.00165402 0.00114587 0.00859469 -0.000130342 0.00183724 0.00329897 0.00515464 0.00051586 0.00749564 0.00376487 0.000244007 0.00217091 0.00984795 0.00489791 0.00854121 0.00484569 0.0072514 0.00638249 0.00133331 0.00762174 0.00479473 0.00111313 0.00485245 0.00802067 0.00650052 0.00579911 0.001921 0.00869018 0.009029 0.00455699 0.00670589 0.00415488 0.00464699 0.000824742 0.00185567 0.00721649 0.000103093 0.00237113 0.00329897 0.00742268 0.00536082 0.00896907 0.00721649 0.00649485 0.000103093 0.000309278 0.00237113 0.00278351 0 0.0071134 0.00154639 0.00670103 0.0028866 0.00443299 0.00484536 0.00907216 0.00443299 0.00381443 0.000927835 0.00649485 0.00505155 0.00835052 0.00907216 0.0043299 0.000824742 0.00618557 0.00216495 0.00597938 0.00556701 0.00907216 0.00474227 0.00927835 0.00505155 0.00443299 0.00309278 0.00206186 0.00494845 0.00690722 0.00371134 0.0085567 0.00360825 0.00268041 0.00876289 0.00391753 0.00546392 0.00298969 0.00247423 0.00494845 0.00237113 0.00608247 0.00587629 0.00680914 0.00455082 0.00582688 0.00197722 0.00282786 0.00116025 0.00256976 0.00561747 4.07965e-05 0.00511724 0.00987555 0.00930904 0.00238898 0.00694622 0.004076 0.00705747 0.000343699 0.00205133 0.00719063 0.00246448 0.00640546 0.00230872 0.000357036 0.00703083 0.00290748 0.000464427 0.000515464 0.00268041 0.00125264 0.00708854 0.00946925 0.00723807 0.00475558 0.0061452 0.00674255 0.00338424 0.0107041 0.00745889 0.00784672 0.00699928 0.0110567 0.016692 0.0084843 0.001518 0.00228466 -0.0139313 -0.0144878 -0.00914175 0.00925445 0.00738761 0.0114211 0.00967148 0.00403207 0.00629993 0.00350515 0.00958763 0.00560762 0.00168624 0.00487769 0.00148893 0.00786251 0.00921328 0.0135983 0.0103241 0.012174 0.00553405 0.00714135 0.00363466 0.00471283 0.0116294 0.0109291 0.0168669 -0.0109501 -0.0223337 -0.00663832 -0.0106828 0.0128915 0.0230718 0.0175619 0.0118072 0.00810195 -3.08833e-05 0.00783505 0.00441203 0.00115324 0.0013455 0.007716 0.0113259 0.00782768 0.0160486 0.0157544 0.0188475 0.008501 -0.00364936 -0.00576909 -0.00946977 -0.00303076 0.00707056 0.00897556 0.00245333 -0.0245181 -0.0166047 -0.0131641 -0.00421701 0.0114334 0.0260152 0.0284361 0.0216058 0.00644658 0.0102308 0.00917526 0.00214815 0.00442685 0.00414141 0.000672011 0.00465576 0.00085502 0.00190843 0.00914082 0.00784924 0.00165733 -0.0157222 -0.0110197 -0.0186737 -0.0100035 0.00342991 -0.0146243 -0.0261177 -0.0330695 -0.0314534 -0.0171437 -0.0142693 -0.0118704 0.0238473 0.0272157 0.012882 0.0131282 0.00861976 0.00556701 0.00875443 0.000839117 0.00654464 0.00355424 0.00524089 -0.00509637 -0.00129374 -0.00085308 -0.00965821 -0.0109293 -0.018171 -0.00806495 -0.0201291 -0.0102855 -0.0157144 -0.0319844 -0.0366401 -0.0275981 -0.0105122 -0.00547153 -0.0256214 -0.0249797 -0.000916571 0.0182478 0.0102091 0.00939627 0.0078139 -3.12836e-06 0.00745185 0.00807838 0.00532217 -0.000314278 -0.00602076 -0.00716291 -0.0100245 -0.00699809 -0.0166252 -0.0230066 -0.0137403 -0.0116097 -0.00821865 0.00198497 -0.0351367 -0.0247792 -0.0285389 -0.0119097 -0.0212129 -0.00696453 -0.0169566 -0.0531867 -0.0239745 0.00713806 0.0084809 0.000661468 0.00190904 0.00145709 0.00164568 0.00256527 0.00552622 -0.000101747 -0.00795921 -0.0166107 -0.0213013 -0.0204432 -0.027167 -0.0181391 -0.0172345 -0.00077021 -0.000262518 -0.00943405 -0.0298807 -0.0245732 -0.0253423 -0.0241428 -0.0344315 -0.0183488 -0.0193827 -0.060051 -0.0548134 -0.00244407 0.00448463 -0.00130584 -8.07454e-05 0.000687238 0.00835052 0.00134448 0.0032895 -0.00669767 -0.0201818 -0.0282339 -0.0275852 -0.0332077 -0.0237481 -0.00674161 -0.00416474 0.000261266 -0.0155764 -0.0272377 -0.0210813 -0.00290872 -0.000960514 -0.030541 -0.0336522 -0.0254236 -0.0207067 -0.0610313 -0.0591087 -0.0156993 0.00758196 0.00325421 0.00663475 0.00814433 0.00391753 0.00223657 -0.000385837 -0.00543655 -0.0161069 -0.021979 -0.0343681 -0.0328473 -0.028677 -0.00958428 0.00146911 -0.01582 -0.0347201 -0.011445 0.00564083 0.0130102 -0.0128705 -0.0254417 -0.0275685 -0.0224834 -0.0200904 -0.0703597 -0.052992 -0.0178576 0.00346214 0.00898283 0.00547286 0.00494845 0.00845361 0.00394551 -0.00319209 -0.00751092 -0.0180888 -0.0260561 -0.0381062 -0.0269958 -0.0267372 0.00332333 -0.00513457 -0.0257344 -0.0308346 -0.0128574 0.0264939 0.0100025 -0.00898454 -0.0124416 -0.00822714 -0.0107472 -0.0393653 -0.0689811 -0.0470537 -0.0127405 -1.42573e-05 0.00822828 0.00648764 0.00556701 0.0101031 0.00457493 -0.00399107 -0.0128308 -0.0186588 -0.0282729 -0.0322378 -0.0309489 -0.0274977 -0.0217685 -0.040022 -0.0227715 -0.0118968 0.000900034 0.0253371 0.018466 0.00170755 0.00175318 0.00239568 -0.0109473 -0.0412421 -0.07236 -0.0472342 -0.0137095 -0.00774047 0.000329892 0.00537817 0.00340206 0.00257732 0.000771107 -0.00341085 -0.0183841 -0.0303774 -0.0308994 -0.0197944 -0.043263 -0.0432086 -0.02826 -0.0190019 -0.00264103 0.00520078 0.00110881 -0.00554991 -0.0129435 -0.0139124 -0.0408276 -0.0361817 -0.0409161 -0.0662284 -0.0774916 -0.0574165 -0.0242377 -0.0125796 0.00207574 0.00532231 0.00969072 0.00783505 0.00195542 0.000902798 -0.0189702 -0.0349779 -0.0334669 -0.0108517 -0.0103409 -0.00847257 -0.0179743 -0.00539543 0.0130658 0.00515629 0.00807676 -0.0158586 -0.0212566 -0.0491696 -0.0646146 -0.0793551 -0.0796031 -0.0772053 -0.0791569 -0.0678012 -0.0568426 -0.0395457 -0.00862798 0.00960836 0.00752577 0.00917526 0.00545331 -0.00180018 -0.0232862 -0.040061 -0.0318894 -0.00327042 0.0112812 0.0086162 -0.00484225 0.0116444 0.0321004 0.0353268 0.0334322 0.0158827 -0.00616132 -0.0319078 -0.0572764 -0.0703474 -0.0726857 -0.0876037 -0.0799127 -0.0625311 -0.041147 -0.0148948 -0.00383368 0.00194026 0.00484536 0.00793502 0.00862337 -0.00743628 -0.0210157 -0.0412775 -0.0334334 -0.0117562 -0.0175397 -0.0173001 -0.0159147 0.0364222 0.0530311 0.0512059 0.0417155 0.0252583 -0.00189918 -0.0302742 -0.0566009 -0.0673772 -0.0744392 -0.0946334 -0.0873672 -0.0497039 -0.0233123 -0.0159423 0.000423566 0.00439461 0.000618557 0.00678414 -0.000570988 0.000704183 -0.0196884 -0.039765 -0.0409733 -0.0282311 -0.0351171 -0.0288581 -0.0257564 0.0402299 0.0461875 0.0394902 0.0382761 0.016741 -0.021394 -0.0483343 -0.0638884 -0.0762393 -0.0891879 -0.115419 -0.101996 -0.0530556 -0.036376 -0.0120316 -0.00359289 0.00207757 0.00886598 0.00793814 0.00666906 0.000380337 -0.0241474 -0.0393639 -0.042828 -0.0543455 -0.0458703 -0.0374259 -0.0159891 0.02246 0.0264009 0.0192 0.021374 -0.00248837 -0.0499884 -0.0739382 -0.0854349 -0.088496 -0.0953969 -0.115763 -0.0930436 -0.0567236 -0.0369429 -0.0192288 -0.00511135 -0.000372035 0.00515464 0.0028866 0.00154836 -0.000182452 -0.0212987 -0.0398602 -0.0765219 -0.0735625 -0.0525163 -0.0349569 -0.00989765 0.00139026 0.0142617 0.00234744 -0.00526367 -0.0240458 -0.0563739 -0.0821371 -0.0892609 -0.0767962 -0.081957 -0.0975416 -0.0881161 -0.0420958 -0.0241078 -0.010876 -0.00250021 0.00355106 0.00237113 0.00814433 0.0095943 0.00169639 -0.0165463 -0.0521913 -0.0821123 -0.0716845 -0.0435462 -0.0346311 -0.0229973 -0.0144803 -0.00839588 -0.0125351 -0.0260826 -0.0426962 -0.0584033 -0.0697506 -0.0775512 -0.067911 -0.0782259 -0.0902776 -0.0779847 -0.0363643 -0.0220597 -0.0135979 -0.0032919 0.00645478 0.00670103 0.00391753 0.00793327 3.01246e-05 -0.0184225 -0.0608693 -0.0636504 -0.065647 -0.025263 -0.0286128 -0.0283 -0.033099 -0.0173982 -0.0226112 -0.0421733 -0.049855 -0.059012 -0.0666216 -0.0628706 -0.059243 -0.0703189 -0.0929037 -0.0712037 -0.0316485 -0.0104251 -0.00662855 0.00200245 0.00660561 0.00360825 0.00103093 0.00978738 -5.23139e-05 -0.0334787 -0.0487616 -0.0540295 -0.0539982 -0.017863 -0.0250667 -0.0270221 -0.0401423 -0.0327588 -0.0303958 -0.044799 -0.0460437 -0.0503787 -0.0516206 -0.0446174 -0.0487999 -0.0641924 -0.0835705 -0.0466831 -0.0115666 -0.0123071 -0.00336121 0.00486304 0.00235909 0.00525773 0.00762887 0.00303263 0.0115815 -0.0386624 -0.0403262 -0.0245887 -0.0102534 -0.00643762 -0.0101275 -0.0188477 -0.0320076 -0.0330167 -0.0307299 -0.0286577 -0.0201701 -0.029263 -0.0290927 -0.0353044 -0.0253268 -0.040099 -0.0590585 -0.0235838 -0.00280323 -0.0025786 0.00136339 0.00866561 0.00861542 0.00298969 0.00412371 0.000482373 0.0127659 -0.0123079 -0.0259272 0.00634184 0.0151396 0.0130508 0.00585815 0.00162136 -0.00781118 -0.0122215 -0.0224741 -0.0101203 -0.0126374 -0.00861279 -0.00718391 -0.0115553 -0.00591617 -0.0256837 -0.0467376 0.00715751 0.0053403 0.00270795 -0.000712012 0.00551138 0.00813019 0.000824742 0.00690722 0.000795119 0.00844983 0.00315705 0.00816636 0.000981266 0.0103488 0.00638591 -0.00167174 -0.002314 -0.00115121 -0.00178534 -0.0084242 -0.00175786 -0.00315038 -0.000736051 -0.00629675 -0.00699289 -0.00337284 -0.011946 -0.00865892 -0.000865713 0.00314281 0.007379 0.00383318 0.00059548 0.000378685 0.0102062 0.00371134 0.00824873 0.0100043 0.00329202 0.00900667 0.00800401 0.00381694 0.00106593 -0.000770839 0.00520907 0.00343208 0.00813949 0.00430854 0.00152385 0.00493136 3.38798e-05 0.00186868 0.00922238 0.00944294 7.61737e-05 0.00709126 0.00754668 0.0075621 0.00583767 0.00776758 0.00503759 0.000708855 0.00298969 0.00835052 0.00979381 0.00804124 0.00783505 0.00546392 0.0102062 0.00865979 0.00670103 0.00958763 0.000824742 0.00742268 0.00443299 0.00298969 0.0014433 0.00701031 0.0056701 0.00938144 0.00752577 0.00226804 0.00494845 0.00525773 0.00886598 0.00453608 0.00474227 0.00793814 0.00175258 0.00298969 0.00164948 0.00762887 0.00938144 0.0071134 0.00123711 0.00474227 0.00958763 0.00938144 0.00154639 0.00505155 0.00587629 0.00412371 0.00536082 0.00371134 0.00525773 0.00896907 0.00268041 0.00639175 0.0056701 0.0085567 0.00969072 0.00824742 0.01 0.00670103 0.00670103 0.00134021 0.00628866 0.00804124 0.00804124 0.00804124 0.00412031 0.00108213 0.0044993 0.00441796 0.00714263 0.00941252 0.0116584 0.00473979 0.00385269 0.00139118 0.0058864 0.00143446 0.00673094 -0.000599532 0.00126797 0.00930351 0.00842847 0.00523752 0.0111283 0.00380812 0.00559849 0.00534216 0.00985756 0.00159912 0.0100451 0.0022475 0.00391753 0.00525773 0.00479789 -0.000311123 0.000329233 0.00145666 -0.00216522 0.0107634 0.0020701 -0.000221041 0.00428234 -0.00485157 -0.00100702 0.00771389 -0.00736318 -0.0200297 -0.0057877 0.0152725 0.0160501 0.0194014 5.56069e-05 -0.00813834 0.00148424 0.0113877 -0.00075483 0.00748164 0.00810389 0.0102342 0.00835052 0.00216495 0.00554878 0.00196663 -0.00894272 -0.016612 -0.0204896 -0.0180341 -0.0203329 -0.0156768 -0.00569836 -0.0138065 -0.0208025 -0.0368515 -0.0494847 -0.0470795 -0.0289778 -0.00572053 -0.0189918 -0.0480305 -0.0471857 -0.0574662 -0.0240802 0.00254327 -0.0102705 -0.0025082 0.0104377 0.00626863 0.00649485 0.00150186 0.00730746 0.000851219 -0.0167733 -0.0228157 -0.0242793 -0.0388323 -0.0359142 8.69752e-05 -0.0054818 -0.0161905 -0.0377607 -0.0294479 -0.0226353 -0.00516837 -0.0151564 -0.0116454 -0.0219371 -0.047729 -0.054614 -0.0490379 -0.0310933 -0.0255991 -0.0381143 -0.0197767 -0.00427501 0.00871373 0.00206186 0.00585681 0.00256346 -0.00239546 -0.0236669 -0.0358792 -0.0412951 -0.0542101 -0.0508715 0.00169821 0.00360173 -0.000400855 0.00315425 0.0302095 0.052014 0.0269357 -0.0130059 -0.023948 0.0013877 -0.0263898 -0.0670014 -0.0703407 -0.0440934 -0.050811 -0.0525473 -0.038454 -0.0119052 0.00204968 0.01 0.00180087 0.00942764 0.000408804 -0.0250772 -0.0434382 -0.0652881 -0.0772166 -0.0705377 -0.0157478 -0.0113924 -0.0102757 0.00766942 0.0456961 0.0841751 0.0241909 -0.0203855 -0.0132967 0.048514 0.016263 -0.0372351 -0.0482186 -0.0510021 -0.0611435 -0.0712773 -0.0577434 -0.0142759 0.0062023 0.00959269 0.00860902 0.00509345 -0.00740389 -0.0221965 -0.0406411 -0.0662018 -0.06936 -0.0725236 -0.042829 -0.0123233 -0.00581565 0.00754516 0.0372613 0.046233 -0.0245057 -0.0525599 -0.0437364 0.0435812 -0.00163988 -0.0227709 -0.0182007 -0.0304028 -0.0600627 -0.0720391 -0.0634396 -0.0176549 0.00380889 0.007012 0.00547968 0.000758979 0.000978653 -0.00997291 -0.0322292 -0.047265 -0.0570474 -0.0640601 -0.0274308 -0.0111041 -0.0113063 -0.00840988 0.0076811 -0.0290943 -0.0648306 -0.0656209 -0.0319738 0.0368603 1.40814e-06 -0.00644899 -0.00930661 -0.0179418 -0.0445478 -0.0582896 -0.045619 -0.0165427 0.00624971 0.00655047 0.00608247 0.00480423 -0.00836839 -0.0164877 -0.0346355 -0.0398479 -0.0661453 -0.0584139 -0.0306113 -0.0282224 -0.0193119 -0.0313161 -0.0558115 -0.108478 -0.102308 -0.04861 0.00706244 0.0622908 0.0177405 0.0226844 0.0209803 0.00437421 -0.00952937 -0.0276849 -0.0272759 -0.00732036 0.00940711 0.000206186 0.000824742 0.00765531 -0.00733962 -0.0216031 -0.0387986 -0.0486437 -0.0499488 -0.0433491 -0.000955313 -0.00611533 -0.0266179 -0.0657144 -0.104161 -0.122579 -0.102748 -0.0275222 0.0330045 0.091379 0.0456553 0.0419029 0.0461726 0.0383719 0.0155744 0.0101769 -0.0111582 -0.004961 0.000551983 0.00371134 0.0056701 0.00591692 0.0026492 -0.0136455 -0.0402542 -0.0523373 -0.0293609 -0.00728287 0.019283 0.00321513 -0.0500147 -0.111319 -0.133938 -0.146288 -0.113919 -0.0595005 0.00627068 0.0508522 0.0156573 0.0394103 0.0508713 0.0534798 0.0312031 0.0290701 -0.00660859 -0.000608611 0.00351583 0.00546392 0.00340206 0.00284832 0.00983276 -0.00137185 -0.019391 -0.0309817 -0.0150027 0.0088323 0.0119115 -0.00903497 -0.0925585 -0.132034 -0.160078 -0.170032 -0.135564 -0.100915 -0.0449324 0.0191172 0.00624016 0.0478457 0.0375145 0.0492861 0.0414206 0.0293044 -0.00386577 -0.00526057 0.00821496 0.00103093 0.00731959 0.00307628 0.00399161 0.0205357 0.0152601 -0.0028011 0.0182273 0.019184 0.00428747 -0.0362413 -0.100888 -0.155844 -0.159473 -0.155382 -0.143992 -0.104283 -0.0363073 0.0181786 0.000462347 0.0349026 0.0272494 0.0386743 0.0182202 0.021751 -0.0110657 -0.00672815 0.00653035 0.00350515 0.00731959 0.00520241 0.0161468 0.0352726 0.0419661 0.00869117 0.0275844 0.0456048 0.0436787 -0.0204948 -0.102553 -0.138703 -0.13605 -0.131657 -0.108232 -0.0712815 -0.0169241 0.0287604 0.0132121 0.0144447 0.00543998 0.0157724 -0.0244017 -0.0361757 -0.0450948 -0.0144274 0.00163006 0.00463918 0.00103093 0.00843867 0.0103512 0.0235718 0.036377 0.0239918 0.0387217 0.0779241 0.0557575 -0.0295703 -0.0879854 -0.0948959 -0.0876718 -0.0905688 -0.072945 -0.0191185 0.0315646 0.0619125 0.038289 0.0321522 0.00181392 0.000370987 -0.043968 -0.0602372 -0.0426745 -0.0125851 0.00199213 0.00835052 0.0031238 0.00236979 -0.0027827 0.0010633 0.0268852 0.0354275 0.0667753 0.0644127 -0.00520695 -0.0449134 -0.0608485 -0.0620124 -0.0609123 -0.0500545 -0.00895159 0.0359846 0.0639121 0.0655759 0.040891 0.0649591 0.0289733 -0.00399983 -0.0421767 -0.0498418 -0.0395413 -0.0238852 0.00243942 0.00628866 0.00597172 0.000995946 -0.0101848 -0.0104992 0.0398142 0.056996 0.0683983 0.000422571 -0.0459192 -0.0579747 -0.0663734 -0.0620702 -0.0493296 -0.0324055 0.0103021 0.0371841 0.0325846 0.041281 0.0318041 0.066129 0.0182351 -0.0227367 -0.0446272 -0.0451823 -0.0364686 -0.0252545 0.00942767 0.00329897 0.00371134 0.00708381 -0.0215757 -0.0180301 0.0368885 0.0681521 0.0224915 -0.0400839 -0.0987808 -0.0779542 -0.0716263 -0.0735226 -0.0448184 -0.0132559 0.0209129 0.0517515 0.038153 0.0635265 0.0391003 0.0324666 -0.0127617 -0.0471309 -0.0574903 -0.062376 -0.057747 -0.0264991 0.00707954 0.00814433 0.00979381 0.00224178 -0.0149471 -0.00271499 0.0339688 0.021794 -0.0261062 -0.08271 -0.107102 -0.0787927 -0.0605474 -0.065655 -0.0308519 0.00442991 0.0169276 0.0312931 0.0149967 0.0286268 0.0151549 -0.0272046 -0.0401931 -0.0600261 -0.0703697 -0.0746648 -0.0536646 -0.00989342 0.00879258 0.00474227 0.00938144 0.00157465 -0.0107167 -0.00544088 -0.0147513 -0.00798183 -0.0254054 -0.0629809 -0.0639524 -0.0776588 -0.0671795 -0.0712483 -0.0403627 -0.00806708 0.0141878 0.0248566 0.00887591 0.00402256 -0.011952 -0.0641009 -0.0422856 -0.0332118 -0.024095 -0.0313968 -0.0151471 0.00836845 0.003016 0.00690722 0.00917526 0.00339333 -0.00859803 -0.0301362 -0.0687097 -0.0608484 -0.0308458 -0.0293412 -0.0360142 -0.0768758 -0.0852037 -0.0693615 -0.037415 -0.0159532 -0.00309042 -0.0114217 -0.016095 -0.00192577 -0.00337604 -0.0245 -0.0101831 0.0303556 0.0420232 0.0320716 0.0212019 0.0119966 0.0101738 0.000309278 0.00907216 0.000492862 -0.010407 -0.0645896 -0.065766 -0.0779853 -0.0441398 -0.0203167 -0.031656 -0.0465295 -0.0635535 -0.0604298 -0.030592 -0.00999471 -0.0121151 -0.0412429 -0.0427304 -0.0176235 0.0196284 0.020812 0.016348 0.0680266 0.0978159 0.0736385 0.0321681 0.0193164 0.0042354 0.0042268 0.00597938 0.00398743 -0.00981219 -0.058144 -0.0647568 -0.0602761 -0.0278487 -0.0567966 -0.0823332 -0.0661669 -0.0619928 -0.0486817 -0.0451428 -0.0397637 -0.0408953 -0.0385608 -0.0348557 -0.0232561 0.00111848 0.0171237 0.0145325 0.0563893 0.078771 0.0689089 0.0412352 0.0105705 0.00853055 0.00134021 0.00659794 0.000670434 0.00124692 -0.0340064 -0.0459032 -0.0232858 -0.00693902 -0.0303351 -0.0437181 -0.0288822 -0.0249824 -0.0380883 -0.0544673 -0.059003 -0.0358179 -0.0265512 -0.0206737 -0.011606 0.00330554 0.00348549 0.00224358 0.0245212 0.0259832 0.0272474 0.0243219 0.00598746 0.00501034 0.00113402 0.0071134 0.0101747 0.0137043 -0.000748703 0.00357728 0.0141544 0.0155967 0.00646535 0.0131446 0.0330052 0.0137244 -0.00626731 -0.0154113 -0.0174474 -0.00196262 -0.00283106 0.00742982 0.00267821 0.0108457 0.0181553 0.0131562 0.0148211 0.0247375 0.0101201 0.00949136 0.00770293 0.0101359 0.00814433 0.00360825 0.00587957 0.0100292 0.00797827 0.000784119 0.00813745 0.00489455 0.00815413 0.00558973 0.0143043 0.00746732 0.00779415 0.0071513 0.000608836 0.00162871 0.00780542 0.00837685 0.00535309 0.00401238 0.00895318 0.0106081 0.00390307 0.00376985 0.00871598 0.000966156 0.00318593 0.00282958 0.00319588 0.00917526 0.00536082 0.00309278 0.00742268 0.00659794 0.000721649 0.00979381 0.0028866 0.00835052 0.00927835 0.00103093 0.00793814 0.00731959 0.00371134 0.00608247 0.00443299 0.00412371 0.00340206 0.00381443 0.00958763 0.00309278 0.00762887 0.00958763 0.00845361 0.000309278 0.00628866 0.00927835 0.00639175 0.000721649 0.01 0.00525773 0.00237113 0.00927835 0.00175258 0.00412371 0.000309278 0.00680412 0.0085567 0.00628866 0.00608247 0.00463918 0.00886598 0.00525773 0.00670103 0.000103093 0.00412371 0.000927835 0.01 0.0085567 0.00515464 0.00597938 0.00216495 0.00773196 0.00835052 0.00896907 0.00731959 0.00896907 0.0102058 0.000252452 0.0080856 0.00392923 2.63074e-05 0.00310349 0.00611935 0.00168535 0.00015367 0.00390795 0.00288499 0.00604561 0.00228328 0.0101397 0.00648006 0.0104724 0.00400106 0.0083888 0.00119505 0.0066707 0.00990589 0.00990421 0.00587896 0.00426504 0.00358431 0.0072067 0.00391753 0.00783505 0.00550989 6.60735e-05 0.00614956 0.00510844 0.00362705 0.00398683 0.00135056 0.00405221 0.00416437 0.00159819 0.00250391 0.0070462 0.00655696 0.0097586 0.0103346 0.018138 0.0192444 0.00379849 -0.00911377 -0.00842885 0.00495543 0.0129486 0.000750433 0.00678651 0.00479001 0.00268839 0.0101031 0.00917526 0.0047538 0.00587073 0.00223824 0.00118823 -0.00269409 -0.000227391 0.00140722 0.00582628 6.6972e-05 0.0012251 0.0134902 0.0112617 0.0134615 0.00978291 0.0191947 0.0299404 -0.0016809 -0.012687 -0.0143169 -0.0233835 0.00557495 0.0103431 0.00959545 0.00396781 0.000121965 0.00244778 0.00865979 0.00952385 0.00683608 0.00358211 0.00453562 -0.00130969 -0.00623143 -0.0084444 0.000411233 -0.0034843 -0.0001867 -0.000699635 0.0123549 0.0168794 0.0199227 0.0111221 0.0187222 0.0195805 -0.0123665 -0.012959 -0.00228385 -0.0115502 -0.00301028 0.0138369 0.0128688 0.00992871 0.00374901 0.00924388 0.000309278 0.00702894 0.00131025 0.00311698 0.00654309 0.00467888 0.00226581 -0.00528809 0.00101227 -0.00112241 -0.00570543 0.00651704 0.0107069 0.0153196 0.0161797 0.0139637 0.00151197 -0.0121975 -0.0135084 -0.00623882 -0.00376961 -0.00888846 -0.00883499 0.0152656 0.0160757 0.012336 0.00619806 0.00883531 0.0028866 0.00475924 0.00928167 0.00807764 0.00910307 0.000591655 0.00109403 -0.00124056 -0.00119314 0.00254876 -0.00429163 0.00127382 0.000427822 0.00540432 0.00890478 -0.0154356 -0.0273489 -0.0203777 -0.00861561 0.0189431 0.0155959 -0.0130284 -0.0214074 0.0086561 0.0200423 0.0143419 0.0107098 0.00837512 0.00360571 0.0046468 0.00842212 0.00276816 0.000868547 0.00388335 -0.00519695 -0.0038043 0.00200275 -0.00837469 -0.00637289 -0.0147903 -0.00168077 -0.000786349 -0.000238135 -0.0342278 -0.0405036 -0.0260449 0.000787711 0.00826145 0.0112571 -0.0115908 -0.0311089 -0.00573571 0.020255 0.0144879 0.0115354 0.00782094 0.00623547 0.00742218 0.00752413 0.00878739 0.00234647 0.00356381 -0.00520522 -0.00722768 -0.00755891 -0.00494283 -0.0157741 -0.0198053 -0.0168204 0.000761167 -0.00582803 -0.0350844 -0.0372179 -0.0135803 -0.00194437 -0.00321606 -0.00133584 -0.00722985 -0.0381942 -0.0260493 0.0128074 0.0126982 0.0134699 0.000198913 0.00626071 0.00639175 0.000391937 0.00608293 0.00942049 0.00364273 -0.00682081 -0.00527857 -0.00843765 -0.00744411 -0.0154011 -0.0214329 -0.0153389 -0.0232335 -0.0315922 -0.0356501 -0.0159824 0.000179853 -0.010653 -0.00780844 -0.00476804 -0.00483341 -0.0485332 -0.039172 0.0017967 0.0145147 0.00638806 0.0042861 0.00154639 0.00154639 0.00377648 0.00509288 0.00615567 -0.00241259 -0.00208557 -0.000605378 -0.0077997 -0.0208533 -0.0259899 -0.0245552 -0.0277476 -0.0458242 -0.0381236 -0.018176 -0.00704758 0.000965743 -0.0120568 -0.0108054 -0.0110583 -0.0251922 -0.0541016 -0.046662 0.00249523 0.00559506 0.0102902 3.75733e-05 0.00247423 0.00958763 0.000435434 0.00027807 0.00526778 0.00438795 -0.00775433 -0.0033407 -0.00744053 -0.0292033 -0.0224389 -0.029908 -0.0416727 -0.0490609 -0.0312633 0.000457145 0.00786693 -0.000120162 0.00255996 -0.00436312 -0.0154725 -0.0359572 -0.0569603 -0.0294753 0.00225305 0.00794967 0.00807261 0.00088859 0.00278351 0.00958763 0.00697004 0.00596007 -0.00298224 0.000305587 -0.00932793 -0.0115071 -0.0309495 -0.043217 -0.0452129 -0.0655233 -0.0580448 -0.0476721 -0.0332879 0.00423008 -0.000424964 0.0114745 -0.000893224 0.000133169 -0.00852906 -0.0288333 -0.0464115 -0.0183453 0.00440147 0.0126948 0.00457493 0.000176819 0.00216495 0.000412371 0.00470755 0.004113 -0.0060857 -0.00716722 -0.014492 -0.0124892 -0.0542625 -0.0653357 -0.0731413 -0.0605587 -0.0514249 -0.0370657 -0.0294854 -0.0253574 -0.0256208 -0.0109578 -0.0156035 -0.00707344 -0.0190438 -0.0277836 -0.0376436 -0.0271017 -0.00534981 0.00462599 0.00639332 0.00122291 0.00113402 0.00608247 0.00532619 0.00181301 -0.00184088 -0.0101735 -0.016041 -0.0225691 -0.0319636 -0.0504233 -0.064856 -0.0489083 -0.0397615 -0.0345009 -0.0250961 -0.0344874 -0.0357782 -0.0274763 -0.0248508 -0.0211757 -0.024978 -0.0340052 -0.0308234 -0.0338412 -0.0280938 -0.0129013 0.00351584 0.00776472 0.0028866 0.00329897 0.00637707 0.00494328 -0.0101231 -0.0104268 -0.0182932 -0.0161435 -0.0245222 -0.0401793 -0.0509565 -0.0438879 -0.0255762 -0.0079923 -0.0118709 0.000116523 -0.0146784 -0.00725715 -0.00150903 -0.00177675 -0.0142606 -0.0277321 -0.0289459 -0.0161426 -0.00663517 0.00585109 0.00547884 0.0046944 0.0014433 0.00238057 0.00325765 0.00846517 -0.000497785 -0.00199908 -0.0143035 -0.0214368 -0.0432913 -0.0649174 -0.0560645 -0.0189689 0.0113809 0.00950643 0.0117698 0.00896824 0.0131832 0.0105161 0.01182 0.0190553 0.00558616 -0.0216169 -0.0221436 0.00954163 0.0135634 0.0125088 0.00601808 0.00566116 0.00680412 0.00346243 0.00684597 0.0025022 0.00094707 -0.00474297 -0.0106212 -0.0181559 -0.0479022 -0.0594812 -0.0546054 -0.00269014 -0.00169082 0.00466639 0.000319626 0.00115111 -0.00165148 -0.00407871 0.0051357 0.0133357 -0.00125549 -0.0189325 -0.0198757 0.00499744 0.00969647 0.00968205 0.0021975 0.00284877 0.00175258 0.00350515 0.00187401 0.00916375 0.00857569 -0.000829845 -0.0108365 -0.0338424 -0.0453799 -0.046887 -0.0294838 -0.00260301 -0.00233669 -0.00456663 -0.000113142 0.00236922 0.000718835 -0.00460406 0.00125937 0.011617 -0.00617853 -0.0270833 -0.0183594 0.00447912 0.00595064 0.00515409 0.00606435 0.000646613 0.00474227 0.00907216 0.00106445 0.00910235 0.00160628 -0.0103576 -0.0356 -0.040146 -0.0395545 -0.0237247 0.000395626 -0.00310462 0.00125872 0.00995007 0.00611219 -0.00239153 -0.00450234 -0.00195994 -0.00249324 0.00232453 -0.0140569 -0.027984 -0.0250498 0.00379804 -0.00405806 0.00341166 -0.000535303 0.00168059 0.0014433 0.00979381 0.00441157 0.00547313 0.00535184 -0.0203304 -0.0362676 -0.0380397 -0.00750046 0.00488873 -0.00095136 0.00701395 0.011281 0.0151984 0.00901884 0.0112557 0.00205973 -0.000579779 -0.00663912 0.000393597 -0.0134794 -0.0418631 -0.0321911 -0.00244056 -0.00212866 0.00160688 0.00254991 0.00654295 0.00391753 0.00731959 0.00489287 0.00226933 -0.00326912 -0.0348508 -0.0295853 -0.0260658 0.013564 0.0119589 0.0089397 0.0115247 0.0203316 0.0203366 0.0115146 0.0146981 0.0142308 0.00928028 -0.000349993 -0.0086076 -0.0173518 -0.0477924 -0.0418779 -0.0111161 -0.0139039 -0.00659322 -0.000524151 0.00599737 0.00278351 0.000927835 0.00213333 0.00755432 -0.0340824 -0.0421019 -0.0216415 -0.0181078 0.0181772 0.0137126 0.0181238 0.0139621 0.0249298 0.0230909 0.0179549 0.0139299 0.0199544 0.00430645 -0.00547436 -0.00270595 -0.0270308 -0.0511994 -0.0341802 -0.0111765 -0.0104979 -0.00608199 0.00705784 0.00676436 0.00340206 0.00876289 0.00732199 0.00332464 -0.0324625 -0.035647 -0.0254764 0.00522141 0.0198432 0.0178643 0.026543 0.0241622 0.0309767 0.029989 0.0215161 0.0206758 0.0217913 0.00803319 0.00805751 0.00155667 -0.0250528 -0.056724 -0.0220621 -0.00985229 -0.00478317 0.00104655 0.00265824 0.00596508 0.00958763 0.00443299 0.0095151 0.00569532 -0.02337 -0.0293068 0.00600144 0.0112897 0.0157821 0.0125244 0.0244851 0.0194832 0.0274475 0.0217983 0.0274415 0.0250534 0.0169825 0.00975455 0.000107632 0.00533926 -0.0263959 -0.0419395 -0.00975737 -0.00523276 0.00439792 0.00278359 0.00411711 0.00846043 0.0071134 0.00206186 0.00948988 0.00806937 0.0046219 -0.000660279 0.00150718 0.000733945 0.00940629 0.00347227 0.00633925 0.00483358 0.00707649 0.0157449 0.0108651 0.00467431 0.0147622 0.007991 0.00639613 0.0015316 -0.0130598 -0.00853111 0.00274454 -0.00161214 -0.00121589 0.00438028 0.00308904 0.00274598 0.00340206 0.00412371 0.006394 0.00266386 0.0078123 0.0016025 0.00394593 0.00383631 -0.000326396 -1.55392e-05 0.00575382 0.00709848 0.00553746 0.00335127 0.00286297 0.00320235 0.00979679 0.00365635 0.00228861 0.00200033 0.00192482 0.00245108 0.000771383 0.000475074 0.00525664 0.00803305 0.0051877 0.00954603 0.00216495 0.00876289 0.0028866 0.00443299 0 0.0056701 0.00731959 0.00721649 0.00536082 0.00773196 0.00319588 0.00412371 0.00350515 0.00412371 0.00886598 0.00350515 0.00494845 0.00402062 0.00670103 0.00989691 0.00123711 0.00639175 0.00536082 0.00319588 0.00896907 0.00659794 0.00587629 0.00494845 0.0057732 0.00721649 0.00515464 0.00845361 0.000103093 0.00958763 0.0102062 0.00329897 0.00453608 0.00319588 0.00773196 0.000412371 0.00515464 0.00268041 0.00680412 0.00391753 0.000103093 0.00237113 0.00443299 0.0042268 0.00824742 0.00979381 0.00185567 0.00608247 0.00649485 0.0028866 0.00298969 0.00907216 0.00556701 0.00134021 0.00814641 0.00712119 0.00684315 0.00811866 0.00807663 0.00364063 0.000323895 0.00175686 0.00922763 0.00243202 0.00725458 0.0050122 0.00249359 0.00531456 0.00410439 0.00917324 0.00947499 -0.000643293 -0.000473364 -0.000144287 0.0099768 0.00740111 0.00835008 -0.00012064 0.00177449 0.00304728 0.0057732 0.000515464 0.00670805 0.00186311 0.00480377 -0.000546868 0.00733229 0.00106709 0.0073755 0.00761991 0.00414149 0.00524578 0.00186908 0.00626917 -0.00105025 0.0069518 0.00323148 -0.00247254 0.00610797 -0.00986448 -0.00686448 0.000943482 0.0284329 0.014335 0.00766033 0.00518969 -0.00102206 0.000648944 0.00360825 0.00618557 0.00738727 0.00175448 -0.00369102 0.002994 0.0176849 0.0146726 0.0108234 0.0119909 0.00636595 0.00369685 -0.00874789 -0.0070632 -0.0110817 -0.00986359 0.000865741 -0.000220591 -0.0200854 -0.0275905 -0.0114386 -0.00473984 0.0154783 0.0306126 0.0106483 0.00802496 0.00191147 0.00192424 0.00865979 0.00233763 0.00970436 0.00424551 -0.000754856 0.0173142 0.0277127 0.0248828 0.0137898 0.0118223 0.0199227 0.0083231 -0.00574854 -0.0169865 -0.0166673 -0.0105243 -0.00356002 -0.00802217 -0.0315452 -0.0161785 -0.00275194 0.0102723 0.00223377 0.0140429 0.00142391 0.00616326 0.0125831 0.00182013 0.00154639 -0.000368811 0.00112987 0.00795355 0.00314556 0.00925295 0.0224633 0.01281 0.00905182 0.0118681 0.0141655 0.0021434 -0.00551428 -0.00503057 -0.00930612 0.00124441 -0.0124318 -0.0329551 -0.0308718 -0.0114443 0.011645 0.0164802 -0.00468417 0.0130688 0.0123337 0.00724231 0.00810977 0.00737912 0.00278351 0.00128482 0.00542628 0.00832762 0.00239956 0.00744609 0.0122196 0.00435224 0.00235556 0.00637603 0.00353826 -0.00422617 -0.00346731 -0.00299039 -0.0079471 -0.0132415 -0.0284801 -0.0327043 -0.011536 0.0212076 0.0439206 0.00363845 -0.0196274 -0.00182423 0.0123013 -0.000875147 -0.00499955 0.00147364 0.00948828 0.00979248 0.00138184 0.00152492 -0.00230687 0.00746212 0.0137056 0.00821785 0.00314288 -0.000381946 -0.00921726 -0.00314953 0.00102129 0.00356451 0.0119446 -0.0255121 -0.0351426 -0.0334108 0.00563168 0.0127705 0.0291341 0.00291731 -0.0175167 -0.00640951 0.00640472 0.0133477 0.00602323 0.00803268 0.000745982 0.0102038 0.005647 0.00408256 0.0134165 0.0130737 0.0107231 0.0241741 0.0165674 -0.00167954 -0.00579958 0.000159095 0.00550386 0.00377754 -0.0097403 -0.0280841 -0.0293594 -0.0235118 0.00810995 0.000885963 0.0152836 0.0212327 -0.00164928 0.00101201 0.0264493 0.0212345 0.012757 0.0052649 0.00210309 0.00453608 0.000481484 0.00177973 0.0117107 0.0157854 0.016654 0.0207164 0.0116074 -0.00209132 -0.00367617 0.00505973 -0.000879651 -0.0168054 -0.0403354 -0.0389548 -0.0243831 -0.00361494 0.000269801 0.00694554 0.0270885 0.0253228 0.0105503 0.00252596 0.0358887 0.0214255 0.00927132 0.00557547 0.00494845 0.00381443 0.00852757 -0.00120186 0.014848 0.0158147 0.017235 0.0237266 0.017317 0.00555977 0.0137659 0.0238346 -0.00401161 -0.0382497 -0.0426894 -0.0175037 -0.00596897 -0.00239223 0.00181124 0.0258245 0.0324852 0.0345273 0.00919323 0.0147849 0.0369121 0.0268479 0.0114562 0.00519266 0.00762887 0.0014433 0.00753691 0.00661327 0.0088928 0.0194149 0.0150981 0.0179866 0.0226682 0.01116 0.0214831 0.012876 -0.0161292 -0.0322537 -0.0461471 -0.0129714 -0.010461 -0.0091839 0.0116796 0.0217323 0.0144304 0.00447127 -0.0106911 0.0109393 0.0354811 0.0226107 0.00887468 0.00272986 0.000618557 0.000618557 0.00921294 0.00730287 0.0138778 0.0205134 0.014837 0.0157354 0.0243995 0.00425245 -0.00452009 -0.0140546 -0.0252806 -0.0356084 -0.0461768 -0.0118818 -0.00651631 -0.00253586 0.00135358 0.00779654 0.00626581 -0.0113637 -0.0253165 -0.000586115 0.0226767 0.0201351 0.00720446 0.00277277 0.000412371 0.0057732 0.00211767 0.00454558 0.0141673 0.0101469 0.0250881 0.0297766 0.0166669 -0.00826482 -0.0217296 -0.0198305 -0.0179259 -0.0277151 -0.0340067 -0.0345889 -0.0297295 -0.00850285 -0.0325801 -0.0301194 -0.0314177 -0.0431868 -0.0376367 -0.008619 0.0107941 0.0118355 0.00891678 0.00806204 0.00721649 0.00876289 0.00516797 0.00469237 0.0135339 0.00820799 0.0210479 0.0354974 0.0313756 0.00728252 -0.0165639 -0.0273099 -0.0196632 -0.024568 -0.0250563 -0.0263928 -0.0228184 -0.0370683 -0.05462 -0.0546258 -0.0615395 -0.0624385 -0.0412937 -0.0254665 -0.0262015 -0.0111595 0.000243724 0.00803465 0.0028866 0.00814433 0.00441493 0.00470926 0.00841381 -0.000542517 0.0259724 0.0444522 0.038293 0.0173246 -0.00399245 -0.00225769 0.0169542 0.036873 0.0276244 0.0093376 -0.00146797 -0.0227018 -0.0387564 -0.0575196 -0.0622771 -0.0724229 -0.0547903 -0.0268657 -0.019754 -0.00400805 0.00824582 0.00353469 0.00927835 0.00794109 0.00456798 0.00203969 0.00862109 -0.00163181 0.0232486 0.0370827 0.0165338 -0.0094888 -0.0109308 0.0296745 0.0674071 0.0648759 0.0453936 0.0337269 0.0227148 0.00682645 -0.0247312 -0.0439978 -0.0622606 -0.0787265 -0.058231 -0.0154151 -0.0141173 -0.0068232 -0.00411966 0.00369703 0.00876289 0.010225 0.00952585 0.00575855 -0.000858164 -0.00279453 0.00784036 0.0124623 -0.00903455 -0.0149587 -0.0229328 0.0224318 0.0578744 0.0479078 0.0384899 0.0364002 0.0206494 1.6193e-05 -0.0325149 -0.0416573 -0.0694777 -0.0887191 -0.0688839 -0.0244266 -0.0231021 -0.00976539 0.00210587 0.00551353 0.00948454 0.00412371 0.00921268 0.00426393 -0.00330603 -0.0165646 -0.0162311 -0.0305578 -0.0344793 -0.0278938 -0.0212468 0.0156974 0.0243951 0.0226094 0.0265866 0.0359934 0.0268102 -0.013536 -0.0324357 -0.0447683 -0.0698158 -0.0916821 -0.0691063 -0.0344993 -0.0139361 -0.0186477 -0.00575194 0.00506578 0.00134021 0.00639175 0.00768066 0.00859356 -0.0017164 -0.0248528 -0.0512312 -0.0505858 -0.0536579 -0.0362648 -0.0228844 -0.00589042 0.00197348 0.0177723 0.0284727 0.0229201 0.0133508 -0.0160757 -0.0320975 -0.0433434 -0.0629626 -0.0791902 -0.0691022 -0.0251661 -0.0133487 -0.015771 0.00260913 0.00545252 0.0028866 0.00391753 0.0042503 0.000226744 -0.00119889 -0.0333107 -0.0565817 -0.0566171 -0.0348152 -0.026256 -0.0240997 -0.026079 -0.00546364 0.00887592 0.0162586 0.0132781 -0.00373776 -0.0215174 -0.0432746 -0.0453553 -0.0576489 -0.0725606 -0.0608805 -0.0239784 -0.0135775 -0.0105828 -0.00436756 0.000751348 0.00278351 0.00123711 0.00949947 -0.00671001 -0.0239455 -0.0523131 -0.043808 -0.0461841 -0.0184704 -0.0109449 -0.0228259 -0.0198402 -0.00409384 0.00740529 0.00270358 -0.0182659 -0.022413 -0.028298 -0.0322972 -0.0383509 -0.0541347 -0.0700136 -0.0623246 -0.0172547 -0.00540452 -0.00605012 -0.00115641 0.00684659 0.000618557 0.00298969 0.000413479 -0.00447861 -0.0472873 -0.0558085 -0.0421284 -0.0478579 -0.0187745 -0.0121153 -0.017203 -0.0165205 -0.000375694 0.00445506 -0.0130949 -0.0316792 -0.0346854 -0.0419026 -0.0397465 -0.0385866 -0.0581477 -0.0639819 -0.0365727 -0.0144724 -0.00116157 0.000163532 0.000204824 0.00905131 0.0057732 0.000721649 0.00618347 0.000283821 -0.0377655 -0.0437439 -0.0302885 -0.0196468 -0.0176203 -0.0211406 -0.0221686 -0.0108032 0.00234109 -0.00513741 -0.0150617 -0.0275778 -0.0416863 -0.0464682 -0.0445665 -0.0351033 -0.0527556 -0.0610586 -0.0231991 0.00259979 -0.00246291 -0.00227569 0.00333319 0.00875354 0.00814433 0.00783505 0.00183831 0.00419535 -0.0284656 -0.0301301 0.00415295 0.00811731 -6.00366e-05 0.00211522 0.00684083 -0.00110473 0.00224633 -0.00460225 -0.0122647 -0.0255859 -0.0255974 -0.0290006 -0.0278192 -0.0201273 -0.0374089 -0.0528136 0.00340219 0.00637742 0.00574234 -0.00456208 -0.00194007 0.000576008 0.00865979 0.00484536 0.00785791 0.0074366 0.000782092 0.000107037 0.00771841 0.00483805 0.00333889 0.00743836 0.0122564 0.00516834 0.00180809 -0.0104958 -0.0083137 -0.0105064 -0.0077858 -0.00286339 -0.010261 0.00218163 -0.0138023 -0.0116684 0.00315865 0.00437362 0.00439837 -0.00311921 0.00572377 0.00805363 0.00237113 0.00278351 0.00732122 0.00190634 0.00896941 0.00421423 0.00147103 0.00929526 0.00166136 0.00893792 0.00113834 0.00555989 0.00444072 0.00615274 0.00742405 0.00517281 0.00294236 0.000600791 0.00833836 0.00593584 -0.000505089 0.00724645 0.00324008 0.00598213 0.00135154 0.00487103 0.00966932 0.00225889 0.0042268 0.00164948 0.00793814 0.00536082 0.00670103 0.00938144 0.00391753 0.00103093 0.00690722 0.0056701 0.00896907 0.00247423 0.00226804 0.00402062 0.0042268 0.00494845 0.000412371 0.00350515 0.00701031 0.0042268 0.00742268 0.00701031 0.00762887 0.00783505 0.00381443 0.00340206 0.0042268 0.00463918 0.00185567 0.00154639 0.00762887 0.00536082 0.00474227 0.0057732 0.00247423 0.00680412 0.00835052 0.00453608 0.00412371 0.00350515 0.00989691 0.00783505 0.00278351 0.000515464 0.00185567 0.00938144 0.0042268 0.00670103 0.00938144 0.00731959 0.00608247 0 0.00175258 0.00164948 0.00443299 0.00247423 0.00659794 0.000515464 0.00587146 0.000114448 0.00688831 0.00763145 0.00460475 0.00318717 0.00932286 0.00616096 0.00583519 0.00192191 0.00711366 0.0021912 0.00225373 0.00419895 0.00851703 0.0052144 0.0064639 0.00153781 0.0049788 0.00278903 0.00770753 0.00394016 0.0100346 0.00949526 0.00233997 0.00329204 0.0057732 0.00989691 0.000939301 0.00733969 0.0138272 -0.00014721 -0.00252133 -0.000334443 0.011937 0.0234776 0.0236213 0.0226493 0.0151537 0.0108778 0.00293505 -0.0164973 0.00143706 0.0163045 0.0275147 -0.0065977 -0.0197248 -0.0159366 0.00533177 0.00482654 0.00973148 0.0050145 0.000685935 0.00904237 0.00257732 0.000103093 0.000732508 0.000280981 -0.000843578 -0.0254654 -0.0296306 -0.0109769 0.0117047 0.0270445 0.0162932 -0.00436954 0.00553057 0.0293063 0.0093423 -0.00961939 0.00362331 0.0174829 -0.00594032 -0.0381294 -0.0490676 -0.059769 -0.0177713 0.00379551 0.00719446 -0.00103014 0.000501029 0.00535119 0.00814433 0.00142422 -0.000914476 -0.0017041 -0.012738 -0.0288491 -0.0284713 -0.0115607 0.00328363 0.00404965 -0.0109605 0.00196728 0.0233658 0.0403014 0.0334054 0.0196969 0.0210265 -0.00748326 -0.0513636 -0.0538437 -0.0517326 -0.0539898 -0.0333449 0.00028622 0.000389446 0.00257582 0.00408761 0.00627055 0.00103093 0.00522275 0.0060318 0.00329891 -0.000896756 -0.00743743 -0.0116869 -0.00256973 -0.0116451 -0.0243965 -0.0227233 -0.00356311 -0.00140516 0.00515361 0.00436561 -0.00494182 -0.01814 -0.0387906 -0.0645886 -0.0508218 -0.0387198 -0.0392318 -0.0424474 -0.00782992 -0.00170375 0.00307431 0.0043673 0.00214785 0.00814433 0.00910776 0.00207045 0.00891514 0.0146156 0.0121912 0.00476381 -0.0118572 -0.0351691 -0.0405218 -0.0375819 -0.0194634 -0.0236702 -0.0200126 -0.0207466 -0.0612034 -0.0609137 -0.0417333 -0.0382406 -0.0244876 -0.00721566 -0.0202308 -0.0281415 -0.0159577 0.00250735 0.004629 0.00179581 0.0047219 0.00711802 0.00831937 0.00809735 0.00114526 0.00760105 0.018985 0.0115073 -0.0119538 -0.0423867 -0.039612 -0.030681 -0.0334236 -0.0334182 -0.0398707 -0.0262871 -0.0596458 -0.0519536 -0.0171795 -0.0130766 -0.0131324 -0.00618176 -0.018601 -0.041065 -0.0195969 -0.00581442 -0.00258532 0.0102669 0.00257796 0.00595386 0.00422663 0.0041007 0.00321352 0.00588618 0.0176984 0.0043519 -0.0181412 -0.0328244 -0.0286565 -0.0271639 -0.0312457 -0.0402051 -0.0267131 -0.0233883 -0.0538954 -0.0449349 0.00605583 0.0227682 -0.00470608 -0.0102609 -0.00076264 -0.039187 -0.0275004 0.00181507 0.00862266 0.00244245 0.00455203 0.00592704 0.00927835 0.00380743 0.011622 -0.00567219 0.00797571 0.00140147 -0.0115158 -0.0115139 -0.00671031 -0.0250209 -0.0238486 -0.0104573 -0.0151356 -0.0284663 -0.0297244 -0.0117529 0.033434 0.0446529 0.0236501 0.018872 0.0121734 -0.0370947 -0.0303797 0.00559425 0.0121017 0.00987426 0.00821737 0.00453608 0.0085567 0.00469753 0.00614409 0.00525808 0.0140343 -0.0070178 -0.00575236 0.00531393 0.0113555 0.000170531 0.0136486 0.00457885 -0.00213071 -0.0131755 -0.000957155 0.0273912 0.0623382 0.0549144 0.0511003 0.0446417 0.0446704 -0.0043597 -0.0149221 0.0161393 0.00665307 0.00417406 0.00756273 0.00113402 0.00515464 0.00999499 0.0176746 0.00622257 0.0220088 0.00363902 0.00623555 0.0227733 0.0191061 0.0276664 0.0401131 0.0248579 0.0149378 0.00335615 0.0436679 0.0502642 0.0631859 0.0418319 0.0343357 0.0375028 0.0494342 0.0142965 0.00845355 0.0131971 0.0153886 0.00183148 0.00998728 0.00402062 0.0085567 0.0007931 0.0207146 0.00911197 0.0255876 0.0152512 0.0207487 0.0460276 0.0180727 0.00748586 0.00842766 -0.0051038 -0.000162947 -0.00899634 0.0315044 0.0393776 0.0272112 0.00416077 0.00532936 0.0101159 0.0257185 0.0128659 0.0308647 0.0307037 0.00915622 0.00523891 0.00348392 0.0085567 0.00886598 0.0101302 0.0110184 0.00626504 0.0174743 0.0076932 0.0242184 0.0309625 0.00580508 0.00248052 -0.0155101 -0.0300917 -0.0354029 -0.0398324 -0.036121 -0.0124702 -0.0275663 -0.0476569 -0.0565009 -0.0420953 -0.00798166 0.00157258 0.0231191 0.0293939 0.00942866 0.0112673 0.00408229 0.00742268 0.00587629 0.00724628 0.00683329 0.00706023 0.0115741 0.0108807 0.0171073 0.0439511 0.0223349 -0.013578 -0.0267332 -0.0393667 -0.0537952 -0.0384036 -0.043279 -0.0290625 -0.0525526 -0.0578141 -0.07935 -0.0796095 -0.0477438 -0.0165891 0.0228776 0.0182366 0.000710644 0.00562271 0.0098849 0.00680412 0.0057732 0.00874418 0.00132709 0.010259 0.000844656 0.0120002 0.0163638 0.0375152 -0.00961283 -0.0443424 -0.0502341 -0.0406708 -0.0317309 -0.0296559 -0.0189786 -0.0243686 -0.0439584 -0.0463097 -0.0539612 -0.0670864 -0.0499373 -0.0272435 0.0106404 0.041708 0.0367839 0.00376167 0.00419365 0.00938144 0.0071276 0.0041461 -0.00243479 0.0075802 0.00609325 0.0194402 0.0190355 0.00350564 -0.0462545 -0.0541 -0.0344244 -0.0171263 -0.0221103 -0.014201 0.00857073 0.00912752 -0.015733 -0.0210027 -0.00526986 -0.0165619 -0.0424707 -0.0107889 0.0352918 0.0580618 0.0526303 0.0132958 0.00698079 0.0102062 0.00576097 0.00572469 0.00185159 0.00630203 0.0103437 0.0088747 0.00250175 -0.0247346 -0.0561354 -0.0511912 -0.019844 -0.0146535 -0.0199434 -0.0143078 -0.0159239 -0.0166575 -0.0305788 -0.0346673 -0.00160062 -0.00308451 -0.0215167 0.00347831 0.049678 0.0457937 0.0402716 0.0236068 0.00640028 0.000515464 0.00989691 0.0027521 0.000256176 0.00913461 0.0128756 -0.00308522 -0.0290828 -0.0338548 -0.0508449 -0.0397073 -0.00665288 -0.0171795 -0.0176308 -0.00776087 -0.0181802 -0.00523912 -0.0289967 -0.0206248 0.0108436 0.0164014 -0.00767231 0.00100757 0.0347109 0.0372823 0.0292207 0.022307 0.00956607 0.000927835 0.00670103 0.00861398 0.00142653 0.00619029 -0.00214831 -0.0386381 -0.0509109 -0.0460455 -0.0200184 0.000266485 -0.00167423 -0.0109726 0.00769328 0.0143248 -0.00217575 0.00213396 -0.00487963 -0.0102188 0.00762838 0.00185639 -0.0248368 -0.022272 0.0157572 0.0263655 0.0268891 0.0142397 0.0035231 0.0085567 0.00597938 0.00989104 0.0013076 0.00670708 -0.0250247 -0.0567027 -0.0589356 -0.0340588 -0.00230873 0.00898498 -0.0049096 -0.00526299 0.0116267 0.0171404 0.00151524 0.0132397 0.0045124 -0.00621172 -0.00540744 -0.0164111 -0.0573271 -0.0445149 0.0132452 0.027863 0.0132358 0.00208946 0.00595648 0.00762887 0.00896907 0.00986346 0.00942751 -0.00957253 -0.0373779 -0.0410514 -0.0558491 -0.0276342 -0.0335829 -0.0190865 -0.00593016 -0.000364403 0.00154607 -0.00655623 -0.0133183 -0.00848813 -0.0255809 -0.0197587 -0.022107 -0.0386906 -0.052124 -0.0351874 0.0156978 0.0199088 -0.007484 -0.00352169 0.00253757 0.00608247 0.00185567 0.00212997 0.00144488 -0.0376137 -0.0443618 -0.0307744 -0.0418498 -0.0284005 -0.0293001 -0.022194 -0.0151353 -0.00786189 0.00272095 0.00671679 -0.0115031 -0.0150233 -0.0181992 -0.0109384 -0.00498141 -0.00826073 -0.0260062 -0.0045688 0.0168726 -0.00370198 -0.0189532 -0.00452589 0.000721169 0.00278351 0.00381443 0.0088088 -0.00431542 -0.0473372 -0.0453833 -0.0347142 -0.0182353 -0.0308416 -0.0291112 -0.0112035 0.000582312 0.0134451 0.0254821 0.0404879 0.0218178 0.0145114 0.0190379 0.023414 0.0212658 0.0174607 -0.0153028 0.0138336 0.0190734 0.000140214 -0.0160112 -0.00784246 0.0054505 0.0057732 0.00639175 0.00140088 -0.00204471 -0.0375423 -0.0426811 -0.00283255 0.00363974 0.00660145 0.00919531 0.00762423 0.0287822 0.0358975 0.0438619 0.0435064 0.0421925 0.0414104 0.0489429 0.0404976 0.0335456 0.0106975 -0.0193169 0.0105134 0.00771925 -0.000422715 -0.0126683 -0.00233051 0.00326239 0.00134021 0.00175258 0.00953298 0.00566601 -0.000741289 -0.000729399 0.00561881 0.0145253 0.0202609 0.0261281 0.0243978 0.0324215 0.0236968 0.0248471 0.0376635 0.0442958 0.0447597 0.0466425 0.0399673 0.033906 0.00786779 0.0106216 0.0139901 0.0127581 -0.0027827 0.000507334 0.000476065 0.00927451 0.00123711 0.00917526 0.00546488 0.00804054 0.0097415 0.00181049 0.000131739 0.000455219 0.00801689 0.00705411 0.00494669 0.00549773 0.0056746 0.00809073 0.00268722 0.00848436 0.00489977 0.00891087 0.00690344 0.00800108 0.00233737 0.00135258 0.00151092 0.00300347 0.00318965 0.00989367 0.00816358 0.00628111 0.00453608 0.00608247 0.00628866 0.000721649 0.00783505 0.00742268 0.00463918 0.00948454 0.00742268 0.0028866 0.00989691 0.00113402 0.00360825 0.00360825 0.00298969 0.00164948 0.00329897 0.0057732 0.00597938 0.00505155 0.00206186 0.00989691 0.00247423 0.00206186 0.00268041 0.000618557 0.0085567 0.00463918 0.00762887 0.00938144 0.00907216 0.00391753 0.00659794 0.000412371 0.00793814 0.00546392 0.0043299 0.000412371 0.00237113 0.00536082 0.00257732 0.00113402 0.0043299 0.00247423 0.00505155 0.00360825 0.00927835 0.00474227 0.0028866 0.0056701 0.000412371 0.0042268 0.000927835 0.00835052 0.00814433 0.000206186 0.0085567 0.00948454 0.00329957 0.00129599 0.0101592 0.0062948 0.0047168 0.000247793 0.00890439 0.00579027 0.00382773 -0.0031089 -0.00206673 -0.00246731 0.00310389 0.00285525 0.0015709 -0.00217616 0.000831647 -0.00240917 -0.00202693 -0.0001498 0.00334946 -0.00102179 0.00944047 0.00243354 0.00743559 0.00154403 0.00659794 0.00268041 0.0074825 0.00906075 0.0107024 0.0100507 -0.00122337 0.00031845 0.00569966 -0.0058869 -0.00637315 -0.00931917 -0.00065458 0.00480513 0.00494392 -0.00345845 -0.0107156 -0.0142558 0.00257271 -0.00279539 -0.0214495 0.000303541 0.0161016 -0.00565133 -0.00288911 0.00935808 0.00402414 0.00654977 0.0071134 0.00505155 0.00189336 0.00686469 0.00768616 0.00522331 -0.00104466 -0.00673465 0.0112659 0.0029809 -0.0100651 -0.00963823 -0.00892603 -0.00938041 0.0043544 -0.0121894 -0.0237276 -0.0221023 -0.0239458 -0.0393588 -0.0175733 -0.0118337 -0.0169434 -0.0169476 -0.0193061 -0.004438 0.00871942 0.0112102 0.00814433 0.00241682 0.00260068 -0.00377445 -0.00650706 -0.00566431 -0.00868314 -0.0118136 -0.00746876 -0.0104731 -0.0125044 -0.00337818 0.00547009 -0.00595033 0.0123127 0.0269974 -0.0185958 -0.0428451 -0.0490672 -0.0291403 -0.00960998 -0.0148863 -0.0180371 -0.00517971 -0.0194842 -0.00736489 0.00483942 0.00905162 0.00752577 0.00121807 0.00753328 -0.00868024 -0.0121006 -0.00802316 -0.00978882 -0.012662 -0.0139066 -0.0145935 -0.0106626 -0.00607505 0.00376042 -0.0103862 -0.00355232 0.0277372 -0.0104085 -0.0471067 -0.0239176 0.0116665 0.000436152 -0.0216085 -0.0228776 -0.00567415 -0.00300612 -0.00244039 0.00454543 0.00296336 0.00505155 0.009663 0.00882536 -0.00488898 -0.0177479 -0.0197346 -0.0235237 -0.0117613 -0.00833722 -0.00615028 0.00170802 -0.00230194 0.00547035 -0.00104006 0.00638343 0.0130745 -0.00924629 -0.0283094 -0.00290207 0.0373873 0.000728877 -0.007485 -0.0331947 -0.0048976 -0.00596111 -0.00183681 0.00144712 0.00424945 0.00607948 0.00679193 0.00809375 -0.00739139 -0.0178917 -0.0283315 -0.0226263 -0.0138133 -0.00261274 -0.0104709 0.00611864 -0.00287583 0.0146436 0.0193588 0.0192104 -0.00199085 0.00145653 -0.0232716 0.00559462 0.0298135 0.00376046 -0.00573796 -0.0343396 -0.0247898 -0.00673597 -0.00310266 9.05287e-06 0.00333129 0.00806302 0.00793578 0.000202028 -0.00116053 -0.0128114 -0.0313244 -0.025655 -0.0208936 -0.0153127 -0.00920894 -0.00642848 0.00690843 0.0168888 0.0118769 -0.00812211 -0.00811439 0.00551974 -0.0205454 -0.00142335 -0.00229124 -0.00276154 -0.000806531 -0.0339079 -0.0270974 -0.0138115 -0.00216593 0.000394327 0.00650166 0.00357527 0.000927835 0.00917751 -0.00326561 -0.0170829 -0.0307378 -0.0291847 -0.0309639 -0.0217155 -0.0298432 -0.0240296 -0.00597783 -0.0105362 -0.0125461 -0.0356075 -0.0176208 0.0232931 -0.0142122 -0.001752 0.000769322 -0.00911028 -0.00678616 -0.0358994 -0.0398105 -0.0155754 -0.00438677 -0.00152352 0.00611455 0.00597938 0.00876289 0.00184557 -0.0052948 -0.0167096 -0.0319673 -0.0301737 -0.0280234 -0.0235116 -0.0253933 -0.0201997 -0.0108079 -0.0242907 -0.0253931 -0.0394 -0.0137513 0.0142733 -0.0016927 0.0121394 -0.0027411 -0.0156096 -0.000132445 -0.0241142 -0.0247391 0.000873128 0.00324313 0.00530057 -8.1732e-05 0.00329897 0.00773196 0.0035939 -0.00216174 -0.023201 -0.032843 -0.0271561 -0.0309188 -0.0285639 -0.0312487 -0.0219151 0.00615629 -0.0247026 -0.0306604 -0.0478974 -0.0203491 -0.00193856 0.00219634 0.0051344 -0.00899581 -0.0187735 -0.00755564 -0.0260332 -0.0177514 0.00600943 0.00634776 0.00373225 0.00327358 0.00731959 0.00783505 0.00284962 -0.00409883 -0.0261004 -0.0360101 -0.0282824 -0.0296684 -0.0515782 -0.06024 -0.047137 -0.0252527 -0.0284592 -0.02133 -0.0267811 -0.0183622 -0.023974 0.00708754 0.00888199 -0.0152793 -0.0140806 0.0083303 -0.0150876 -0.00538444 0.0101164 0.00442078 -0.000328969 0.00236314 0.0085567 0.00917526 0.00331367 -0.00556723 -0.0178019 -0.0304022 -0.0236749 -0.0125138 -0.065253 -0.0705954 -0.0691312 -0.0421033 -0.0189907 -0.0148977 -0.0142795 -0.0337458 -0.0464178 -0.000708793 -0.00842172 -0.0244015 -0.0248568 0.00498742 -0.0132358 -0.0190504 -0.00313158 -0.00195156 -2.10389e-05 0.00105465 0.00690722 0.00175258 0.00266137 -4.26254e-05 -0.0158919 -0.0224087 -0.0187664 -0.00854624 -0.0375846 -0.0493524 -0.0539113 -0.0139548 0.0144436 0.0199908 -0.0011585 -0.0260636 -0.0194895 -0.015772 -0.016597 -0.0368195 -0.0234961 -0.00095174 -0.0289059 -0.0428636 -0.0362954 -0.0218612 0.00112607 0.00465945 0.00608247 0.00536082 0.0070527 -0.00275561 -0.0224855 -0.0205373 -0.0181292 -0.0143364 -0.0121654 -0.0166663 -0.043536 0.0013267 0.0527398 0.0387078 0.0157017 0.00417925 0.010159 0.0049409 -0.0145303 -0.0303457 -0.0222086 -0.0300181 -0.0433623 -0.0342782 -0.027675 -0.00167137 0.00589934 0.0038018 0.00845361 0.00246642 -0.00085378 -0.00223463 -0.0191541 -0.0142664 -0.023764 -0.0121583 -0.0226445 -0.0362667 -0.0183106 0.0323264 0.0788185 0.0364359 0.0174131 0.0311966 0.0501611 0.0235908 0.0199408 0.017324 -0.0094165 -0.0321774 -0.0416038 -0.00598577 0.00198098 0.00288146 0.000111217 0.00453025 0.00762887 0.00386756 0.00468573 -0.00804505 -0.0157272 -0.00839974 -0.00634425 0.0018446 -0.0219351 -0.0186912 0.00960982 0.0554233 0.0423572 -0.013215 -0.00609209 0.0190372 0.0535702 0.0544074 0.045315 0.0372337 -0.00712256 -0.0350466 -0.0295856 -0.006065 -0.000308198 0.00333974 0.00645729 0.00919568 0.00845361 0.00443299 0.00342187 -0.00607253 0.000350576 0.00116372 0.00951464 -0.0106464 -0.026891 -0.0170686 0.0221258 0.0633467 0.0110328 -0.0476475 -0.0236905 0.0161201 0.063368 0.0743355 0.0514939 0.0299551 0.0137825 -0.0220896 -0.0377393 -0.000219699 0.00612818 1.26929e-05 0.00928455 0.00702092 0.00154639 0.00979381 0.00430304 0.00720284 0.00891874 0.0044465 -0.0220696 -0.0258592 -0.0139754 0.0173737 0.0304166 0.0343012 -0.0292829 -0.0562355 -0.0386858 -0.00502486 0.0469141 0.0550345 0.0349313 0.0305392 0.00609738 -0.00859379 -0.0353533 -0.00324554 0.0034543 -0.00420599 0.00180933 0.00891435 0.00793814 0.00134021 0.000394564 0.0107367 0.00594954 -0.00853533 -0.0297778 -0.0206207 0.00894158 0.0201797 0.0259658 -0.0152856 -0.070354 -0.0653535 -0.0446959 -0.020724 0.00448627 0.0281196 0.0223541 0.0288494 -0.00104725 -0.0121033 -0.0197243 0.0045954 0.00328955 -0.00506002 0.00350475 -0.000122183 0 0.00731959 0.0084044 0.00796209 0.00160654 -0.00943452 -0.028307 -0.0271391 0.00356929 0.0141133 0.0240476 -0.0206309 -0.0650616 -0.0361263 -0.0256844 -0.0423616 -0.0258948 0.000245741 0.0143882 0.0544916 0.0236286 -0.000825983 -0.0110011 0.00350439 0.00759374 0.000156839 0.00179405 0.00872708 0.0101031 0.00824742 0.00906118 0.0084534 -0.0118354 -0.0113213 -0.031502 -0.0331957 0.0233842 0.0398592 0.0393067 -0.030728 -0.0551909 -0.0532691 -0.0470956 -0.0482132 -0.0278093 0.0181389 0.0330656 0.0682173 0.0439424 -0.00389616 -0.0137521 0.0031642 0.00289377 -0.00215385 0.00686947 0.00881457 0.000309278 0.00835052 0.00939134 0.0139195 -0.0130285 -0.0145678 -0.0198788 0.00496315 0.0566592 0.0407375 0.0381227 -0.0195198 -0.0359624 -0.0460632 -0.0413242 -0.0249832 -0.0105474 0.0105863 0.0232775 0.0695847 0.0582274 0.0180855 0.00621974 0.00573528 0.0036864 0.00681336 0.00516032 0.00691047 0.00329897 0.00876289 0.00333953 0.0081486 -0.00617902 -0.00987527 0.00370187 0.0250623 0.0531553 0.0656078 0.0401602 -0.00467318 -0.0311194 -0.0325745 -0.0358875 -0.0187474 -0.00800577 -0.00245754 0.0141015 0.053726 0.0582756 0.0120332 0.013452 0.0129011 0.0108554 0.0145086 0.0086018 0.00378899 0.00731959 0.00453608 0.00319742 0.0119538 0.0143572 0.0211014 0.0137133 0.014375 0.0345697 0.0387977 0.0227414 0.0113978 0.00324209 -0.0159873 -0.0248184 -0.00908424 0.00864888 0.00378988 0.00622527 0.0286504 0.0235167 0.018598 0.0187205 0.00358413 0.00212401 0.0110989 0.0102679 0.00862593 0.00896907 0.00958763 0.00514719 0.00824825 0.00760343 0.00866826 0.00982226 0.0035998 0.00347816 0.00763113 -0.000298861 -0.00494708 0.00187851 -0.0055355 -0.0033736 -0.0056506 -2.81148e-06 -0.00701539 0.000921226 0.00182792 0.00156634 0.00585903 0.000190625 0.00194599 0.00497129 0.004335 0.00510123 0.00568839 0.000721649 0.00505155 0.00938144 0.00618557 0.00845361 0.00371134 0.00195876 0.00721649 0.00814433 0.00257732 0.00195876 0.000927835 0.000103093 0.00319588 0.00247423 0.000721649 0.00257732 0.000103093 0.0085567 0.0071134 0.00907216 0.00659794 0.00649485 0.00247423 0.00350515 0.00721649 0.00525773 0.01 0.00247423 0.00113402 0.00690722 0.00670103 0.00412371 0.00814433 0.0056701 0.0028866 0.00628866 0.00329897 0.00278351 0.00618557 0.00402062 0.00680412 0.00381443 0.00494845 0.00494845 0.000412371 0.00494845 0.00670103 0.00216495 0.00340206 0.00773196 0.0042268 0.0014433 0.00484536 0.00639175 0.00556701 0.00783505 0.00556701 0.00597767 0.00211161 0.00853667 0.00905078 0.00678198 0.00162988 0.00539448 0.00781515 0.00265428 0.00364095 0.00257372 0.00707625 0.0023604 -0.00153453 -0.00165511 0.00750935 0.00114019 0.00775106 0.0025723 0.00475081 0.00841681 0.00271979 0.00647514 0.00700591 0.00968495 0.00601944 0.00814433 0.0085567 0.00891706 0.00194336 0.00971749 0.010065 0.0102028 0.0015013 0.00627266 0.00125384 -0.00197968 0.00444155 -0.00307327 -0.00615056 -0.0103002 -0.0175732 -0.0137959 -0.00308878 -0.000997526 -0.0148942 -0.0124285 -0.0101372 0.0146144 0.0154063 0.00935121 0.00304793 0.00335968 0.00818609 0.00453608 0.000309278 0.0049474 0.00231993 -0.000189767 0.00129045 0.00423376 0.00293509 0.00268426 -0.000520354 -8.59932e-05 -0.00195049 -0.00498525 -0.0086706 -0.0135875 -0.0172642 -0.0127691 -0.00306547 -0.030914 -0.033601 -0.0338622 -0.0249219 0.0121096 0.0262932 0.0189599 0.010878 0.00916628 0.00770463 0.00216495 0.00226819 0.00556923 0.00378906 0.00233186 0.00743959 0.00119072 0.00016464 0.00196383 -0.0015433 -0.000668617 -0.000347316 -0.0102983 -0.0086753 -0.000138512 -0.0068074 0.000263959 -0.00861217 -0.0351214 -0.0234437 -0.0234062 -0.0186006 0.0154317 0.0361685 0.0173077 0.00768996 0.00897938 0.00576694 0.00237113 0.00515547 0.00864806 -0.000761667 -0.00751094 -0.00846298 -0.00637425 -0.00289601 -0.00352027 0.0106886 -0.000294005 0.000497376 0.00933133 0.0125925 0.0118288 0.0197966 -0.00541297 -0.0186304 -0.0239176 -0.021425 -0.019922 -0.0257699 -0.00119251 0.0270994 0.00867606 0.0070616 0.00192134 0.00989796 0.00639175 0.00381457 0.00482389 7.77819e-05 -0.00952368 -0.00936581 -0.00755404 -0.00536322 -0.00553871 0.00827162 0.000704654 0.00645055 0.00599368 0.00740155 0.0094497 -0.00626293 -0.0191119 -0.0221683 -0.0140137 0.0168949 0.00211215 -0.0187605 -0.0161849 0.0116758 0.00810356 0.00647665 0.00392889 0.00780744 0.00566594 0.0043725 0.00459251 -0.00414517 -0.0125819 -0.0152107 -0.00822354 -0.00882486 -0.00857819 -0.00459538 -0.00267531 -0.00488916 0.00671353 0.00878303 0.0162608 -0.0184191 -0.0222145 -0.0184268 0.00651704 0.00815159 0.00508553 -0.0181484 -0.0386665 -0.0143589 0.00129578 -0.00013834 0.00580015 0.00586437 0.00366123 0.00556562 0.00719593 -0.00278797 -0.00884353 -0.0175415 -0.0202892 -0.022047 -0.0154081 -0.00313626 -0.009358 -0.0116106 -0.00850146 0.0128949 0.00583341 -0.024951 -0.0281301 -0.0178167 0.00291363 -0.0106158 -0.00228622 -0.00697233 -0.0519074 -0.0387653 -0.0022185 -0.00156059 0.00338514 0.000860052 0.00139746 0.00298969 0.00965355 0.00438605 -0.00870945 -0.0225644 -0.0240267 -0.0149579 -0.0157887 -0.00755874 -0.00160511 -0.00455907 -0.0139605 -0.0251037 -0.0382501 -0.029304 -0.0126642 -0.0115514 -0.00822521 -0.0128165 -0.0076658 -0.0185484 -0.0591017 -0.0497275 -0.00938939 -0.0063145 0.00431067 0.00980948 0.00556701 0.00329897 0.000246381 -0.00055492 -0.00657903 -0.0172315 -0.0151362 -0.0100018 -0.0152756 -0.0137355 -0.011189 -0.0167262 -0.0333052 -0.0496507 -0.0376943 -0.0216613 0.00457556 -0.0062018 -0.0135266 -0.0160288 -0.0143164 -0.023711 -0.0651487 -0.0567626 -0.0184689 -0.00317828 0.00325521 0.0048114 0.00927835 0.000412371 0.00776486 -0.00411907 -0.0112005 -0.0114493 -0.0159651 -0.0129831 -0.0142849 -0.0113785 -0.00750188 -0.0151883 -0.0401407 -0.0455679 -0.0284966 0.00346046 0.00591283 0.0049695 -0.0083363 -0.00662818 -0.0152916 -0.0362191 -0.0636124 -0.0443341 -0.0159696 -0.00700275 -0.00140724 0.00618419 0.00185567 0.00474227 0.00505606 0.0031321 -0.00353176 -0.00826443 -0.010493 -0.0056326 -0.0253853 -0.0416772 -0.0450452 -0.0564917 -0.055377 -0.0358897 -0.0232514 0.00593799 0.0178046 0.00582604 -0.00812282 -0.00773766 -0.0132759 -0.0288482 -0.0501932 -0.0343376 -0.00314592 0.0011639 0.00051147 0.00228597 0.00474227 0.00453608 0.0010696 0.00561235 -0.00705944 -0.0133951 -0.0148684 -0.0149312 -0.0501975 -0.0743836 -0.0644704 -0.0572778 -0.0407271 -0.0227768 -0.0237356 -0.0230984 -0.013055 -0.00990838 -0.0194946 -0.0169288 -0.0122326 -0.0255802 -0.0478651 -0.0309919 -0.00871609 -0.00459488 0.00207438 0.00342631 0.00391753 0.00639175 0.00368478 0.00396848 -0.00105686 -0.0136042 -0.0112464 -0.0163612 -0.0333456 -0.049548 -0.0609478 -0.0584625 -0.0332059 -0.0278832 -0.0200676 -0.0171391 -0.0119998 -0.00891848 -0.00967993 -0.0191382 -0.0184808 -0.0211887 -0.0303507 -0.0459407 -0.0478085 -0.0209162 0.00506331 0.00245676 0.00989691 0.0071134 0.0031218 -0.0015655 -0.0101742 -0.00381617 -0.0110528 -0.00768692 -0.0187876 -0.0347572 -0.0632933 -0.0509289 -0.0248577 -0.0192125 -0.0239656 -0.0109112 0.0027444 0.00987986 0.0108113 0.0169928 0.00745176 -0.0196291 -0.024531 -0.0215806 -0.0187269 -0.00671539 -0.00101162 0.00427378 0.00237113 0.00443502 0.0070324 0.000369588 -0.00272838 -0.00237523 -0.00320242 -0.00463094 -0.033103 -0.0629363 -0.0690459 -0.0276964 -0.0055121 -0.0176828 -0.012735 0.000326635 0.00629219 0.019294 0.0262337 0.0282801 0.0210328 -0.0119798 -0.0184326 0.00150296 0.00448913 0.00413213 0.000627759 0.00479126 0.00804124 0.00795116 0.00470203 0.0062002 0.00132327 -0.00072034 -0.00587875 -0.013715 -0.0481657 -0.0576605 -0.0580804 -0.0134512 -0.0209695 -0.0252994 -0.0220817 -0.00676865 0.00709025 0.0110601 0.0201827 0.0302891 0.00506371 -0.0173613 -0.0131285 0.00324273 0.000619965 0.00304788 0.00346877 0.00695656 0.000618557 0.00876289 0.00997542 0.00368879 -0.000156512 0.00320534 -0.00311226 -0.0312344 -0.0412456 -0.0452669 -0.0393635 -0.0199462 -0.022735 -0.030253 -0.023239 -0.00353633 0.0117581 0.0196262 0.0163978 0.0267431 0.010349 -0.0197842 -0.0236449 0.00402322 -0.000959729 0.00130694 0.00399604 0.00218269 0.00742268 0.0028866 0.00367463 0.00402127 -0.00294305 -0.00961403 -0.0305384 -0.0318707 -0.0256526 -0.0157706 -0.0055596 -0.012911 -0.024901 -0.0282336 -0.00031387 0.00320745 0.0227214 0.0249993 0.0050686 0.00779209 0.0135162 -0.0133445 -0.0208172 -0.00342395 -0.000541952 -0.00536538 -0.00101638 0.00890747 0.00969072 0.0043299 0.0018435 0.00682928 -0.00169665 -0.0153982 -0.024289 -0.0161425 0.0068433 0.0118455 0.000544319 -0.0153268 -0.0095311 -0.00139776 0.0114488 0.0214414 0.0229663 0.027441 0.0100601 0.0103399 0.0109101 -0.0197769 -0.0188738 -8.95644e-05 0.000620689 -0.00363343 -0.00283815 0.00309698 0.0085567 0.00402062 0.00686431 0.00878056 -0.00668803 -0.0346208 -0.0210512 -0.000898181 0.0269739 0.010688 0.00181046 -0.00286098 0.00713595 0.0241514 0.0238985 0.016729 0.0252136 0.0198367 0.00819914 0.0175246 0.00616442 -0.020788 -0.0153862 -0.000948328 0.00152033 0.00275638 0.00594046 0.0087608 0.00206186 0.00587629 0.000167503 0.00376012 -0.0385098 -0.0346752 -0.0265283 -0.00613091 0.021093 0.0105891 0.0146683 0.0106744 0.0317811 0.0316458 0.0217699 0.0121611 0.0214642 0.017117 0.0167499 0.0196569 0.00570537 -0.0236625 -0.00857099 0.00116421 0.00153624 0.00683853 -0.000384672 0.00640342 0.00917526 0.00237113 0.00720137 0.00529485 -0.0303807 -0.0286384 -0.0137818 0.00841625 0.0229185 0.0107667 0.0114334 0.0139578 0.0216073 0.0239211 0.0168561 0.00327635 0.00914135 0.024593 0.0188093 0.0209429 0.00544209 -0.0282467 -0.00157297 -0.00158296 0.0100862 0.00711095 0.0101837 0.00980096 0.00257732 0.00876289 0.00640596 0.00363458 -0.0191632 -0.026264 0.00566555 0.0161229 0.00745221 0.013616 0.00829919 0.0101826 0.0154955 0.0129043 0.00174184 0.00824097 0.0196135 0.0221071 0.0237751 0.02287 0.00282428 -0.022138 0.0061203 0.00534227 0.0129031 0.00802413 0.00154347 0.00345852 0.00969072 0.00783505 0.0100194 0.000592767 0.00481272 0.00929007 0.014588 0.00481779 0.00551385 0.00333964 0.00829349 0.00892379 0.0118126 0.00718718 0.00402724 0.00361767 0.0180944 0.0165938 0.017875 0.011671 0.00533162 -0.00126026 0.00658317 0.00454553 0.00636148 0.00920917 0.00767537 0.00258265 0.0028866 0.00752577 0.00556265 0.00115373 0.00342146 0.00395418 0.0094006 0.00367958 0.00417132 0.00442289 0.00708897 0.00515705 0.00776756 0.00881773 0.00925809 0.00541001 0.00828157 0.0103701 0.00696583 0.00348383 0.00263369 0.00908084 0.00394908 0.00842733 0.0042707 0.00693065 0.00205489 0.00618261 0.00484536 0.00835052 0.00845361 0.000618557 0.00917526 0.00865979 0.000309278 0.00618557 0.00639175 0.00329897 0.00948454 0.00443299 0.00649485 0.00237113 0.00113402 0.00412371 0.00948454 0.00443299 0.00721649 0.00195876 0.00505155 0.00123711 0.00783505 0.00463918 0.00886598 0.0057732 0.000309278 0.00659794 0.0101031 0.000824742 0.00804124 0.00391753 0.00237113 0.000515464 0.00113402 0.00958763 0.00175258 0.00443299 0.00278351 0.0014433 0.00927835 0.00164948 0.000103093 0.00402062 0.00453608 0.00371134 0.00123711 0.00762887 0.00340206 0.00412371 0.000103093 0.0085567 0.00360825 0.0028866 0.00340206 0.00381443 0.00350515 0.00793814 0.0073159 0.00218657 0.00640004 0.00606321 0.00412693 0.0070126 0.00846009 0.00499591 0.0067084 0.00916318 0.00262997 0.00557209 0.00678075 -0.000621749 6.93624e-05 -0.000266663 0.00293238 0.00608357 0.00419983 -5.12643e-05 0.00990343 0.00282703 0.00762947 7.53978e-05 0.00396336 0.00969711 0.00907216 0.00659794 0.00744394 0.00436155 0.00537567 0.00759045 0.00851771 0.00518875 -0.000794134 -0.000946589 0.00207862 0.00145463 0.000369876 -0.0012313 -0.0107295 -0.0173968 -0.00984244 -0.00244061 -0.00819719 -0.0209374 -0.0226106 -0.0178466 0.00258814 -0.000539291 0.000842528 0.0011236 0.00586368 0.00145325 0.0056701 0.00927835 0.00460901 0.00735169 0.00237626 0.0077488 0.00120735 -0.00135024 -0.00344167 -0.00396625 -0.0126222 -0.0150283 -0.00736067 -0.0138123 -0.0173243 -0.02075 -0.0236544 -0.0151636 -0.037331 -0.0503507 -0.0412952 -0.0276308 -0.0074143 0.008257 0.0021423 0.0020404 0.00319636 0.00938794 0.00628866 0.0071403 0.0075672 0.00252667 0.00848083 0.00572333 0.00161483 -0.0023864 -0.0100922 -0.00685258 -0.0132672 -0.0169559 -0.018907 -0.00951152 -0.0136842 -0.0141556 -0.0178891 -0.0210345 -0.0475038 -0.042866 -0.0272515 -0.0171903 -0.000621445 0.0168868 0.00914795 0.00661869 0.00337886 0.00116681 0.00690722 0.0072672 0.00656792 -0.00130035 0.00584584 0.00560323 -0.00668956 -0.00608007 -0.0113922 -0.0123213 -0.0100393 -0.0060005 -0.00644176 -0.0133911 -0.00458081 -0.00668653 -0.0211087 -0.0333381 -0.0360891 -0.0209217 -0.0210889 -0.0232588 -0.0104696 0.0142766 0.0144371 0.0045274 0.00874603 0.0102753 0.00195876 0.00423957 0.00110882 0.000128584 -0.000861803 -0.000198029 0.000718254 -0.00517311 -0.00977368 -0.00851164 -0.00336982 -0.00833257 -0.00413748 -0.00595624 -0.00388573 -0.0150056 -0.0278839 -0.0194823 -0.00499707 0.0067726 0.00866599 -0.0208739 -0.0185448 0.00446123 0.0182858 0.00979804 0.00266547 0.00979123 0.00639304 0.00671334 0.00567034 -0.000297768 -0.000623915 -0.000290911 -0.00124387 0.00443584 -0.00455828 -0.00225428 -0.00620035 -0.00456597 0.00116202 0.00502351 0.0163827 -0.0255623 -0.0221173 -0.00799898 0.00697355 0.0108468 0.0101893 -0.0100138 -0.0258645 -0.00619845 0.0109614 0.0108298 0.00702062 0.00564613 0.00884216 0.00567075 0.00753339 0.00938884 0.00601206 0.00247278 -0.00364395 -2.80712e-05 0.00409253 9.76215e-05 -0.0041928 -0.00418819 0.00128083 0.0136051 0.0113045 -0.0152873 -0.017933 0.00441924 0.015371 0.0113067 0.00299733 -0.00309585 -0.0346471 -0.0202216 -0.00097275 0.0102714 0.0106588 0.00776734 0.00908634 0.00298969 0.00897722 0.00115848 0.00184981 0.000776401 0.00305116 0.00505137 0.00966123 -0.000149408 -0.000168066 0.00784469 0.00955035 0.00219341 -0.00623669 -0.00771992 -0.00264814 0.0222476 0.00786001 -0.000375676 0.00457668 -0.0018262 -0.0358685 -0.0298952 0.002351 0.00431566 0.00843959 0.00598741 0.00958763 0.00309278 0.000835714 0.00409009 0.0111182 0.0085518 0.00164404 0.00579794 0.007289 -0.000794937 -0.0023449 0.0126072 -0.00645936 -0.0132198 -0.0101642 -0.000673893 0.0186501 0.0121668 0.00924919 -0.00394534 -0.00372795 -0.017876 -0.0489045 -0.033825 -0.000109497 -0.00105953 0.00135097 0.0017588 0.000206186 0.00206186 0.00603085 0.00917634 0.01012 0.0091685 0.0114152 0.00412896 0.00842961 -0.00156273 0.00222795 0.00296628 -0.0138283 -0.0218868 -0.0130766 0.023908 0.0212712 0.0171458 0.00617228 -0.00297417 -0.00456716 -0.0213659 -0.0501905 -0.0277405 -0.000144016 0.000139904 -0.000928768 0.000713895 0.00917526 0.00597938 0.0086672 0.00234842 0.00203454 0.012944 0.0118138 0.00726544 -0.00769335 -0.0206512 -0.0253979 -0.0297521 -0.0282263 -0.0138019 -0.011522 0.022284 0.021442 0.0213358 0.00445542 -0.00149759 0.00243704 -0.0230174 -0.0403291 -0.0240455 -0.000101392 0.00225091 0.00672415 0.00321019 0.00742268 0.00216495 0.00460294 0.00723398 0.00474042 0.0074768 -0.00115409 0.000119692 -0.0412763 -0.0527872 -0.052872 -0.0447753 -0.0307597 -0.02589 -0.0245357 -0.00994147 -0.00599713 -0.000877708 -0.0172498 -0.00610208 -0.0169297 -0.0274109 -0.0404258 -0.0169566 -0.00657214 -0.00368366 0.0028776 0.0050113 0.00536082 0.00123711 0.00433376 0.000462764 0.00253843 0.00391885 -0.00228418 -0.0123987 -0.0273884 -0.0398951 -0.0586908 -0.0547302 -0.0456396 -0.0303084 -0.0269552 -0.0233111 -0.0156802 -0.0211858 -0.0247573 -0.022921 -0.0286385 -0.0306913 -0.0303447 -0.0307518 -0.0301378 -0.0210618 -6.57212e-05 0.00606854 0.00546392 0.000721649 0.000714414 0.00353006 -0.00098708 -0.000730505 -0.00521164 -0.00891668 -0.0234656 -0.0404279 -0.0593204 -0.0615902 -0.0417326 -0.0169649 -0.00865822 -0.00442999 -0.00112127 -0.00637649 -0.0025651 -0.00525299 -0.01364 -0.0223423 -0.0240001 -0.00975351 -0.0107539 0.00486229 0.0012253 0.00249061 0.00536082 0.000411107 0.00502895 0.00128295 -0.00169131 -8.71959e-05 -0.00904467 -0.0141335 -0.0403009 -0.0559377 -0.0652431 -0.0375858 -0.0185151 -0.00675187 -0.000777383 0.0124676 0.0072681 0.00339022 0.00634314 0.0108212 0.0101257 -0.0110014 -0.0120648 0.0174363 0.0136892 0.012855 0.00761339 0.00917954 0.00298969 0.00617748 0.0025584 0.0100771 0.00872605 0.00305773 -0.00634086 -0.0189906 -0.053155 -0.0592694 -0.0625698 -0.020635 -0.00666909 -0.00648574 -0.00270041 0.00504501 -0.00145351 -0.00910827 0.00387659 0.0103148 -0.00040751 -0.013754 -0.00829661 0.0170512 0.0141423 0.00852975 0.00926602 0.00532817 0.00979381 0.00206186 0.00640792 0.00668786 0.00616861 0.00296212 -0.0086122 -0.031383 -0.0412238 -0.0516376 -0.0325569 -0.00243303 -0.00228361 -0.00421663 0.00300268 -0.000175644 0.000928862 -0.00244053 0.00316648 0.0152721 -0.00336119 -0.0133066 -0.00878168 0.0150301 0.00690184 0.0106098 0.00750929 0.00449974 0.00628866 0.00216495 0.00185836 0.0102661 0.00581447 -0.00757445 -0.0240946 -0.04055 -0.0294814 -0.0141192 -0.00320875 0.00477571 0.0062412 0.00897207 0.0129789 0.00895715 0.00462471 0.00519356 0.00792277 0.0153699 0.000636389 -0.0127654 -0.0155467 0.011827 0.00799174 0.000596479 0.00804148 0.00357634 0.000927835 0.00659794 0.00338508 0.0039423 -0.00154967 -0.0199965 -0.0325836 -0.0269293 -0.00658366 0.010089 0.0141909 0.0106393 0.0134478 0.0125271 0.0222215 0.0149549 0.0169417 0.0119853 0.00492791 0.0163264 -0.000139441 -0.023023 -0.0135143 0.00896059 0.00216381 0.00164436 -0.000242492 0.00443142 0.0102062 0.00639175 0.00872863 0.000348054 -0.0140459 -0.0365111 -0.0297088 -0.0228232 0.0188311 0.0156645 0.0186526 0.0153399 0.0168452 0.0182695 0.0252075 0.0235649 0.0189103 0.00970269 0.00850761 0.00957798 -0.0021166 -0.0193742 -0.0227514 0.00403719 0.00635757 0.00340366 0.00830942 0.00857106 0.000618557 0.00185567 0.00220966 0.00078841 -0.0304173 -0.0426474 -0.0270196 -0.0190915 0.0170284 0.00844347 0.0163354 0.0208653 0.0182295 0.0254483 0.0204678 0.0173899 0.0162079 0.00796771 0.0069416 0.010359 -0.00987814 -0.0316595 -0.00904851 0.00644171 -0.000715355 0.00268865 0.00214285 0.00943034 0.00185567 0 0.00429376 0.00173286 -0.0307738 -0.0355406 -0.0325513 -0.00430416 0.0162212 0.0118714 0.0050504 0.00562786 0.0113083 0.023579 0.0181354 0.0174684 0.0220358 0.0157664 0.0133494 0.00795132 -0.0108277 -0.0361871 -0.00889558 0.00109536 0.00371057 0.000603548 -0.000795518 0.00278753 0.00360825 0.00546392 0.00104148 0.00611174 -0.0228557 -0.0327986 -0.00286402 0.00741425 0.00744503 0.000205287 -0.000567566 -0.000464073 0.00272956 0.00764818 0.00527373 0.00858642 0.0152183 0.0103289 0.00680872 0.00198904 -0.0164475 -0.0372157 -0.00219833 -0.00079021 0.0013666 0.00579478 0.00790134 -4.49002e-05 0.00618557 0.00659794 0.00413384 0.0089642 0.000987034 0.00209112 0.000572769 0.000602581 -0.0016515 -1.47843e-05 -0.00165412 -0.00515789 0.00449237 -0.000570758 0.00688272 0.00328022 0.0131265 0.00481352 -0.000591485 -0.00220423 -0.00518144 -0.00515078 0.00594348 0.00411812 0.00328561 0.00976726 0.00440135 0.00566553 0.00659794 0.00381443 0.00597904 0.000571512 0.00103688 0.00125984 0.00456471 0.00935683 0.00267582 0.00858435 0.00792734 0.00808109 0.00614613 0.0035634 0.00787623 0.00188898 0.0019781 0.00881741 0.00486533 0.00471635 0.00452352 0.00554113 0.00307726 0.00812003 0.00372473 0.00273965 0.00986254 0.00607741 0.00247423 0.0102062 0.00546392 0.000103093 0.0042268 0.000412371 0.00298969 0.00154639 0.00670103 0.00515464 0.00329897 0.0085567 0.00195876 0.00989691 0.00402062 0.00804124 0.00391753 0.0042268 0.000309278 0.000618557 0.00206186 0.00721649 0.00505155 0.000515464 0.00247423 0.00804124 0.00896907 0.00865979 0.00298969 0.00402062 0.0101031 0.00752577 0.00391753 0.00154639 0.000206186 0.0042268 0.00876289 0.00649485 0.00113402 0.00680412 0.00278351 0.0085567 0.00309278 0.00670103 0.00845361 0.00845361 0.00319588 0.00360825 0.00927835 0.00123711 0.0057732 0.000206186 0.00494845 0.00134021 0.00268041 0.01 0.00659794 0.00154639 0.00959288 0.000865074 0.00415702 0.00176787 0.00427777 0.0025818 0.00770163 0.00907186 0.00469068 0.0029932 0.00554402 0.00853915 0.00182243 0.00174818 0.00343983 0.00234487 -0.0010961 0.00337569 -0.00361481 0.0018043 0.00120398 0.0106848 0.00769146 -0.00301565 0.0111704 0.00119881 0.00721649 0.00402062 0.00601765 0.00859174 0.00533739 0.00314507 0.00778088 -0.00111074 -0.00142707 0.00152794 0.00794616 -0.00242556 -0.00614267 -0.0137314 -0.0155898 -0.0273575 -0.0400043 -0.0363566 -0.0415097 -0.0515594 -0.0289378 -0.00942924 0.00759868 -0.0028903 -0.00429564 -0.00332179 0.0346629 0.00318836 0.000721649 0.00979381 0.00228223 0.0112451 -0.00686159 -0.00413716 -0.00345275 -0.0149317 -0.0278377 -0.0368829 -0.0203902 -0.00607867 -0.022295 -0.0502502 -0.0633892 -0.064305 -0.0633125 -0.0757945 -0.0895556 -0.0711767 -0.042801 -0.0381857 -0.0371559 0.00693857 0.0368449 0.040769 0.0383989 0.0164687 0.000927835 0.00819852 0.008391 0.0108552 -0.00266961 -0.00110185 -0.0149552 -0.0311206 -0.0322949 -0.0328166 -0.0286553 -0.0324513 -0.0336844 -0.0589653 -0.0668696 -0.0684565 -0.0748876 -0.0894013 -0.0878822 -0.0541483 -0.0285406 -0.0525775 -0.0259201 0.0497344 0.0548992 0.05773 0.0242422 0.00448512 0.00103093 0.00961723 0.0035237 0.0119704 0.0260543 0.018473 -0.00901537 -0.0141629 -0.0202242 -0.0288174 -0.0266843 -0.019757 -0.0140182 -0.0210723 -0.0657362 -0.0589666 -0.0873473 -0.120485 -0.0933298 -0.0403447 -0.00438743 -0.0118941 0.0180383 0.0538441 0.0462703 -0.00331163 -0.0146002 7.08696e-05 0.000515464 0.00338732 0.00200549 0.012307 0.0310478 0.0453826 0.0454641 0.0105883 -0.00914992 -0.0371621 -0.0302336 -0.00636242 0.0151205 -0.0223261 -0.0641272 -0.0643078 -0.10495 -0.114744 -0.0943952 -0.044297 -0.00763164 0.00109106 0.0190699 0.0661389 -0.00810961 -0.0374175 -0.0126971 0.000190826 0.0074158 0.00569948 0.00691462 0.0175321 0.0308308 0.0511915 0.0693196 0.0663932 0.0361272 -0.0243887 -0.0118561 0.0269759 -0.000424886 -0.0405313 -0.0574683 -0.0924274 -0.109513 -0.100075 -0.0542875 -0.0319781 0.0218167 0.0282094 0.0380577 -0.00393008 -0.056003 -0.0192092 -0.00768779 -0.00308129 0.00246321 0.0090676 0.00203553 0.00545116 0.00511954 0.0296125 0.0701689 0.0605368 0.0550766 -0.00142292 0.0198737 0.0157142 -0.00812191 -0.0357148 -0.0612015 -0.0789459 -0.0852774 -0.0556649 -0.0498865 -0.0205247 0.00988833 0.0176428 -0.00527386 -0.0416846 -0.0387373 -0.00155008 -0.0084463 -0.00229462 0.00775932 0.00701031 0.00107328 0.00927145 0.000440795 0.00896258 0.0496618 0.0462001 0.0467856 0.0361835 0.0397797 0.00621631 -0.0169004 -0.0540728 -0.094101 -0.0751873 -0.0358119 -0.0471586 -0.0372581 -0.00169941 -0.00448019 -0.0168627 -0.0504785 -0.0248956 -0.0100441 -0.0113047 -0.0030094 0.00294976 0.000824742 0 0.00119731 0.00310803 -0.00925288 -0.0133352 0.00911326 0.00231361 0.0417731 0.061249 0.0453784 0.0415591 0.0100476 -0.0452947 -0.0665167 -0.0179103 -0.00533508 -0.0325397 -0.0159164 0.000405561 -0.015517 -0.0476439 -0.0504708 -0.0105397 -0.00796931 -0.0102563 0.00211489 0.00320553 0.00989691 0.000412371 0.00285431 -0.00486985 -0.0257596 -0.0368665 -0.0381938 -0.0252855 0.0371468 0.0578313 0.059656 0.0479347 0.0196569 -0.0319656 -0.0345907 0.020417 -0.00282176 -0.0311354 -0.00906673 -0.0137338 -0.026513 -0.0330166 -0.0476548 -0.0490221 -0.0302069 -0.0209138 0.00110041 0.0091677 0.00278351 0.0042268 0.00542302 0.00185636 -0.0301893 -0.0319642 -0.0263208 -0.0114054 0.0291452 0.0362051 0.0383079 0.0472607 0.0458285 0.0337179 0.00489485 0.0125461 -0.0256876 -0.0119071 0.00435669 -0.0137115 -0.0231868 -0.0539668 -0.0726954 -0.0594609 -0.0529168 -0.0288673 -0.0029257 0.00888181 0.00680412 0.000515464 0.00952683 0.00481918 -0.0203681 -0.0245948 -0.0114568 -0.00200225 -0.00244675 0.00947651 0.0419172 0.0526086 0.0366682 -0.0164537 -0.0344592 -0.0335801 -0.00757675 0.0211019 -0.0378214 -0.0229991 -0.0191179 -0.0552984 -0.0728086 -0.0556974 -0.0596281 -0.045038 -0.00407088 0.00203261 0.0071134 0.00742268 0.00558558 0.000652683 -0.0210541 -0.0317009 -0.0100329 -0.0145105 -0.0390555 0.00283036 0.0292233 0.0529286 -0.0153831 -0.0537298 -0.0271258 -0.027167 -0.00570634 -0.0241067 -0.0687676 -0.0577495 -0.0474555 -0.0659767 -0.0603426 -0.0602193 -0.0668335 -0.0639181 -0.0109795 0.000733851 0.00793814 0.00783505 0.00205642 -0.00807124 -0.0247606 -0.0442288 0.00264223 -0.000497249 -0.0160834 0.00712317 0.0468312 0.0320169 -0.0120004 -0.027964 -0.0131047 -0.00705964 -0.0308677 -0.0692346 -0.086835 -0.0736054 -0.0601365 -0.0703754 -0.063391 -0.0483136 -0.0451312 -0.0548659 -0.025891 0.00934355 0.00969072 0.00511531 0.00185372 -0.0044651 -0.0174702 -0.0423713 0.0088417 0.0103857 -0.0149995 0.0149004 0.0442071 0.0173381 0.0203172 0.0150122 0.0337088 -0.0187445 -0.0496911 -0.0807731 -0.0831519 -0.0783169 -0.0807856 -0.0767659 -0.0663461 -0.0327809 -0.0350438 -0.0516821 -0.0226007 0.00194783 0.00690722 0.0065524 0.00225131 -0.0116319 -0.0179672 -0.0445602 0.0110666 -0.0267952 -0.0350905 0.0208554 -0.00090972 0.00476573 0.0315285 0.0478699 0.0091416 -0.0516042 -0.069968 -0.0907252 -0.105184 -0.0905625 -0.0887701 -0.0842299 -0.0695716 -0.0336448 -0.0411251 -0.0517315 -0.0342969 0.00146316 0.00525773 0 0.00242831 -0.0154231 -0.0316783 -0.0235795 0.0103675 -0.0502613 -0.00789462 0.00052683 -0.00330473 -0.00867561 0.0499514 0.0294445 -0.0122696 -0.0773128 -0.103373 -0.105301 -0.115151 -0.0952856 -0.0828937 -0.0688311 -0.056593 -0.0281366 -0.0330914 -0.0516566 -0.0319853 0.00177287 0.00886598 0.00360825 0.00301186 -0.0201768 -0.0310894 0.00719005 0.0142891 -0.0437624 -0.0512698 0.00659323 -0.00587511 0.0088444 0.00884604 -0.00583197 -0.0615692 -0.102701 -0.108356 -0.102321 -0.10333 -0.0798558 -0.0666119 -0.0662742 -0.042747 -0.0160132 -0.0264701 -0.0470669 -0.0263076 0.00728272 0.00824742 0.00350515 0.000546253 -0.0217932 -0.00603957 0.0279618 0.0137947 -0.0532761 -0.0485856 0.00347912 -0.0258419 -0.0291303 -0.0386075 -0.0391646 -0.0754185 -0.0958188 -0.0844522 -0.0806356 -0.0748521 -0.0583962 -0.0447409 -0.064011 -0.040277 -0.00809033 -0.00456846 -0.0196184 -0.0308496 0.00428329 0.000515464 0.000103093 0.00738962 -0.0282493 -0.0143958 0.00600597 -0.00360508 -0.0374705 -0.0147692 0.00417043 -0.0743489 -0.0894365 -0.0653227 -0.0648749 -0.0872307 -0.0769023 -0.070684 -0.0516821 -0.0382696 -0.0311487 -0.0440167 -0.0501654 -0.0386035 -0.00871512 0.00675014 -0.0154128 -0.0197356 0.00747664 0.00103093 0.00608247 0.000327697 -0.0142861 0.00167165 0.00729852 -0.00612878 -0.0192727 -0.00346916 -0.0121721 -0.0593749 -0.0884562 -0.0907573 -0.0842291 -0.0762146 -0.0579218 -0.056223 -0.0431801 -0.0314639 -0.0303032 -0.0395409 -0.0522645 -0.033827 -0.00707788 0.00136985 -0.0106941 -0.0125058 0.00630849 0.0101031 0.00587629 0.00320215 0.000203983 0.00472261 0.00428246 -0.00449847 -0.000109057 -0.0186257 -0.0365153 -0.064382 -0.0720089 -0.0925969 -0.0769257 -0.0749259 -0.0638899 -0.0594193 -0.0436711 -0.0429324 -0.0299318 -0.0379845 -0.0535666 -0.0220242 -0.00772994 -0.00574322 -0.016907 -0.00531399 0.000782275 0.0057732 0.00876289 0.00892241 -0.00699335 0.00134802 0.0203951 0.0136112 -0.00448023 -0.0286224 -0.0301184 -0.038713 -0.0494995 -0.0515683 -0.0480808 -0.0648948 -0.0544619 -0.0528101 -0.039167 -0.0290135 -0.023017 -0.0345339 -0.0439317 -0.00859847 -0.0140498 -0.00694941 -0.00852454 -0.000184377 0.00860438 0.00948454 0.00536082 -0.0011548 -0.00193288 0.0206894 0.0384257 0.025317 0.00203292 -0.017674 -0.00340245 -0.0082748 -0.0148763 -0.0213484 -0.0309417 -0.0285316 -0.0210367 -0.0145502 -0.0161304 -0.00825887 -0.0112249 -0.0154778 -0.00679873 -0.00363536 -0.000652882 -0.00537878 -0.00149429 0.0024068 0.00531305 0.00123711 0.00206186 0.00321565 0.0117306 0.0152493 0.00474569 0.00502213 0.0110482 0.00113134 0.00556738 0.00350219 0.00669307 0.0046534 0.00173978 -0.00136918 0.00758002 -0.000234884 0.00285278 0.00573155 0.00871296 0.00305777 -0.000144703 0.00289324 0.00231374 0.00466823 0.00169274 0.00693737 0.0076388 0.000103093 0.00628866 0.0056701 0.00680412 0.00278351 0.00134021 0.00639175 0.00824742 0.00185567 0.0028866 0.00917526 0.00134021 0.0042268 0.00237113 0.00989691 0.00319588 0.00412371 0.00319588 0.00360825 0.00329897 0.00845361 0.00845361 0.00515464 0.00453608 0.00536082 0.00587629 0.000103093 0.00701031 0.00340206 0.00752577 0.00969072 0.00195876 0.00268041 0.0085567 0.00340206 0.00845361 0.00123711 0.00371134 0.00257732 0.00536082 0.00123711 0.00247423 0.00463918 0.00989691 0.000206186 0.00752577 0.00597938 0.000515464 0.00793814 0.00597938 0.00113402 0.00835052 0.00515464 0.00721649 0.00824742 0.00546392 0.00278351 0.00608247 0.0016483 0.009964 0.00179248 0.00186928 0.00800535 0.00839806 0.00641699 0.0047551 0.00102822 0.00712606 0.00764757 0.00785057 0.0067953 0.00398934 0.00385118 0.000732831 0.0101108 0.00610497 0.00443134 0.00393694 0.00506988 0.00919334 0.00338507 0.00199351 0.00181598 0.0029953 0.00247423 0.00835052 0.00388102 0.000229707 0.0064359 0.00654352 0.0063474 0.00791384 0.003706 -0.00184056 0.00646052 0.0058389 -0.000288902 -0.0029803 -0.00381531 0.00241739 -0.00175516 0.00189502 0.0064054 -0.010364 -0.016424 -0.0210516 0.00824389 0.00506511 0.0104868 0.00564585 0.0107331 0.00186543 0.00247423 0.00505155 0.00877936 0.00720361 0.00668102 0.0115476 0.00371152 0.0068507 0.00668927 -0.000540305 0.00374256 -0.000386129 0.000397612 0.000783006 -0.00176975 -0.00349764 -0.0163788 -0.00689166 -0.0316698 -0.0385634 -0.0429775 -0.0461276 -0.00979068 0.0113395 0.0141051 0.0118881 0.00672989 0.0104162 0.00515464 0.0059879 0.00277219 0.00326814 0.00348056 0.00510615 0.00754911 0.00595932 0.00383545 0.00439012 0.00393522 -0.000421005 -0.00305241 -0.00242981 -0.0023778 -0.00550747 -0.00938962 -0.0294215 -0.0480883 -0.0435627 -0.0378028 -0.038174 -0.01034 0.00971771 0.00929285 0.0101699 0.00845186 0.00699625 0.00329897 0.00644047 0.00352081 0.00129749 0.00079475 0.00821879 -0.00179694 -0.00367252 -0.00654745 -0.00379322 0.000447825 0.000222841 -0.00243474 -0.00308641 -0.00420899 -0.00191145 -0.0349194 -0.0535761 -0.0437904 -0.0364239 -0.0358873 -0.0375384 -0.02039 0.00326702 0.00340644 0.0149495 0.00846091 0.00441758 0.00391753 0.00845801 0.00564918 0.00793657 -0.00148326 -0.0023495 -0.00316766 -0.00478798 -0.00352732 -2.46735e-05 -0.00841601 -0.00457866 -0.00394491 0.000678103 -0.00332223 -0.0218861 -0.0506023 -0.0518887 -0.0256814 -0.00835154 -0.0106127 -0.0257736 -0.0295232 -0.00431936 0.00277845 0.0110233 0.00799464 0.0028681 0.00906695 0.0079285 0.00160278 0.00482558 0.00450129 0.00112169 -0.00544205 -0.00763677 -0.011786 -0.00648697 -0.00952549 -0.00832168 -0.013998 -0.00182332 -0.000858689 -0.0442895 -0.0497966 -0.0476176 -0.00886466 -0.00702461 -0.00506963 -0.0215161 -0.0377026 -0.018924 0.00118198 -0.0022961 0.00282999 0.00879635 0.00225653 0.00845467 0.000390385 0.00521404 0.00370818 -0.00626392 -0.0106024 -0.0121509 -0.00827022 -0.00670041 -0.0116202 -0.0162944 -0.0154585 -0.00768498 -0.015968 -0.0497162 -0.0417824 -0.0333106 -0.0165531 -0.0112146 -0.00975024 -0.00942832 -0.0421231 -0.033471 -4.77384e-05 0.00343634 0.000396906 0.000671308 0.00231376 0.00783505 0.00644574 0.00719826 -0.00266509 -0.00880527 -0.011592 -0.0093336 -0.00704828 -0.0140314 -0.015555 -0.01987 -0.0179172 -0.0214576 -0.0425421 -0.0416163 -0.0233625 -0.00423817 -0.0154275 -0.00528903 -0.00423374 -0.00187858 -0.045825 -0.0392039 -0.014216 -0.00455672 0.00133977 0.00522627 0.00865979 0.00360825 0.00960457 0.00168028 0.00170524 -0.00816446 -0.00894454 -0.0103306 -0.0123679 -0.00960825 -0.0144302 -0.0155473 -0.0341298 -0.0411013 -0.0455353 -0.0209355 -0.00739666 -0.00658842 -0.00605417 -0.00799662 0.0039206 -0.0040343 -0.0447216 -0.0394977 -0.0169892 -0.00553544 0.00259324 0.0031276 0.00649485 0.00278351 0.00307961 0.00139356 -0.000220662 -0.00843897 -0.0139998 -0.00355683 -0.00651671 -0.00906424 -0.0124957 -0.0208378 -0.0362829 -0.0515484 -0.037268 -0.00425313 0.000510445 -0.000152054 -0.000165301 0.00202776 0.00499748 -0.0173552 -0.0382126 -0.0293634 -0.0135044 -0.00827976 -0.00029628 0.00946456 0.00525773 0.00164948 0.00962503 0.00158962 0.000799164 -0.00487534 -0.00758165 -0.00485075 -0.00972343 -0.0233812 -0.0285091 -0.043168 -0.0504738 -0.0527746 -0.0358611 -0.00596455 -0.00534386 0.00500214 -0.000476069 -0.00064291 0.0112054 -0.0132955 -0.0371335 -0.0220391 -0.00212095 0.000880804 -0.00151868 0.00296712 0.00886598 0.00618557 0.00654466 0.00239923 -0.00607294 -0.00907605 -0.00827603 -0.000305757 -0.0297126 -0.0473367 -0.0489663 -0.047772 -0.0497807 -0.0418665 -0.0329805 -0.0378277 -0.0320757 -0.0155263 -0.0189296 -0.00957865 -0.00328271 -0.0112442 -0.0322202 -0.0270388 -0.00762999 -0.00551714 -0.000391497 0.00924892 0.00927835 0.00958763 0.00431754 -0.00277871 -0.0103636 -0.0120825 -0.0125066 -0.00625434 -0.0134898 -0.0202752 -0.0432216 -0.0412092 -0.0310229 -0.0286664 -0.0297077 -0.0323523 -0.0272255 -0.0284853 -0.022873 -0.0110261 -0.00966743 -0.0145104 -0.0279973 -0.0369973 -0.0399605 -0.0251172 0.00443628 0.000531116 0.00206186 0.00443299 0.000383909 0.000433639 -0.00466967 -0.00568704 -0.00967142 -0.00578825 0.00533871 -0.0136071 -0.0303048 -0.0316019 -0.0139069 -0.00934312 -0.00575565 0.0030815 0.0015176 0.0002358 0.00865287 0.0118222 0.00608597 -0.0119785 -0.026448 -0.0246168 -0.0152425 -0.00328927 0.00656647 0.00651479 0.000515464 0.00278916 0.00482404 -0.000599831 -0.00903575 -0.00247518 -0.00359137 0.00644878 -0.012778 -0.030092 -0.0412607 -0.00981996 0.0119998 0.0118475 0.0144159 0.0249055 0.0263084 0.0235032 0.0248153 0.0349388 0.0144359 -0.0119972 -0.0145409 0.00425573 -0.00187921 0.000161373 -0.00171726 0.00352509 0.0042268 0.00890218 0.00997857 -0.00159336 -0.00555091 -0.000793607 0.00242481 0.000249241 -0.0295098 -0.025141 -0.0264458 0.000881412 0.00556059 0.00792461 0.0175707 0.0170109 0.0145491 0.0201659 0.0162903 0.0295741 0.00768174 -0.00908976 -0.0215048 -0.00204519 0.00725338 -0.00172049 0.00531426 0.00509548 0.00350515 0.00979381 0.00759266 0.00520743 0.00562578 0.00688361 0.00438006 -0.0161605 -0.0317225 -0.0345484 -0.0164654 0.00711973 0.00781354 0.0128297 0.00805003 0.0172819 0.0195608 0.0169209 0.0158043 0.0232268 0.0147911 -0.0121496 -0.0193201 0.0032608 -0.000541448 0.0046723 0.0024706 0.000573597 0.00185567 0.00701031 0.00111659 0.00558073 0.000627516 -0.00396968 -0.0235552 -0.0354879 -0.0256529 -0.0145349 3.86303e-05 -0.00190487 0.00262525 0.0106205 0.0110311 0.0159487 0.0175927 0.0206087 0.0188701 0.0200879 0.00857112 -0.0125944 -0.0165344 0.00342882 -0.0017408 -0.0047899 0.00462152 0.00303927 0.00824742 0.0085567 0.00475389 0.00282587 0.00791869 -0.0113715 -0.0295488 -0.0251054 -0.00204375 0.00309261 -0.000380784 -3.61831e-05 0.00101092 0.014755 0.0202305 0.0253031 0.0225716 0.0217566 0.017205 0.0188937 0.0138984 -0.0149636 -0.0167342 -0.0033503 0.00124746 0.00270806 -0.000277039 0.00558325 0.00896907 0.000721649 0.000938653 0.00512228 -6.93556e-05 -0.0290691 -0.0287301 -0.0163366 0.0212229 0.00789246 -0.0127952 -0.00527406 0.00502696 0.010298 0.0167995 0.0166633 0.0229268 0.0234622 0.0151627 0.0255659 0.012307 -0.0125781 -0.0121622 0.0055189 0.000128638 0.00018197 0.000726172 0.00777653 0.00649485 0.0101031 0.00369884 0.00309474 -0.0247471 -0.0274399 -0.0237632 -0.0107257 0.0258743 0.00618622 -0.00495713 -0.0010396 0.00785223 0.0126253 0.0151435 0.0163273 0.0211371 0.0209203 0.0177622 0.027499 0.00897648 -0.0204221 -0.00399288 0.0144449 0.00313496 0.00494396 0.00586989 0.00763581 0.00948454 0.00494845 0.00148089 0.0120553 -0.0301459 -0.028953 -0.0198198 0.00982347 0.0209795 0.0134264 0.00738018 -0.000854159 0.00793056 0.00724888 0.0135822 0.0149097 0.0155358 0.0121774 0.0267052 0.0271629 0.00942517 -0.0139831 0.00556393 0.0141314 0.00874607 0.00415566 0.0100724 5.74108e-05 0.00958763 0.00556701 0.00976204 0.00184938 -0.0164691 -0.0229865 0.00779457 0.0220935 0.0173056 0.0106748 0.00405892 -0.000424091 0.00424725 0.00877462 0.00768532 0.00749259 0.00619868 0.0103016 0.0163985 0.0246628 0.00944897 -0.0156315 0.0106305 0.00929905 0.0139267 0.00970818 0.0101072 0.00106118 0.00927835 0.000824742 0.00772131 0.00967162 0.00922395 0.0128625 0.00988781 0.00833788 0.00505858 0.00736228 0.00971474 0.00698079 0.00973825 0.0106047 0.00447724 0.010455 0.00518508 0.0153053 0.00866024 0.0118493 0.000442928 0.00165111 0.0100298 0.00816063 0.00260693 0.0076234 0.000768801 0.00928018 0.00587629 0.00484536 0.0031969 0.00889576 0.0101339 0.000722329 0.00720748 0.00139396 0.00925587 0.00703886 0.000645168 0.000725943 0.00842516 0.00536352 0.00377376 0.00226648 0.00420174 0.0030137 0.00423116 0.0029761 0.00383332 0.00897075 0.0045091 0.0049351 0.00560033 0.00726792 0.001057 0.000518825 0.000927835 0.00731959 0.00731959 0.0043299 0.00329897 0.0043299 0.00206186 0.00257732 0.00835052 0.00185567 0.00907216 0.00525773 0.00536082 0.00587629 0.00670103 0.00773196 0.00309278 0.00525773 0.000206186 0.00515464 0.00907216 0.00484536 0.00742268 0.00927835 0.00195876 0.00175258 0.00958763 0.00618557 0.0057732 0.00948454 0.00958763 0.0102062 0.00329897 0.00505155 0.00752577 0.00443299 0.00340206 0.00453608 0.0057732 0.00886598 0.00257732 0.00659794 0 0.00329897 0.00226804 0.00463918 0.00546392 0.000927835 0.00979381 0.00484536 0.000824742 0.00195876 0.00350515 0.00371134 0.00237113 0.00453608 0.00845361 0.00927835 0.00772738 0.00465927 0.00384196 0.00457905 0.00657239 0.00615307 0.0068474 0.00151229 0.00642504 0.00768385 0.000476016 0.00678234 0.00269629 0.00628542 0.00375372 0.00949887 0.00192645 0.00344437 0.00748373 0.00954315 0.00101366 0.00620511 0.00526486 0.00198664 0.00536909 0.00332579 0.00680412 0.0056701 0.00579179 0.00153671 0.00600274 -0.00228243 0.00420902 -0.00470791 -0.000196553 -0.00634092 -0.00121847 -0.000333331 -0.0142787 -0.00826019 -0.00689779 -0.0150395 -0.00182661 -0.00763921 -0.00945876 -0.0204506 -0.0292163 -0.0251839 -0.00235094 0.00105165 -0.000115396 0.00522798 0.0101892 0.00588597 0.00587629 0.00731959 0.00567526 0.0058014 0.00573062 0.00857336 0.00296951 -0.00780242 -0.0154555 -0.0214176 -0.0183134 -0.0117541 -0.035758 -0.0357907 -0.0257987 -0.0220953 -0.021325 -0.0233159 -0.0595774 -0.0756824 -0.069678 -0.0710701 -0.0407168 -0.00910785 -0.0024112 0.00977709 0.00949444 0.00206008 0.00164948 0.00233673 0.000483673 0.00768248 0.011674 0.0150978 0.0258404 0.00988482 -0.00703251 -0.00722148 -0.000130601 0.00911476 -0.0131214 -0.0340062 -0.0193396 -0.0082881 -0.00076233 -0.028327 -0.0534131 -0.0827577 -0.0738866 -0.0685085 -0.0560588 -0.0166258 -0.00481689 0.0114036 0.00649793 0.00657348 0.00680412 0.00949399 0.002444 0.00499884 0.0107546 0.0318459 0.0524069 0.0251519 -0.000804146 -0.00583029 0.014189 0.0100707 -0.0258491 -0.0387008 -0.00551008 -0.00770262 -0.0197063 -0.0341491 -0.0413582 -0.0588975 -0.0576324 -0.0700936 -0.0611211 -0.0215983 -0.0106505 -0.00257992 0.00119469 0.00347815 0.00474227 0.0060698 0.00533173 -0.0152896 -0.00120034 0.0351812 0.049203 0.0340967 -0.0123796 -0.00144808 0.0206533 -0.000188704 -0.0296812 -0.0446212 -0.0162264 -0.0329647 -0.0301132 -0.0310051 -0.0211286 -0.0259433 -0.0298488 -0.0718904 -0.0674404 -0.0468725 -0.0188968 -0.0076974 0.00554432 0.00222092 0.00917721 0.00321347 0.000127037 -0.0028014 0.0144598 0.0299707 0.0263347 0.00692302 -0.0157048 0.00283121 0.0141138 0.0066491 -0.0232437 -0.0600153 -0.0384765 -0.0694282 -0.0390064 -0.0204603 -0.0101769 -0.0179401 -0.032059 -0.0546177 -0.065973 -0.0485537 -0.018627 -0.013872 -0.00615245 0.00834249 0.00506831 0.00268591 0.00671521 0.00326786 0.016829 0.0313485 0.0115537 -0.0111 -0.0237441 -0.0213858 -0.0153008 -0.00522471 -0.00487094 -0.035821 -0.0515664 -0.0784173 -0.049749 -0.0279795 -0.00301209 -0.027476 -0.033461 -0.028558 -0.0632026 -0.0474252 -0.0251679 -0.016741 -0.00248635 0.00343417 0.00496989 0.00268041 0.00744076 0.0103278 0.0261594 0.00451916 -0.00808438 -0.0236635 -0.0229037 -0.0211612 -0.0295349 -0.0217606 -0.00921254 -0.00701044 -0.0504812 -0.0644164 -0.0392413 -0.0224771 -0.0145967 -0.0170027 -0.0252958 -0.0133191 -0.0404828 -0.0397466 -0.015493 -0.0154449 -0.000476015 0.00783528 0.00773196 0.00360825 0.00720126 0.00892789 0.0300484 0.00192431 -0.0128119 -0.0175855 -0.00469881 -0.00722089 -0.0143973 -0.0129685 -0.00331702 0.0372708 0.0126405 -0.00901453 -0.000903033 -0.0282016 -0.0333403 -0.0415547 -0.0394364 -0.0186803 -0.0427335 -0.0299095 -0.00309508 -0.00798891 -0.00123932 0.00198701 0.00268041 0.00257732 0.00884809 0.0125666 0.0223348 0.0099645 -0.00509631 -0.0125297 0.00347006 -0.00432142 -0.0125134 -0.00565467 0.0102711 0.027768 0.0146733 0.0150899 0.00965188 -0.0295471 -0.0329524 -0.0392 -0.0264578 -0.0167408 -0.0496157 -0.0356223 -0.00610497 -0.00350543 -0.00330217 0.000426011 0.00443299 0 0.00551118 -0.00574895 0.0247181 0.0177532 0.0115807 -0.00301567 -0.0238039 -0.0195719 -0.0193434 -0.0156862 -0.00258386 0.00463982 -0.0160209 0.00677821 0.00948666 -0.0214766 -0.0405167 -0.0396522 -0.0165007 -0.00537173 -0.0433884 -0.0286982 -0.0128476 -0.00388406 -0.00262257 0.00238555 0.00907216 0.00628866 0.00771362 -0.0121378 0.0181962 0.0285726 0.0178014 -0.00538798 -0.0316956 -0.0358195 -0.0390379 -0.0343364 -0.0271676 -0.0269823 -0.0166335 -0.0213784 -0.029702 -0.0385407 -0.0545754 -0.0541962 -0.0357035 -0.0216067 -0.029757 -0.0469907 -0.0271202 -0.0109861 0.00330082 0.00667604 0.00371134 0.0071134 0.00169619 -0.0102095 0.0227569 0.0316491 0.0142189 -0.00482027 -0.0108442 -0.0243354 -0.0455973 -0.0834214 -0.0756364 -0.0370938 -0.0194563 -0.0250392 -0.0267744 -0.010021 -0.0168076 -0.0345368 -0.0386916 -0.0288351 -0.0203798 -0.0373013 -0.0579168 -0.0434297 -0.000335753 0.00298795 0.00309278 0.00783505 0.00299298 -0.0176868 0.0238289 0.0367747 0.012147 -0.0162334 -0.00880495 -0.0198253 -0.0677829 -0.0967562 -0.0707491 -0.0295712 -0.00786963 0.00775509 0.0139042 0.015798 0.0128625 0.00226797 -0.0136932 -0.0251552 -0.0224429 -0.0195267 -0.0382424 -0.0325518 -0.00659724 0.00667315 0.00278351 0.00754715 -0.000341083 -0.0123446 0.0194783 0.0371846 0.0222552 -0.00149705 -0.0255468 -0.0468024 -0.0827558 -0.0714581 -0.0470892 -0.020563 0.0108056 0.0399492 0.0509434 0.0212782 0.0151706 0.0120328 -0.0032444 -0.022731 -0.0257811 -0.00933365 -0.0202722 -0.0306465 -0.0167317 -0.000932426 0.00876289 0.00941513 0.00783807 -0.00666455 0.010833 0.038785 0.0337596 0.0255365 -0.0104371 -0.0439459 -0.0717747 -0.0521954 -0.0554861 -0.0227426 0.00386067 0.0338161 0.0588749 0.0330093 0.0188067 0.029152 0.0235619 0.00956837 -0.0118227 -0.000168072 -0.0141389 -0.0304818 -0.0205241 0.00349633 0.00793814 0.00556701 0.00697558 -0.000531618 -0.000126562 0.0156978 0.0179058 0.0056312 -0.0101087 -0.0291651 -0.0267045 -0.0201455 -0.0230954 -0.00289666 