0.0042268 0.00690722 0.00350515 0 0.0071134 0.00247423 0.00804124 0.00597938 0.00639175 0.00659794 0.000515464 0.00463918 0.00835052 0.00278351 0.00628866 0.00937671 0.00977642 0.00432924 0.00278834 0.00371134 0.00938144 0.000412371 0.000206186 0.00512928 0.00888932 0.00810525 0.00216221 0.00164948 0.00185567 0.00979285 0.00485413 0.00271346 0.00738843 0.00450487 0.00842386 0.00233313 0.00790487 0.0110947 0.00344219 0.00976553 0.000328098 0.000496109 0.00194113 0.00296897 0.0062477 0.00640994 0.00412615 -0.000190617 0.00422329 0.00515151 0.00256488 0.00281631 0.0056529 0.00532875 0.00347613 0.00608247 0.00237113 0.00421435 0.00255092 0.00650825 -0.00328135 0.00169171 0.00936522 0.00482834 0.00642929 -0.000396962 0.00267731 0.000524891 0.000829493 -0.00585076 -0.00337129 -0.0121135 -0.00201481 -0.00332916 0.012957 0.00325435 -0.0154958 -0.021783 -0.00873851 -0.0109785 -0.00352961 0.00201033 0.00850063 0.00556701 0.0057734 0.00393346 0.00425081 0.000682365 -0.00517075 -0.00714732 -0.00411165 -0.000230512 -0.00144686 -0.00601802 -0.00860959 -0.0158577 -0.0123184 -0.0135916 -0.0113979 -0.0107043 -0.00962162 -0.00426361 0.0128376 0.0217369 0.0022949 -0.0100926 -0.00380025 -0.00921756 -0.00176455 0.00278416 0.00108877 0.00464365 0.00259448 0.00802831 0.00723963 0.000671539 -8.06479e-05 -0.00661879 -0.00323786 -0.00896718 -0.0041044 -0.00961883 -0.0147409 -0.015979 -0.0101812 -0.00700656 -0.0023394 -0.00679934 -0.0194401 -0.0132327 -0.00513511 0.00375569 0.0102634 0.00434076 6.25797e-05 -0.0024308 -0.00729255 0.000375099 -0.00133298 0.00370853 0.0064736 0.0100004 0.00419171 -0.000477872 -0.0116573 -0.0160275 -0.0126722 -0.0111078 -0.010391 0.00425178 -0.00324895 -0.00897153 0.00342422 0.010793 0.0176764 0.01965 -0.00505085 0.00278783 -0.0037497 -0.00567102 -0.0050741 0.00341946 0.00454955 -0.00396398 0.00177085 0.00222038 0.00749563 0.00414734 0.000681459 0.00576739 0.0095799 0.000538472 -0.00124096 -0.0095592 -0.00472839 -0.0222563 -0.00585937 0.0100419 -0.000248528 -0.00452252 -0.00330241 -0.00891684 0.00250238 0.00759488 -0.00671679 -0.00446796 -0.0111752 0.0132847 -0.00330708 0.00937526 0.0017366 0.00277163 0.0083877 0.00607697 -0.000515297 0.0021516 0.00134497 0.00513587 0.00558028 0.00367739 -0.00542205 -0.00760284 -0.0061035 -0.0171377 -0.0107684 0.00176263 -0.00246892 -0.00134312 0.0130117 -0.0106762 -0.0158659 -0.0149181 -0.00292653 -0.00231089 -0.0034577 0.00841698 0.0261226 0.02928 0.0146005 0.00873734 0.000859553 0.00945303 8.27241e-05 0.000295453 0.00531086 0.00313488 0.0113244 0.00719945 0.00290057 0.00294882 0.00629204 -0.00235289 0.000347182 0.00742561 -0.00182907 0.00145749 0.00608821 -0.00332502 -0.0113968 -0.0136332 -0.00698425 -0.0114541 -0.00760358 0.00912255 0.0307527 0.0331995 0.00951595 0.0214725 0.015452 0.004359 0.000488498 0.00349991 0.0079132 0.00653494 0.00432675 0.00392547 0.00226552 0.00353237 0.0111229 0.00119712 0.00715752 0.00733403 -0.00362816 -0.00417431 -0.00907141 -0.0111933 -0.0176369 -0.018847 -0.0146944 -0.00844044 -0.00103564 0.019268 0.0374829 0.0265844 0.00647594 0.010592 -0.00451973 0.00207725 -0.000382341 0.00711174 0.00655657 0.00978608 -0.00298086 0.00725302 0.00714527 0.00334784 0.00457182 0.00963352 0.00683593 -0.00158716 -0.00696438 -0.00868075 -0.0265672 -0.0176422 -0.00901412 -0.0128994 -0.0101447 0.00550439 0.0151708 0.0247527 0.0364956 0.027379 0.00891933 0.00496698 -0.00604719 0.00659056 0.00293746 0.00505153 0.00444504 0.00174259 0.00331555 0.00478716 0.00630613 0.0133181 0.00432873 0.00711194 0.00292694 -0.00657944 0.0082398 0.000820054 -0.0172163 -0.00991154 0.00272189 0.00528575 0.0137867 0.0269075 0.0347256 0.0245802 0.0176678 0.00943048 0.0142209 0.00860047 -0.000252353 0.000574138 0.000407912 0.000103082 0.00186441 0.00713735 0.00980459 0.00238258 0.00861429 0.0148344 0.00659697 0.00289128 -0.0235468 -0.0254349 0.00122214 -0.00529003 -0.0321666 -0.0199221 -0.0071439 0.0227581 0.0288459 0.0310705 0.0395586 0.0259305 0.0191097 -0.00183886 0.00973368 0.00478301 -0.00617338 -0.000208673 0.00656659 0.0068041 0.00456397 0.00666651 0.0148284 0.00271284 0.0150666 0.00370055 -0.00416703 -0.0174633 -0.0311533 -0.027322 0.000416801 -0.00885731 -0.0144875 -0.0195012 0.00184059 0.0108295 0.0189736 0.0354692 0.0295792 0.0288372 0.0257854 0.00638184 0.00496952 -0.0116549 -0.0141156 -0.00397 0.00279299 0.00763001 0.00710272 0.00622158 0.0103475 0.0216816 0.0326332 0.00540409 -0.0151659 -0.00531507 -0.019753 -0.0211013 -0.00905967 0.000873102 0.0037728 -0.00720916 -0.00295361 0.00318391 -0.00293524 0.0124082 9.00421e-05 0.00714185 0.00626659 -0.00747131 -0.0144591 -0.0196598 -0.0150421 0.00206656 0.00644397 0.00835161 -0.000185585 0.00340292 0.0064545 0.0197681 0.0248411 0.00429505 0.00463803 0.00732579 0.00142388 0.00657209 0.00279028 -0.00513624 0.00103182 -0.0116637 0.00616434 0.0103212 0.00666182 9.90167e-06 -0.00349295 -0.0081875 -0.013326 -0.0152795 -0.0164306 -0.0167656 -0.00324763 0.0017457 0.00460557 0.00969072 0.00963559 0.000953229 0.00215117 0.00740782 0.0171316 0.0153343 0.0115943 0.0189304 0.0104922 0.00771567 0.00921677 0.00189704 -0.0185017 4.58646e-05 0.00204439 0.0249208 0.00717379 1.36761e-05 -0.0145948 -0.00879066 -0.0227048 -0.0272969 -0.0247019 -0.0175217 -0.00676809 -0.00558253 0.00776435 0.00278351 0.0045196 0.0047022 -0.000827864 -0.00493013 -0.00185718 -0.00442458 0.000386221 0.0236138 0.0158283 0.00915593 -0.00456292 -0.0105528 -0.0111987 -0.00191079 0.00607435 0.0052202 -0.00555835 -0.00792833 -0.0330704 -0.0291279 -0.0376779 -0.031689 -0.0165251 -0.0193881 -0.00351038 0.00178682 -0.000104307 0.00164958 0.00331243 0.00180429 -0.0116954 -0.00907138 -0.0137615 -0.0203968 -0.0133821 0.00311584 0.00863173 0.00739979 0.00238946 -0.00710445 -0.00721983 -0.0160648 -0.00589715 -0.0121514 -0.0286068 -0.0208575 -0.0307145 -0.0349151 -0.033425 -0.0275511 -0.00479468 -0.0139393 -8.08886e-05 0.00081799 -0.000137715 0.00618557 0.00591624 0.000522932 -0.00780626 -0.0217282 -0.0172997 -0.0164447 -0.0164047 0.0044202 0.00277112 -0.0152212 -0.00985832 -0.0118534 -0.0205202 -0.013245 -0.0159637 -0.0335658 -0.0401166 -0.0247213 -0.0143204 -0.0171286 -0.0165049 -0.00210262 0.00570294 0.000723369 -0.00635326 -0.0012409 0.0017321 0.00587629 0.00360909 0.00448755 -0.010129 -0.0201273 -0.00923258 -0.0180845 -0.0189551 0.000808518 -0.00478181 -0.0161598 -0.0106881 -0.00779384 -0.00128953 0.00582486 -0.0197115 -0.0160006 -0.0105952 -0.0087039 0.0166295 0.00734337 0.00262542 0.0101149 0.0176864 0.000449116 -0.00467469 -0.00353541 0.00500918 0.0071134 0.00310797 0.00424118 -0.00948209 -0.0126941 -0.0288223 -0.0186638 -0.00770539 0.00767742 -0.0056283 -0.0106711 -0.00851014 0.00608903 0.0127673 -0.0151 -0.0247019 -0.0152224 0.00680329 0.0115843 0.0204471 0.0200231 0.0129446 0.017377 0.00340615 0.00380496 0.000822246 0.00906431 0.00862342 0.000430058 0.00947079 0.00283997 0.00229413 -0.0175143 -0.0346617 -0.00319192 0.0159531 0.00907841 0.0222015 0.0250467 0.035372 0.021291 0.011851 0.00871278 0.00502673 0.00474133 0.0193316 0.00840268 -0.00509174 0.00288715 -0.00612578 0.0103506 0.00852808 0.00830051 0.0102908 0.0100498 0.00474572 0.00138309 0.00773187 0.00612677 -0.00304511 -0.0224167 -0.0337509 -0.00909814 0.0030427 -0.00239932 0.00152117 0.0204766 0.0316376 0.0376363 0.0193625 0.0255944 0.0245794 0.0282145 0.0195258 -0.00204913 -0.00971488 -0.00828267 -0.00316377 0.0140015 0.0208644 0.0243834 0.0104167 0.00607952 0.00973159 0.000515464 0.0065979 0.0076019 -6.10415e-05 -0.00572467 -0.0165577 -0.00557033 0.0126159 0.000197569 -0.0047373 0.0201585 0.0338629 0.0116421 -0.00509538 -0.00896143 0.000190464 0.0106812 0.00449056 0.0137025 0.000459061 0.00147902 -0.0073202 0.0211787 0.0232329 0.0269541 0.00924621 -0.000266292 0.0098111 0.00608247 0.00721649 0.00298579 0.00489202 0.0125776 0.00712338 0.00148928 0.000185827 -0.00220491 -0.00235607 0.000659189 0.000715809 -0.00968287 -0.0171892 -0.00918175 -0.00457851 0.00275114 -0.00474171 -0.00106107 0.00624174 -0.00633147 -0.00554481 0.00291732 0.00090164 -0.000448804 0.0109188 0.000667983 0.00202086 0.00329897 0.00515464 0.000228602 0.00765879 0.00401532 -5.79435e-05 0.00149423 0.00975543 0.00324769 0.00545791 0.00306616 0.00632016 0.00313856 -0.00181747 0.00531552 0.00395882 0.000718985 0.00445259 0.0076135 0.00657119 0.00520837 -0.000191552 0.00721716 0.00796697 0.00436997 0.00699811 0.0044858 0.00466786 0.000824742 0.00185567 0.00721375 -0.000450983 0.00181475 0.00320598 0.00742268 0.00536082 0.00896907 0.00720134 0.00649232 0.000103093 0.000309278 0.00237085 0.00278351 0 0.0071134 0.00155155 0.00672461 0.0028866 0.00443299 0.00484536 0.00907216 0.00443299 0.00381443 0.000927835 0.00649485 0.00505155 0.00835052 0.00907216 0.0043299 0.000824742 0.00618557 0.00216495 0.00597938 0.00556701 0.00907216 0.00474227 0.00927835 0.00505155 0.00443299 0.00309278 0.00206186 0.00494845 0.00690965 0.00372029 0.00855455 0.0036073 0.00268041 0.00876289 0.00391753 0.00546392 0.00300733 0.00250561 0.00496682 0.00237128 0.00608247 0.00587629 0.00680443 0.0044577 0.00556484 0.00123962 0.00290616 0.00190492 0.0035142 0.00657822 0.00162786 0.0062847 0.0154204 0.0155977 0.00929579 0.0145997 0.0069714 0.00743257 0.000913805 0.00373276 0.00989061 0.00472069 0.00651082 0.00167646 0.00047 0.00772082 0.00315376 0.000456423 0.000515464 0.00268041 0.00137552 0.00760655 0.0064597 -0.00151752 0.00252706 0.0174769 0.0268648 0.0205511 0.0169057 0.0112346 0.0353343 0.0372157 0.0382324 0.0420197 0.0189766 -0.00199846 -5.58569e-05 -0.0074002 -0.00369955 -0.00371291 -0.00427782 -0.0024238 0.00825862 0.0123077 0.00532549 0.00629724 0.00350515 0.00958758 0.00656148 0.00578219 0.000264185 -0.0144024 -0.00036245 0.0239484 0.0220886 0.0229319 0.0355536 0.0482991 0.0537051 0.0383738 0.0218902 0.0040317 0.00364031 0.0094807 0.00738492 -0.00156382 -0.00374934 -0.0212948 -0.0142012 -0.00324851 0.00561325 0.00782269 0.00577966 0.000211333 0.00784179 0.00438656 0.00113495 0.0024156 0.00189416 -0.00529606 -0.00643669 0.0211554 0.0166445 0.0438897 0.0358789 0.0557927 0.0500603 0.0403921 0.024479 0.00826624 -0.00475893 0.000215294 0.0133075 0.00399832 -0.012935 -0.0210147 -0.0181799 -0.0165688 -0.000932103 -0.00487329 -0.00391935 0.00956788 0.00920284 0.00200615 0.00339183 0.00377207 0.00281607 0.00755531 -0.00214398 0.0133841 0.0360274 0.0398666 0.036951 0.0359244 0.0362894 0.0265658 0.0132744 0.0137122 -0.0090563 -0.0195276 0.00634381 0.00346552 -0.0224812 -0.01748 -0.0227523 -0.0277729 -0.0239772 -0.0243889 -0.000827229 0.00755556 0.00559309 0.00885788 0.000268582 0.011612 0.00390381 0.0106379 0.0014666 0.0076625 0.0175371 0.00647034 0.0122462 0.00878806 0.01117 -0.00331767 0.00337561 0.00443983 0.00204647 -0.0169465 -0.0120802 0.000292407 -0.00333597 -0.0148581 -0.0121044 -0.0354886 -0.0325317 -0.018291 0.00319315 0.00780002 1.59146e-06 0.00776302 0.00811837 0.00989633 -0.00124901 0.00933046 0.0102201 0.0162166 0.0371454 0.00390659 -0.00802119 -0.00420463 -0.0195106 -0.0297208 -0.00188783 0.00121274 0.00633059 -0.0071653 -0.0216934 -0.0136556 0.00883688 -0.023235 -0.0215335 -0.025559 -0.0231832 -0.00805224 -0.00322728 0.00253329 0.00163741 0.0023067 0.00221475 0.0074789 0.00256414 0.0169422 0.011528 0.0130019 0.0380718 0.00200997 -0.00374909 -0.0272794 -0.04427 -0.0495182 -0.0317194 -0.0250598 -0.00774346 -0.0139321 -0.0128899 -0.00644168 0.007394 -0.0228723 -0.0284557 -0.019312 0.00130948 -0.00505467 -0.00371433 0.000370576 0.00071283 0.00831318 0.00100856 0.000964978 0.00128275 -0.00456881 -0.00211391 0.0124946 0.0257379 0.00461011 0.00584995 -0.0195843 -0.0479711 -0.0388049 -0.0312292 -0.0241237 -0.0116025 0.010976 0.0144276 0.011952 -0.00114592 -0.0111843 -0.0123623 -0.00682759 -0.00351422 0.00222934 0.00095391 0.00704645 0.00814337 0.00385919 0.00188688 -0.00337449 0.002474 0.00240123 0.0135101 0.0114581 0.0186453 -0.0127542 -0.00455042 -0.00955115 -0.0448493 -0.0359934 -0.026973 -0.0231052 -0.0157674 0.00799062 0.0382178 0.0204524 -0.000261438 0.00122799 0.0015453 0.00566746 -0.0039688 0.00169434 0.00717009 0.00564019 0.00494845 0.00840585 0.00313094 -0.00651975 0.00372991 0.0164829 0.0217201 0.0121881 0.021333 -0.0102482 0.00810815 -0.0195897 -0.0483503 -0.0473333 -0.0388541 -0.0246281 -0.0198066 -0.00496351 0.0101465 0.0022462 -0.0080448 0.00165673 0.00244503 0.000717369 -0.000265074 0.00450309 0.0110382 0.00663569 0.005567 0.0100506 0.00417657 -0.00895615 -0.00135278 0.0103789 0.0185364 0.00593503 0.0151447 0.00430322 0.000435449 -0.029989 -0.0451106 -0.0537985 -0.0365027 -0.0186702 -0.0179258 -0.0181131 -0.00666988 -0.0146815 -0.0200525 -0.0104133 -0.00691777 -0.0136112 -0.0122453 -0.00882878 0.00644391 0.00551648 0.00340204 0.00256997 0.000508355 -0.00373797 0.00292121 -0.00777495 0.0197613 0.0207516 0.0107414 0.0173705 0.0347754 -0.00178231 -0.0189367 -0.0151876 -0.0177653 -0.00509908 -0.0196631 -0.0162519 -0.0158475 -0.012534 -0.0171847 -0.0100904 0.00191014 -0.00279738 -0.00799849 -0.00362133 0.0118025 0.00486606 0.0096847 0.00821146 0.00239244 0.000790196 0.00804872 -0.0106052 0.0119397 0.0301108 0.0127075 0.0214911 0.0260573 -0.00292956 0.00268411 -0.00600112 -0.0136189 -0.0163229 -0.0216449 -0.026354 -0.0207413 -0.0157775 -0.0151306 -0.00871301 -0.0101865 -0.00831742 -0.0150524 -0.00915989 0.00472835 0.00917687 0.00752012 0.00993818 0.00567716 -0.000371485 0.00160408 -0.0127161 0.00687367 0.0252945 0.0151505 0.010396 0.00352839 -0.00253982 -0.00740055 -0.0205055 -0.0121454 -0.0103677 -0.0213903 -0.0125918 -0.0161963 -0.0176412 -0.0229262 -0.0208571 -0.0241242 -0.016952 -0.013924 -0.00705698 0.0032215 0.000789749 0.00484536 0.00875105 0.00816955 -0.00792418 -0.00410173 -0.00564875 0.000328948 0.0289915 0.0334411 0.0359564 0.00869248 0.0124676 0.00380681 -0.00857416 -0.0118897 -0.00619213 -0.0211008 -0.0324432 -0.0282968 -0.0289367 -0.0242559 -0.0171451 -0.0372753 -0.0156327 0.00350929 -0.00287499 0.00728469 0.00452447 0.000618557 0.00752192 -0.000683777 -0.00441905 -0.00441155 -0.000332703 0.00019399 0.0214008 0.0264351 0.0320224 0.00307233 0.00554948 -0.00576058 -0.0171676 -0.00754935 -0.011136 -0.0327529 -0.0333168 -0.0214059 -0.02736 -0.0165873 -0.0217534 -0.0376783 -0.0115874 0.00231049 0.0111381 0.00539066 0.00139747 0.00886579 0.00788016 0.006453 -0.00847365 -0.0154754 -0.00451004 0.0100942 0.00160666 0.00500833 0.0399364 0.018095 -0.000159121 -0.014176 -0.0213551 -0.00779954 -0.0172165 -0.0421213 -0.0416861 -0.039142 -0.0391208 -0.02337 -0.023232 -0.0216923 -0.0170568 -0.00377679 0.00892246 0.0030858 -0.000457818 0.00515464 0.00288759 0.00118657 -0.00595195 -0.0164403 -0.00103675 0.00988895 0.00314331 -0.00271531 0.0217968 0.0251675 0.00602689 -0.0036089 -0.00849213 -0.00495267 -0.0138906 -0.0245296 -0.0319223 -0.0289621 -0.0175081 -0.020447 -0.022311 -0.028762 -0.0152572 -0.00229301 0.0156941 0.00572338 0.00300675 0.00237113 0.00810974 0.0097058 -0.000133636 -0.0197498 -0.00921438 0.000585488 0.0145451 0.00980658 0.00385347 0.0173667 0.00445535 0.0028587 0.0121541 0.00224658 -0.00569424 -0.00422426 -0.00676172 -0.00832765 -0.0160664 -0.0287822 -0.0232971 -0.029617 -0.0269203 -0.0124219 0.000581669 0.00191686 0.00670019 0.00670103 0.00393428 0.00819091 0.000359495 -0.0222724 -0.0228196 0.00554624 -0.00035394 0.0139126 0.0177502 0.00518077 -0.00105369 0.00577177 0.00845295 -0.0148334 -0.0178232 -0.00926249 -0.000813567 -0.00546581 -0.0228894 -0.0117561 -0.0160961 -0.00659571 -0.023782 -0.00745967 -0.00628159 0.00478238 0.0069356 0.00354185 0.00104138 0.0103079 0.00458499 -0.00726165 -0.0234459 -0.0116957 -0.00953671 -0.0028564 -0.0124387 0.00200811 0.00402251 0.0103634 0.0246557 0.00128738 -0.0173452 -0.0100014 0.0101541 0.00371138 0.00590765 -0.00741744 -0.00665689 -0.00219209 -0.00166522 -0.0157786 -0.0173057 -0.000779143 0.00222734 0.00524902 0.00762917 0.0029925 0.00948114 -0.00824272 -0.0124405 -2.85088e-05 0.00261856 -0.00179072 -0.0104924 -0.00224189 0.00797048 0.00410976 0.0169687 0.00617583 -0.00843834 -0.00299158 0.0140109 0.0121997 0.0128457 8.01346e-05 -0.00616347 -0.00727876 -0.015918 -0.0237184 -0.0185299 0.0062137 0.00900164 0.00298969 0.00412386 0.000297723 0.0127116 0.0131622 0.000289404 0.0010638 0.00388531 0.00522409 0.00745667 0.00792171 0.0014003 -0.0048893 0.00450909 0.0218396 0.000135733 0.00463934 0.0125134 0.0112598 0.00786315 0.00210283 0.00305082 0.00891696 -0.0124633 -0.0152521 -0.0102002 0.00780135 0.00837278 0.000824742 0.00690722 0.000506917 0.0112014 0.0116916 0.013697 0.00406363 0.00902836 -0.0068731 -0.0143618 -0.00255253 0.0119237 0.0031517 0.000220138 0.00185317 -0.000381969 0.0107095 -0.00228049 0.00354593 0.00785885 0.00215483 0.00740995 0.00202917 -0.00250934 0.000959198 0.0014876 0.00103338 0.000297896 0.0102062 0.00371134 0.00825641 0.0111429 0.00557329 0.0086026 0.0098398 0.0047377 0.00274559 0.000249528 0.00656645 0.00622034 0.0109522 0.00893664 0.00696378 0.0103732 0.00431335 0.00337789 0.0111511 0.0115686 0.00215199 0.00990696 0.00755181 0.00625545 0.00379344 0.00731413 0.00494892 0.000717162 0.00298969 0.00835052 0.00979396 0.00807045 0.00786247 0.00546762 0.0102062 0.00865979 0.00670103 0.00959534 0.000825109 0.00742268 0.00443299 0.0029899 0.0014433 0.00701031 0.0056701 0.00938031 0.0075207 0.00226804 0.00494845 0.00525773 0.00886598 0.00453608 0.00474227 0.00793814 0.00175258 0.00298969 0.00164948 0.00762887 0.00938144 0.0071134 0.00123711 0.00474227 0.00958763 0.00938144 0.00154639 0.00505155 0.00587629 0.00412371 0.00536082 0.00371134 0.00525773 0.00896907 0.00268176 0.00639672 0.00563879 0.00855586 0.00969072 0.00824742 0.01 0.00670103 0.00758101 0.00290542 0.00720471 0.00804845 0.00804124 0.00804124 0.00412269 0.00109319 0.00464557 0.00434617 0.00685043 0.00734946 0.00833617 0.00460691 0.0048318 0.00287347 0.00638815 0.000446334 0.00761021 -2.76954e-06 -0.000210383 0.0056862 0.00728061 0.00488976 0.0101947 0.00455988 0.00313292 0.00475563 0.0172778 0.00584716 0.010035 0.00258885 0.00391753 0.00525773 0.00481375 0.000402438 0.0021315 0.00205619 -0.00138881 0.00346993 -0.00465586 -0.00112726 0.000945759 -0.00289994 -0.00683774 -0.0138309 -0.0163246 -0.0250062 -0.0316066 -0.0248187 -0.0160532 -0.00517855 0.0216419 0.0320713 0.0170272 0.0140745 0.0355725 0.00658866 -0.00439724 0.00845561 0.00835052 0.00216505 0.00498846 -0.000422278 -0.00790947 -0.0158918 -0.0178616 -0.0118615 -0.011881 -0.0148981 -0.0133738 -0.016067 -0.0189056 -0.0340425 -0.040191 -0.0476706 -0.0576243 -0.0459946 -0.0300871 -0.00819697 0.0268297 0.0416734 0.044128 0.0420169 0.0536915 0.0366098 0.0169892 0.00771182 0.00648617 0.00161193 0.00465742 -0.00497511 -0.00860396 -0.0154837 -0.021945 -0.023595 -0.0201876 -0.0171324 -0.022294 -0.0177728 -0.0286276 -0.0364498 -0.0458274 -0.0479174 -0.0630437 -0.0554911 -0.0657941 -0.0115799 0.0465047 0.0485414 0.0425735 0.0119954 0.0144193 0.0205006 0.0219273 0.0142289 0.00193227 0.00652161 -0.00403511 -0.00845422 -0.00664851 -0.0289344 -0.0247517 -0.025622 -0.0296069 -0.0254178 -0.027664 -0.0252878 -0.0298236 -0.0396318 -0.0362144 -0.0431875 -0.0568318 -0.0680483 -0.0449618 0.000956839 0.0273642 0.0567089 0.0234822 0.000789536 0.0126243 0.00845234 -0.00194256 0.00750725 0.00993682 0.00174076 0.00980106 -0.000612745 -0.0072853 -0.0239907 -0.0250023 -0.0307211 -0.0352538 -0.0342834 -0.0425743 -0.047792 -0.0425597 -0.0427089 -0.0362524 -0.062732 -0.0615742 -0.0619944 -0.0396445 -0.034514 0.0260811 0.0478386 0.0177718 0.0202127 0.00162433 0.00740444 0.0108435 0.0128668 0.00957741 0.00873364 0.00500661 -0.0081879 -0.0199291 -0.0304616 -0.0403812 -0.0271423 -0.0480728 -0.0572305 -0.0569283 -0.0687397 -0.0623598 -0.0511333 -0.0504828 -0.062863 -0.0513435 -0.0335122 -0.0259939 -0.0249811 -0.00209705 0.0253341 0.0438893 0.0165301 -0.00824149 -0.00189704 0.012044 0.00814332 0.00710039 0.00517505 -0.00116973 -0.0046464 -0.016085 -0.0399894 -0.0447685 -0.0307171 -0.0499019 -0.0699109 -0.0784011 -0.0732375 -0.0593311 -0.0450678 -0.0534434 -0.0558419 -0.0458056 -0.0230938 0.0127939 0.0116896 -0.0095954 0.0479835 0.0390318 0.0201848 0.0146117 0.00724701 -0.00375736 0.0100325 0.0066454 0.00537113 0.00309664 -0.0086469 -0.0242273 -0.0411397 -0.0441979 -0.0502923 -0.0581388 -0.0672405 -0.0650479 -0.0575088 -0.0448321 -0.0207172 -0.0286566 -0.0136612 0.00211367 0.0131939 0.0095073 0.00160211 0.0113706 0.0520334 0.0175838 0.0190926 0.0358167 0.0139589 -0.00407106 0.00992389 0.000203197 0.000102868 0.00539236 -0.0111103 -0.0314101 -0.0479752 -0.0473986 -0.0556659 -0.0566254 -0.0311892 -0.0320852 -0.0238386 -0.0127803 -0.0033994 -0.00689302 0.0134301 0.0264635 0.0357856 0.0432141 0.0092594 0.0174051 0.0328083 0.0561539 0.0271947 0.0258116 0.0143089 -0.00658508 -0.00095273 0.00371129 0.00505276 0.00394689 -0.0102683 -0.0329563 -0.053625 -0.0595002 -0.0664018 -0.053145 -0.0297539 -0.00586028 0.0181709 0.017271 -0.0095846 0.0179867 0.0318411 0.0491012 0.0400844 0.0186498 -0.0192157 0.00130507 0.0242281 0.0494452 0.00679944 0.00936661 -0.000547249 -0.0139556 0.0021683 0.00546383 0.00278098 0.00146975 -0.00238514 -0.0274368 -0.0408189 -0.0458087 -0.0614662 -0.0477397 -0.0233437 -0.00881958 -0.00478094 -0.0142419 -0.00235297 0.0161834 0.0244954 0.0105441 -0.0271022 -0.0289797 -0.0315071 -0.00536419 0.0232755 0.0069162 0.00982246 0.00567143 -0.0144616 -0.00471848 0.00833549 0.00103075 0.00721476 0.00327433 -0.00869332 -0.0158078 -0.0239258 -0.03049 -0.036369 -0.0135607 0.0122555 0.0149559 -0.0139478 -0.0016556 0.0263775 0.0117722 0.0179141 -0.0167661 -0.0334359 -0.00576523 -0.0266852 -0.00477726 -0.00404838 0.0055584 0.0284847 0.00473143 -0.0183683 -0.0107157 0.00528504 0.00350342 0.00700837 0.00501687 -0.00674916 -0.0271113 -0.0189358 -0.0097887 -0.00973524 -0.00517199 0.0191427 0.0209529 -0.0024432 0.0128841 -0.0265543 -0.00774056 -0.0127759 -0.0347622 -0.00229393 0.000521653 0.00841801 0.0259472 0.000174709 0.0144698 0.0244632 0.00676987 -0.0195473 -0.0112764 -0.000551991 0.00463762 0.000387893 0.00907559 -0.0149911 -0.0349574 -0.0247545 -0.0160933 -0.0154531 -0.00719582 -0.00760635 -0.02856 -0.00179961 -0.00957237 -0.0183048 0.00137336 -0.0182371 0.0021998 0.0170055 -0.0209829 0.000293688 0.0325363 0.0119653 -0.000677773 0.00666538 -0.00276256 -0.0170524 -0.00404732 0.00156363 0.00835052 0.00247535 0.00396335 -0.00380149 -0.00355958 -0.00199338 -0.00344684 0.00669288 -0.00810518 -0.0176395 -0.0182448 0.0066573 0.00341224 -0.0122705 0.0183834 0.000237132 0.000569909 -0.00269242 -0.0220013 0.000883471 0.0392749 0.0076567 -0.0217534 -0.00927358 -0.00774963 -0.0174735 -0.00361729 0.00346865 0.00628866 0.00505789 0.000113442 -0.00400261 -0.00369873 0.0168625 0.0205298 0.00189157 -0.0160007 -0.00328322 -0.00982584 -0.0114274 0.00537256 -0.0163896 -0.0230032 -0.0101003 -0.00393815 0.00724809 -0.00590936 0.00253429 0.0361674 0.00613169 -0.0177473 0.00543131 -0.00589763 -0.021195 -0.00967862 0.00959378 0.0032981 0.00335469 6.89221e-05 -0.0216433 -0.0258386 0.0090592 0.0191414 -0.0158339 0.00694594 0.0187148 -0.0103377 -0.00442963 -0.00464797 -0.0121318 -0.0468868 -0.030174 -0.00976637 0.0115643 0.0177879 0.0142431 -0.00270385 0.00177127 -0.00954275 0.0233799 0.00230643 -0.0200813 -0.00678085 0.00759699 0.00814433 0.00526115 -0.00321888 -0.0123644 0.00375853 0.0385713 -0.00318781 -0.0109829 -0.00345686 -0.0115918 0.0029313 0.00298116 -0.0106366 -0.0456394 -0.0208358 -0.000819059 0.00189339 0.0117887 0.00697174 0.0160591 -0.00899029 -0.00726158 -0.0119135 0.0200153 -0.013104 -0.0200023 -0.00440474 0.00878486 0.00474227 0.00958911 0.00600093 0.00927079 0.00443656 0.00733473 -0.0133088 0.00730239 -0.0244745 -0.00893884 0.0168957 -0.00630625 -0.0164936 -0.056254 -0.0193467 -0.0177462 -0.0227652 -0.035155 -0.00940018 0.0169266 0.00143731 -0.00250678 -0.0147354 0.0177531 -0.0257561 -0.0250229 -0.00286131 0.00285076 0.00690722 0.00970825 0.0108527 0.022553 0.00404278 -0.0200596 -0.0213745 0.0155739 -0.0171019 -0.0164937 -0.00885107 -0.0107432 -0.0226201 -0.0309521 0.0137243 -0.0174999 -0.0567998 -0.0612188 -0.0349923 -0.0163802 -0.0248164 -0.0353265 -0.00456915 0.00902799 -0.017583 -0.01435 -0.00299186 0.00970398 0.000207729 0.0092312 0.00882121 0.0302586 -0.00626382 -0.00350862 0.0106788 0.0195034 -0.00338062 0.003709 0.0046291 -0.00659773 -0.038972 -0.0256027 0.00608466 -0.0120963 -0.0508474 -0.0319375 -0.00376756 -0.0235439 -0.0604939 -0.0295105 0.017084 0.0241029 0.0116319 -0.00589281 0.00405388 0.00448916 0.00421349 0.00598332 0.00877699 0.0144305 -0.0161643 -0.000498925 0.0023418 0.0136989 0.0170102 0.0207725 0.0231115 0.00139975 -0.0187188 -0.032816 -0.0224144 -0.0230662 -0.0233444 0.00323338 0.0036188 -0.0249601 -0.0288652 -0.0196951 0.0245783 0.0271374 0.00924674 0.0045493 0.00292545 0.00793268 0.00134021 0.00659977 0.00308252 0.00302369 -0.00835206 0.0210818 0.0214944 0.0415754 0.0307053 0.033501 0.00550222 -0.00129389 -0.00159339 -0.0133176 -0.0254756 -0.0216173 -0.0112801 0.0116251 0.00425967 -0.022292 -0.0200891 -0.0112203 0.0144862 0.0181456 0.0101704 0.00194979 0.00264184 0.00429396 0.00113402 0.0071134 0.0120844 0.00644776 -0.00434884 0.0179214 0.0304524 0.0577314 0.0505503 0.0257968 0.000341264 -0.00683862 -0.0163174 -0.0330032 -0.0428515 -0.0269993 -0.0110761 0.0111182 -0.00457197 -0.0196431 -0.0124776 -0.013698 0.00349642 0.00634879 -0.00944376 -0.00497338 0.00599505 0.00991064 0.00814433 0.00360825 0.00672887 0.010686 0.0108468 0.00356005 0.0110684 0.006251 0.00687256 0.00333756 0.00863204 0.004052 0.00869249 0.00411501 -0.000373172 0.00114414 0.00947343 0.00923071 0.00438258 -0.00125467 0.00485058 0.0102858 0.00432754 0.00247818 0.00681429 -0.000827378 0.002966 0.00287707 0.00319588 0.00917526 0.00536804 0.0045498 0.00887288 0.00683441 0.000721649 0.00979381 0.0028866 0.00835876 0.00929549 0.00103093 0.00793814 0.00732015 0.00371134 0.00608247 0.00443299 0.00412322 0.00340027 0.00381443 0.00958763 0.00309278 0.00762887 0.00958763 0.00845361 0.000309278 0.00628866 0.00927835 0.00639175 0.000721649 0.01 0.00525773 0.00237113 0.00927835 0.00175258 0.00412371 0.000309278 0.00680412 0.0085567 0.00628866 0.00608247 0.00463918 0.00886598 0.00525773 0.00670749 0.000126824 0.0041249 0.000928638 0.01 0.0085567 0.00515464 0.00597938 0.00217693 0.00775326 0.00836298 0.00896917 0.00731959 0.00896907 0.0102064 0.000516725 0.00790348 0.00409564 -0.00153344 0.000519434 0.00448734 -0.00416677 -0.00671566 -0.000194198 -0.00176488 0.000851771 -0.00356571 0.00588144 0.000186505 0.00219292 -0.00351101 0.00137684 -0.00414777 0.00251924 0.00586657 0.00815485 0.00540299 0.00375897 0.00367477 0.00720927 0.00391753 0.00783505 0.00568771 0.00185289 0.00957786 0.00916241 0.00410335 0.000473028 0.000394644 -0.00267337 0.00134888 -0.00860332 -0.00622498 -0.00331329 -0.00799527 -0.0094193 -0.0103153 -0.0155033 -0.0112234 -0.0126176 -0.0173146 -0.0178089 -0.0189599 0.00519634 -0.00495915 0.00336709 0.00408085 0.00258726 0.0101031 0.00917527 0.00480098 0.00595597 0.00651474 0.00601155 -0.00567315 -0.000318314 0.0116464 0.0112386 0.0161531 0.0012673 0.0188812 0.00561707 -0.0128759 -0.0258727 -0.0116688 -0.0138824 -0.0190581 -0.0190493 -0.0231556 -0.0282516 -0.0152462 -0.0100985 -0.00131902 -0.000724499 -0.00221673 0.00199385 0.00865791 0.00952732 0.00560918 0.00105141 0.011038 0.00568488 -0.0100009 -0.011723 0.0106587 -0.00797269 0.0150094 0.00559623 0.0140968 0.00332165 -0.00829232 -0.0424628 -0.0212817 -0.0149041 -0.0229022 -0.0264696 -0.0271527 -0.0310473 -0.0299168 -0.0136133 -0.000453877 0.000888615 -0.000792205 0.00811419 0.000273103 0.00538773 0.000583838 0.000899525 0.0154903 0.00887317 -0.00117678 -0.0124289 0.00787983 -0.0147793 -0.000778308 0.00475687 -0.0162189 -0.0206609 -0.0284298 -0.0373987 -0.0240546 -0.0252742 -0.0265199 -0.0232176 -0.0332765 -0.0290706 -0.0259802 -0.0148116 -0.00158458 0.00307504 0.00179753 0.00865388 0.00285252 0.00281421 0.00964531 -0.00123334 0.00691645 -0.000714446 0.00645217 -0.00449749 0.00795723 -0.000164094 -0.00137576 -0.00629437 -0.0162643 -0.0261034 -0.0356683 -0.0365378 -0.0218421 -0.0268682 -0.0332936 -0.0179541 -0.0274532 -0.0326056 -0.028772 -0.0100946 -0.00216895 -0.00386549 0.00293604 0.00832012 0.00360007 0.00247995 0.00813671 -0.0095782 -0.00833985 0.00204018 -0.000795704 -0.0114697 0.0161929 -0.0018164 -0.00127318 0.00193099 0.000902408 -0.0181997 -0.0354997 -0.0277188 -0.0251785 -0.0336662 -0.0371415 -0.0192652 -0.0206376 -0.0269524 -0.0235725 -0.00867974 -0.00401682 -0.00895997 0.000866046 0.00782073 0.00638643 0.00532935 0.00596666 -0.00126225 -0.00965713 -0.00266788 -0.017423 -0.0243948 -0.00303339 0.00721413 -0.0134172 0.0241069 -0.00209627 -0.0019093 -0.0236445 -0.0245334 -0.0275364 -0.0284526 -0.0413534 -0.0296444 -0.0261953 -0.0235945 -0.0204772 -0.0109632 -0.00510964 -0.0127095 5.90868e-05 0.000235529 0.00629859 0.00477462 0.000857799 0.00317316 -0.00376996 -0.0157472 -0.0273212 -0.020827 -0.0126902 0.0100067 -0.0150476 0.0189103 0.00499341 -0.00492602 -0.015891 -0.0185778 -0.0269257 -0.032789 -0.0515861 -0.0386721 -0.0290792 -0.0168775 -0.0146134 -0.0148003 -0.0123803 -0.00923803 -0.00377258 0.00477315 0.00155214 0.00143264 0.0045223 0.00355574 -0.0140086 -0.0302426 -0.0258409 -0.0167311 -0.0138205 0.00209861 0.00623728 0.0143138 -0.00371536 -0.0179983 -0.0122625 -0.0076538 -0.0376771 -0.0382542 -0.04925 -0.0396186 -0.0308447 -0.0223172 -0.010027 -0.0158985 -0.0116236 -0.0168982 0.00202528 9.15253e-05 0.0024743 0.00949353 0.000987085 -0.00317212 -0.015963 -0.0221689 -0.0252652 -0.0140164 -0.0141279 -0.000851314 0.022957 0.0120747 -0.0026067 -0.0142171 -0.00718843 -0.0105166 -0.0156853 -0.0340024 -0.041477 -0.0413364 -0.0314218 -0.0283283 -0.0201101 -0.00782153 -0.014717 -0.0121077 0.00473072 0.00117381 0.00278353 0.00950048 0.00714287 0.00148484 -0.0134495 -0.0232095 -0.0211297 -0.0148785 -0.0132724 0.00555593 0.014254 -0.0188987 -0.0166743 -0.0135187 -0.0210899 -0.0173974 -0.0156391 -0.0279814 -0.0418794 -0.037667 -0.0413019 -0.0327545 -0.023255 -0.00794066 -0.0180667 -0.00534706 0.00391165 0.000449298 0.002165 0.000394595 0.00470508 0.000847994 -0.00376566 -0.0166817 -0.0170047 0.00285076 0.00100174 -0.00392798 0.00313085 -0.0206166 -0.0324315 -0.0257877 -0.0123684 -0.0253515 -0.0159092 -0.022531 -0.0349657 -0.0369451 -0.0444461 -0.0324365 -0.0174395 -0.010193 -0.0151032 -0.00643038 0.00668962 0.0012201 0.00113459 0.00591401 0.00660828 0.00385177 0.0011542 -0.0108419 -0.0101675 -0.000200447 0.0163998 -0.00468542 0.00105932 0.00258392 -0.0217387 -0.00360494 0.00446463 -0.0265248 -0.0242066 -0.0241053 -0.0526081 -0.0406821 -0.0433667 -0.0384216 -0.0163111 -0.00415336 -0.00642401 -0.00712313 0.00484252 0.00750249 0.00288711 0.0027989 0.00661451 0.0093455 0.000171858 0.000591804 -0.0014115 0.0218853 0.012096 0.0140499 0.0202845 0.00419063 0.00310557 0.00632257 0.00602048 0.0125925 -0.0252089 -0.0229739 -0.0451965 -0.0347828 -0.0448753 -0.0405199 -0.0116435 -0.0045999 -0.00535835 0.000319665 0.00557351 0.00463423 0.0014433 0.00195657 0.00301167 0.00809452 0.00652656 0.00636934 0.0170339 0.00902539 0.015294 0.0252953 0.0297132 0.0170471 0.041766 0.000812282 0.00621585 0.0194584 0.00464856 0.00416745 -0.00853628 -0.0134425 -0.0119872 -0.0165911 -0.0124537 -0.00558823 -0.010547 0.0101339 0.00762844 0.00568346 0.00680412 0.00328261 0.0052661 -0.00252707 0.000636161 -0.00348816 0.0185175 0.00276444 0.00908461 0.0181224 0.0173925 0.0283907 0.0185048 -0.0081448 -0.0088672 0.0234176 0.0407211 0.0279031 0.00208958 -0.0031818 0.00608399 0.0109904 -0.00670587 -0.012155 -0.00351017 0.013908 0.00490974 0.00263312 0.00175245 0.00313974 -0.000868188 -0.000299646 0.00316968 -0.000227752 0.00355014 -0.0185847 0.000262855 0.0244027 0.0279579 0.021543 0.0138521 -0.0185303 -0.00346383 0.0323442 0.0522083 0.0340518 -0.00460421 -0.00861758 0.00448666 0.0110138 -0.00410461 -0.01903 -0.00667067 0.00796102 0.00905246 -0.000135577 0.00474227 0.00830345 -0.00256397 -0.00634617 -0.00837412 -0.0141976 -0.0142779 -0.0299621 -0.013647 0.0176677 0.012002 -0.00678833 -0.0167778 -0.00583886 0.0177538 0.0359083 0.0241414 0.017449 -0.00603427 -0.0116607 0.0105313 0.033395 0.00535597 -0.00527215 -0.00789391 0.00264659 0.00183297 0.00194761 0.0014433 0.00963453 0.00310488 -0.0106011 -0.00988531 -0.0184489 -0.0129417 -0.0262741 -0.00533397 0.0279913 -0.00427144 -0.0119708 -0.0154939 0.00155173 0.00606843 0.0237715 0.0180462 -0.000126342 0.00114308 0.025453 0.0292414 0.0304526 0.0111172 0.0134351 0.00526136 0.00625179 0.00624212 0.0063842 0.00391753 0.00724808 0.00476613 -0.0111964 -0.0102522 -0.0199521 -0.011523 -0.0195002 0.00207806 0.017534 -0.00655831 -0.0108206 0.00512165 0.00323674 0.00273725 0.0089804 0.0143249 0.019472 0.0376121 0.029893 0.0403515 0.0338243 0.0321694 0.0263383 0.00885475 0.0100307 0.00195876 0.00552183 0.00278987 0.000930793 0.00188064 -0.00667493 -0.0270994 -0.0302812 -0.0113946 -0.0160823 0.00248758 -0.00343912 -0.0151691 -0.0228226 -0.00949281 -0.00066586 0.00669917 0.00641704 0.0178163 0.00634409 0.0108783 0.0274344 0.0464909 0.0364632 0.0175721 0.0237721 0.0222865 0.00618767 0.00278766 0.00621701 0.0034029 0.00875884 0.0073396 -0.00737883 -0.0240865 -0.0211938 -0.00257043 0.00277322 -0.0199992 -0.025304 -0.0153119 -0.0327333 -0.0262513 0.00200561 0.0106457 0.0117931 0.0226661 0.021316 0.0316544 0.0461872 0.0589287 0.0204634 0.0196415 0.0145845 0.00963874 -0.00466645 -0.00761822 0.0054926 0.00958763 0.00443132 0.0099995 0.00428495 -0.0139806 -0.0165251 -0.00162382 -0.0123959 -0.0197136 -0.0296631 -0.0114452 -0.0224042 -0.00472648 0.0144955 0.0319374 0.0317234 0.0371237 0.0415761 0.0417591 0.0466618 0.0509738 0.0251379 0.0135567 -0.00125739 -0.0079529 -0.0145278 -0.0072642 0.00798037 0.0071134 0.00206186 0.00966454 0.00873545 0.00127593 -0.00380988 -0.00228139 -0.00917308 -0.0122591 -0.0206447 -0.0259639 -0.01303 -0.000977268 0.0222049 0.0309112 0.0263925 0.0486013 0.0311336 0.0163423 0.00940857 0.0274731 0.00988903 0.0044534 0.00374048 -0.00532135 -0.00423026 -0.00110011 0.00254244 0.00340206 0.00412371 0.00640837 0.00269069 0.00762494 0.00177874 0.00415181 0.00396184 -0.00109972 -0.00120167 0.00527553 0.00779288 0.00626742 0.00534786 0.00539556 0.00539307 0.0118412 0.0047154 -0.00151042 -0.00320901 0.00348164 0.00501116 0.00204862 0.000753091 0.00520834 0.00796996 0.0051495 0.00953492 0.00216495 0.00876289 0.0028867 0.00445282 1.65686e-05 0.00567134 0.00731959 0.00721649 0.00536082 0.00775407 0.00320219 0.00412371 0.00350515 0.00412475 0.00886598 0.00350515 0.00494845 0.00402022 0.00669913 0.00989691 0.00123711 0.00639175 0.00536082 0.00319588 0.00896907 0.00659794 0.00587629 0.00494845 0.0057732 0.00721649 0.00515464 0.00845361 0.000103093 0.00958763 0.0102062 0.00329897 0.00453608 0.00319588 0.00773196 0.000412371 0.00515464 0.00268041 0.00680412 0.00391753 0.000103692 0.00237334 0.00445475 0.00424003 0.00824742 0.00979381 0.00185567 0.00608247 0.00650793 0.00290987 0.00300331 0.00907227 0.00556701 0.00134021 0.00814625 0.00709287 0.00680335 0.00810858 0.00785283 0.00370924 -0.000838569 0.000720922 0.0103997 0.0035808 0.00885968 0.00584613 0.00284264 0.00971643 0.0125824 0.0199939 0.0162959 0.00497959 0.00374525 0.00186993 0.0114317 0.00821149 0.00748378 -0.000251551 0.000793993 0.00288949 0.0057732 0.000515464 0.006735 0.00209395 0.00597037 -0.00195112 0.00312511 -0.00096903 0.00321319 0.00204581 0.00535016 0.00875631 0.00566864 0.00677965 0.0133333 0.0236883 0.0232094 0.0191119 0.0247283 0.0113503 0.00955874 0.000865394 0.0144755 0.00534336 0.00228905 -0.0013594 -0.0048066 0.000532059 0.00360825 0.00618555 0.00722891 0.000882392 -0.00242245 -0.00631568 -0.00490815 -0.0097606 -0.00463052 -0.0085028 -0.012217 -0.0114216 -0.0179885 0.0081842 0.00860472 0.00948837 0.00185467 -0.00813281 0.012147 0.00843597 0.00319879 -0.0108562 -0.00663324 -0.000213903 -0.00490618 -0.0050926 -0.00244427 0.00140792 0.00863524 0.00257578 0.01024 0.00168262 -0.00614086 -0.00624958 -0.0114812 -0.0155533 -0.0142718 -0.0114753 -0.00115711 0.00402499 -0.00296783 0.00609896 0.011832 0.0156897 -0.0108023 -0.00153307 -0.000315842 0.00769868 -0.0115802 -0.0138055 -0.0154979 -0.0196892 -0.0155964 -0.00833609 0.00773541 0.00160383 0.00140083 0.00113709 0.00253515 0.00827847 -0.00621291 -0.0175106 -0.0142172 -0.0240738 -0.0231786 -0.0177625 -0.0109902 -0.00387225 -0.00103626 0.0151117 0.00992496 0.00753839 0.00331748 -0.0113212 -0.00387676 -0.00536362 -0.00795317 -0.00506551 -0.0124332 -0.0177552 -0.0206274 -0.00996226 0.00471003 0.00652846 0.00266713 0.00202649 0.00658166 0.00700234 -0.00536834 -0.014716 -0.0166444 -0.0237475 -0.022299 -0.0139734 -0.000998848 0.00140841 0.00463016 0.0277208 0.0179648 0.0179875 0.00971031 -0.0136434 0.000176503 -0.000536032 0.00662652 -0.0113824 -0.0153889 -0.0174693 -0.0208481 -0.0210594 -0.00312254 0.00285689 0.0094844 0.00992439 0.0028105 -0.00202747 -0.0110394 -0.0149138 -0.0114174 -0.0250845 -0.0208553 -0.00553588 0.0183713 0.0208034 0.0113992 0.0243898 0.0212371 0.00839196 -0.0176292 -0.0151784 0.00463224 0.00448024 0.00805088 -0.0198434 -0.0288595 -0.0228195 -0.0207925 -0.0108552 0.00856954 0.0099417 0.000534188 0.0101434 0.00666823 0.000952967 -0.00474308 -0.0184159 -0.0203377 -0.0133226 0.0024252 0.00407651 0.0111247 0.0105426 0.0150655 0.00248549 -0.00476362 -0.0125338 -0.0194158 0.00651575 0.014188 0.0106026 0.0069755 -0.0285107 -0.0419389 -0.0296724 -0.0145347 -0.00957749 0.0154058 0.00829499 0.00205757 0.00508758 0.00425388 0.00221638 -0.0123577 -0.0165946 -0.0186042 0.000960988 0.0160295 -0.000277107 -0.00217351 0.0107802 -0.00495679 -0.0262703 -0.0157013 -0.0142018 0.0132085 0.0233563 0.031067 0.00753597 -0.00961991 -0.0459432 -0.044705 -0.0317737 -0.009678 -0.00167391 0.0165304 0.00942425 0.00496621 0.00390263 0.012492 0.00487865 -0.00783002 -0.0202496 -0.0154967 0.00964907 0.0146019 0.00510696 0.00899799 0.0107014 -0.0116308 -0.0251025 -0.0131568 0.00962988 0.025095 0.0324047 0.0146397 -0.00292981 -0.0397391 -0.044627 -0.0407298 -0.0240715 -0.0118629 0.0123607 0.0239761 0.00702834 0.00762913 0.00148133 0.00877479 0.0050835 -0.0120763 -0.00569914 -0.00143689 0.00741795 0.0099099 0.0128691 0.00677489 -0.0015091 -0.0196699 -0.00707661 0.00884668 0.0132555 0.0136295 0.016298 0.00935721 -0.0175825 -0.0493384 -0.0473095 -0.0416884 -0.0292288 -0.00721739 0.0127191 0.025083 0.00292881 0.000618848 0.000648442 0.010857 0.00445438 -0.00392219 -0.00457598 0.0102097 0.00340267 0.00189482 0.00910331 -0.00916549 0.0129706 -0.000124244 0.00203605 0.0190005 0.0154152 0.0162554 0.0113037 -0.0096713 -0.027759 -0.0359682 -0.0335167 -0.029953 -0.0221468 -0.0041686 0.0295298 0.0299064 0.000733244 0.000412955 0.00577847 0.00414101 0.00777548 0.00446599 0.000195907 0.012653 -0.000864214 -0.00213972 0.0120807 -0.00644888 0.00346756 0.00549928 0.00341979 0.00259183 -0.00304161 -0.0182541 5.96683e-05 -0.00546086 -0.0226907 -0.0285545 -0.029 -0.0232185 -0.0163693 0.000590946 0.0251091 0.0256334 0.00848514 0.00720878 0.00861201 0.00655227 0.0173254 0.0184916 0.0095257 0.00713045 -0.00467305 0.0144997 0.0214367 0.00615805 -0.00196686 0.00523449 0.00418098 -0.00272879 -0.0092447 -0.0118567 0.00753212 -0.0154069 -0.0157789 -0.0233731 -0.0246846 -0.00690228 -0.0105875 0.000216245 0.0149928 0.0177019 0.00960609 0.00287907 0.00824054 0.00312457 0.0189664 0.0156924 0.00975602 0.0112088 0.00069895 0.00876575 0.00537406 0.0253638 0.0306469 0.0281356 0.00370723 -0.0139861 -0.0186329 -0.0155864 -0.00594993 -0.0231565 -0.0240957 -0.00654889 -0.00829753 -0.00834164 -0.00756385 -0.00553783 0.018352 0.0301647 0.00510643 0.00927835 0.0076811 0.00363743 0.0103568 0.0119167 -0.00246355 0.00391271 0.00281032 -0.00120691 0.00113036 0.0209127 0.0295426 0.0165286 -0.020529 -0.0295932 -0.0113397 -0.0155409 -0.0114466 -0.041564 -0.0309701 -0.00862123 -0.00836578 -0.000104715 0.00322022 0.000899961 0.0196536 0.0146807 0.00518478 0.00876289 0.00967119 0.00751113 0.0129091 -0.00125251 -0.00430444 0.0137705 0.0196716 0.0159786 0.00702393 0.00790731 0.00581146 -0.00734787 -0.0135412 -0.000197393 0.00576675 -0.0157426 -0.013622 -0.0314999 -0.0174318 -0.0048714 -0.00449575 0.0078488 0.0176724 0.00556499 0.0194238 0.0217999 0.00621198 0.00948034 0.00423246 0.0100476 0.0159247 -0.000298878 -0.00881767 -0.00235418 0.00573822 0.00755059 0.0088962 0.00553806 0.00739932 -0.0140169 0.00936796 0.0102647 0.0238439 0.0131584 -0.00332614 0.00124332 0.0114128 0.0147021 0.000762559 -0.00670948 0.000377391 0.00742397 0.00859042 0.0133266 0.00621037 0.00134021 0.00617961 0.00993358 0.0213299 0.00267579 -0.0173142 -0.0105845 0.000572171 -0.0117424 -0.00602973 -0.00423631 -0.0132935 -0.0101267 0.00102218 0.0109698 0.0160053 0.0178502 0.00890902 0.0218079 0.0179236 0.0110921 0.0022305 -0.00448412 -0.00628476 -0.000831943 0.00354585 0.0131349 0.0065249 0.0028866 0.00361115 0.0055394 0.0123719 -0.000588792 -0.0210014 -0.0190585 -0.00930032 -0.00962703 -0.00254049 -0.0182046 -0.028938 -0.0238597 -0.0211815 0.00478999 0.0170388 0.00554831 -0.000496581 0.0106028 0.00732422 -0.00425649 -0.0138772 -0.016391 -0.0186029 -0.0110126 0.0104427 0.00837383 0.00268551 0.00278351 0.00103316 0.0107721 0.00679453 -0.00856756 -0.0275812 -0.0187695 -0.0105944 -0.00675204 0.00899173 -0.0253423 -0.0251448 -0.0278008 -0.0187406 0.00310038 -0.0127649 -0.00558269 -0.0157183 -0.00270185 0.00960076 -0.00161886 -0.0086242 -0.0149652 -0.00274034 0.00373988 0.00950777 0.00565844 0.00785975 0.000891952 0.00298978 0.000876574 0.00267151 -0.0100584 -0.0176177 -0.0188861 -0.00785791 0.0119065 0.0158251 0.000505283 -0.00610337 -0.00350968 -0.00278611 0.00106994 -0.0182325 -0.0211828 -0.0262699 -0.00576561 0.0176477 0.00425894 0.000142423 -0.00493439 -0.00396381 0.00343545 0.00870277 0.00121272 0.0093679 0.00580905 0.000718579 0.00730104 0.00317866 -0.00152103 -0.00247024 -0.0050789 0.00424649 0.010912 0.0129198 0.00881623 0.0104854 0.00571317 -0.00927883 -0.000328194 -0.0119984 -0.0235857 -0.015022 -0.00143034 0.0116042 0.00470849 -0.00111901 -0.0056165 -0.000748287 -0.0095209 -0.00395234 0.00597393 0.00902408 0.00814433 0.00783385 0.00267079 0.00878119 -0.00417783 -0.00819213 0.00567191 0.0152715 0.0107632 0.0250539 0.0148694 0.00650911 0.00497935 0.000101132 -0.00153387 -0.0150615 -0.0104595 -0.00562639 0.000303581 0.00498906 0.0122698 0.00122885 0.00839305 0.0013498 0.00118303 -0.0056822 -0.000945411 0.000602276 0.00865979 0.00484536 0.00795644 0.00664116 -0.00214205 -0.00435515 0.0101034 0.0156931 0.0133766 0.024622 0.0074529 -0.00010572 -0.00530491 -0.007725 0.000966948 0.00181992 0.00845271 0.0113634 -0.000325348 0.00591157 -0.00482933 0.000504901 0.00514843 -0.00100508 0.000454116 -0.00350044 0.00515919 0.00787689 0.00237113 0.00278351 0.00735311 0.0011487 0.00776921 0.00417074 0.00282345 0.0122312 0.00624267 0.0148714 0.0060834 0.0116532 0.00600523 0.00602583 0.00796174 0.00726944 0.0046545 0.00223519 0.00886922 0.00645139 -0.000541459 0.0062487 0.00212416 0.00471073 0.00052005 0.00485895 0.0095544 0.00222756 0.0042268 0.00164948 0.00793825 0.00538248 0.00672728 0.00938789 0.00391753 0.00103093 0.00690722 0.00567535 0.00897312 0.00247423 0.00226804 0.00402168 0.0042268 0.00494845 0.000412371 0.00351553 0.00705672 0.0042268 0.00742268 0.00701031 0.00762887 0.00783505 0.00381443 0.00340206 0.0042268 0.00463918 0.00185567 0.00154639 0.00762887 0.00536082 0.00474227 0.0057732 0.00247423 0.00680412 0.00835052 0.00453608 0.00412371 0.00350515 0.00989691 0.00783505 0.00278351 0.000515464 0.00185899 0.00939366 0.00424105 0.00670305 0.00938144 0.00731959 0.00608247 0 0.00175745 0.00165816 0.00443806 0.00247427 0.00659794 0.000515464 0.00587515 0.000105315 0.00738474 0.00882459 0.00419012 0.00174905 0.00750209 0.003364 0.00239116 -0.00238177 0.00275575 0.000185705 0.00214701 0.00624843 0.00884678 0.0107798 0.0106719 -0.00122701 0.000568376 -0.00331386 0.00227879 0.000399821 0.00938902 0.00948693 0.00209201 0.00331949 0.0057732 0.00989691 0.000922507 0.00771123 0.0144002 0.0150659 0.00937816 0.00688545 0.00252811 -0.00517502 -0.00474724 0.000354385 0.00476896 0.00288467 -0.0048438 -0.0301177 -0.0327027 -0.0010363 0.0110644 -0.00310486 -0.0174854 -0.00598348 -0.0161601 -0.0235754 -0.0041424 0.00130865 1.67451e-05 0.00933662 0.00257732 0.000103182 0.000612067 0.00843059 0.00632763 0.00204777 0.00877968 -0.0070818 -0.0170648 -0.0173698 0.00565302 0.00389188 -0.00435128 -0.00246696 -0.0308338 -0.0505562 -0.0490836 -0.0161539 0.0406853 0.0154441 0.00992365 -0.0110498 -0.0496485 -0.0691605 -0.0418185 -0.0246367 -0.00553577 0.00618647 0.00819257 0.00181435 0.00236806 0.010195 -0.00123175 -0.0103347 -0.00686512 -0.0254679 -0.0293571 -0.0336097 -0.000319536 0.00302657 -0.013239 -0.0262409 -0.0493946 -0.0318265 -0.0285967 0.0147561 0.0313404 -0.0150483 -0.0128561 -0.0171457 -0.052071 -0.0665169 -0.0501944 -0.024769 -0.00466779 0.00662073 0.00148278 0.00588096 0.00848247 0.0178374 -0.00462971 -0.0163676 -0.0213349 -0.0273901 -0.0326397 -0.0258779 0.00949484 0.00355465 -0.0212368 -0.0376976 -0.0509888 -0.0205505 -0.0192689 0.0107848 0.000816209 -0.033749 -0.00469498 -0.00867397 -0.0605982 -0.0523337 -0.0405606 -0.0244103 -0.00419436 0.00195577 0.00838502 0.0102703 0.00297784 0.0148781 -0.00542803 -0.0135709 -0.0187317 -0.0153893 -0.021508 -0.0269383 -0.00191906 -0.0111238 -0.0313052 -0.0169741 -0.0460671 -0.0494143 -0.0143838 0.0235494 0.00230853 -0.0257545 -0.023071 -0.0371774 -0.0528506 -0.0385176 -0.0286101 -0.00618078 0.00101806 0.00665183 0.00709644 0.00897226 0.00878298 0.010923 -0.0101338 -0.0193464 -0.014903 -0.00358424 -0.0300126 -0.021974 0.0196686 0.00855256 0.00123512 -0.00934992 -0.0370167 -0.0484359 -0.0161586 0.0137557 -0.0100999 -0.0243873 -0.0313079 -0.0437565 -0.0484398 -0.0195764 -0.0145848 -0.00818368 0.00097362 0.00110657 0.00523601 0.00458135 0.0053988 0.0136241 -0.0181477 -0.0428309 -0.0192987 -0.003455 -0.0382114 -0.0204595 -0.00740989 0.00814799 0.00719316 0.0144088 0.0102076 0.00205385 0.0238018 0.0261052 0.00333754 -0.0190249 -0.0303748 -0.0430287 -0.0358094 -0.0130684 -0.00498672 0.00708862 -0.0129283 -0.00324034 0.00577569 0.00993254 0.0049564 0.0143126 -0.0283814 -0.0413432 -0.0123543 0.0114808 -0.025756 -0.0360315 -0.0368171 0.0246516 0.0125932 -0.00105236 -0.0148953 0.026049 0.00903072 -0.000811942 -0.0025294 -0.0169777 -0.0143326 -0.0491935 -0.0233818 -0.0158371 -0.0169691 0.00887918 0.00217334 0.00256262 0.00455643 0.00885442 0.00708037 0.021825 0.00580562 -0.00817965 -0.0166656 -0.00190734 -0.0209279 -0.0351694 -0.0273639 -0.0211359 -0.014019 -0.0132142 -0.0197292 0.00510385 -0.0254195 -0.0224081 -0.00191688 -0.0254795 -0.0257104 -0.0225189 0.00424035 0.00542175 0.0161756 0.0290071 0.0226586 0.00897448 0.00113437 0.00522903 0.0140713 0.0278286 0.0201114 0.00642629 -0.0103809 -0.00940754 -0.0148732 -0.0310177 -0.0225288 -0.0319357 -0.0193427 -0.0324498 -0.0354189 -0.0275446 -0.0426967 -0.034188 -0.00540014 0.00271475 0.00786896 0.00595346 -0.00168682 0.00277616 0.00852971 0.0305885 0.0113409 0.0120104 0.00402132 0.00868852 -0.000208001 0.0102903 0.032703 0.0449798 0.02751 0.0129175 -0.00580797 -0.000186067 -0.00969895 0.000368833 0.0132601 0.0184567 -0.0163192 0.00722316 -0.0005861 -0.00700265 0.0219676 0.0394399 0.0459534 0.00812761 0.0323522 0.039731 0.0098035 0.0169056 0.011338 -0.00252025 0.00855811 0.00892053 0.011078 0.0268866 0.0462201 0.0373976 0.0390389 0.0568147 0.0556081 0.0411321 0.0403253 0.0479582 0.0495734 0.0612155 0.0531755 0.0440307 0.0357224 0.0317689 0.0274206 0.00720379 0.0276894 0.0432271 0.0424192 0.0389257 0.0349312 0.0331914 0.0212486 -0.00360516 0.0074261 0.00516322 0.00145206 0.0401346 0.0695279 0.0404435 0.0154799 0.0415237 0.02249 0.0166444 0.0221665 0.0520304 0.0483108 0.069962 0.0595086 0.027926 0.00353781 0.0248386 0.026653 -0.0190528 -0.0245026 -0.0259038 -0.0448485 -0.038887 -0.0146952 0.0190233 0.0232899 0.00687017 0.00680668 -0.00371134 -0.00183059 0.0342843 0.0399752 0.0140941 -0.00858673 0.0378753 0.054676 0.0240704 0.0190506 0.0402931 0.0262386 0.00258679 -0.013195 0.000239904 -0.0268188 -0.0216967 -0.030276 -0.0587364 -0.0351201 -0.053444 -0.0703375 -0.0682852 -0.0459355 -0.0212717 0.00511955 0.00519896 0.00938144 0.00296384 -0.0025926 0.00985658 0.00261934 -0.00443704 -0.00175577 0.0397219 0.0454463 0.0199525 -0.015719 -0.0300166 -0.0429531 -0.0656595 -0.0375762 -0.0515767 -0.0432395 -0.0412467 -0.0503907 -0.0603311 -0.0140407 -0.0287854 -0.0401791 -0.0305824 -0.0250169 -0.0205491 0.00263712 0.0064023 0.0102062 0.00566726 0.00113159 0.00511058 -0.00114083 -0.0417715 -0.0378478 -0.0177385 0.00146036 -0.00741275 -0.0408008 -0.042976 -0.0282967 0.0081736 0.0146781 -0.0359107 -0.0105075 -0.00257703 -0.0215199 -0.0273907 -0.00377772 -0.00773868 0.00104587 0.00592035 -0.0160644 -0.00382823 0.0195013 0.00836441 0.000516257 0.00985088 0.00329601 -0.000146314 -0.0121081 -0.0389244 -0.0458193 -0.0147607 0.0226089 0.0195081 -0.0292404 -0.0142033 -0.00254663 0.019751 0.0082619 -0.000770932 0.010717 0.030468 0.0131943 -0.00895035 -0.00147833 -0.0209103 0.000167396 0.0156011 0.00499736 0.0111829 0.0169988 0.0122988 0.000927835 0.00663942 0.0136055 0.0176242 -0.0134305 -0.0519961 -0.0452923 0.00545208 0.042911 0.0372901 0.0181012 0.0243584 0.0267922 0.0313722 0.0406053 0.0169605 -0.00097344 0.0226221 -0.00907904 -0.00998984 0.0161402 0.00887662 -0.0141336 -0.018473 0.00230129 0.0112152 0.0170467 0.00663224 0.0085567 0.00602541 0.0107908 0.020465 0.00239492 -0.0203094 -0.0194971 -0.00439065 0.0125781 0.0363116 0.0145795 0.00187956 0.00245764 0.00540119 0.0139234 -0.00774018 -0.0121087 -0.00864336 -0.0115737 0.000801207 0.00308394 -0.0193424 -0.0271174 -0.0238659 -0.0159442 0.00348124 0.0166713 0.00634226 0.00762887 0.00890144 0.0086593 0.0104923 0.0277843 0.0228733 0.027013 -0.0215139 -0.0200566 0.00354006 0.000403033 -0.0196341 -0.0116946 0.00160319 -0.00713915 -0.00302971 0.0241312 -0.00559903 0.00754832 0.0269733 -0.00687682 -0.0162276 -0.00335187 0.011547 0.0060806 -0.00592356 0.0178895 0.0031414 0.00618998 0.00185852 0.00242485 0.00860484 0.0146002 0.00161836 0.0141317 -0.00577662 -0.00886651 0.0138016 -0.0101775 -0.0344293 0.0170327 0.0195478 0.0216915 -0.00177748 0.0315126 0.0168271 0.00742238 0.00961931 0.000638353 -0.0157386 -0.0169776 -0.00540751 -0.00158775 0.000966239 0.0120667 0.00161712 0.0027976 0.00381876 0.0109311 0.0130528 0.00428708 -0.0146275 0.0129129 0.0316595 0.017126 0.00826712 -0.0175682 -0.0425543 0.00448761 0.0181209 0.0149135 0.0204677 0.0428887 0.0365501 0.00587756 0.0162349 0.0118845 -0.0143145 -0.00491308 -0.00357201 0.00318309 0.00635062 0.00609231 0.00598697 0.0057732 0.00639354 0.00207535 -0.00106831 0.000370666 0.0152662 0.0373838 0.0244633 0.0319837 0.0378925 0.0103302 -0.0108289 -0.00336614 0.00682619 -0.0108836 -0.00886835 0.0127173 0.00923827 -0.00962135 0.000105295 0.00661531 -0.00443326 -0.000279747 0.00127894 0.00963499 0.00272903 0.00281076 0.00351014 0.00134021 0.00175258 0.00956011 0.00789275 0.0125558 0.0205014 0.0205094 -0.0134838 -0.020936 0.00100271 0.00470399 0.0164099 0.0144902 -0.00204251 -0.00875539 -0.000377933 -0.00475377 -0.00717412 -0.00123019 0.00780555 0.0161372 0.0164064 0.00521077 0.00609285 0.00569546 0.00489747 0.0020765 0.00967061 0.00123711 0.00917526 0.00553262 0.00816002 0.00950018 0.00168619 -0.000153012 -0.00181182 0.0053542 0.00775097 0.00582199 0.00879118 0.0147668 0.0133187 0.00492852 0.00641497 0.00392483 0.00750895 0.00549876 0.00634171 0.00178608 0.000718954 4.63486e-06 0.00160104 0.00338796 0.0102917 0.00839148 0.00630377 0.00453608 0.00608247 0.0062887 0.000729721 0.00784689 0.00742637 0.00463918 0.00948454 0.00742268 0.00289901 0.00990293 0.00113402 0.00360825 0.00360602 0.00298969 0.00164948 0.00329897 0.00577384 0.00598226 0.00505155 0.00206186 0.00989691 0.00247423 0.00206186 0.00268041 0.000618557 0.0085567 0.00463918 0.00762887 0.00938144 0.00907216 0.00391753 0.00659794 0.000412371 0.00793814 0.00546392 0.0043299 0.000412371 0.00237113 0.00536082 0.00257732 0.00113402 0.0043299 0.00247423 0.00505158 0.00360838 0.00929122 0.00474944 0.0028866 0.0056701 0.000412371 0.0042268 0.000841254 0.00819651 0.0080542 0.000205476 0.0085567 0.00948454 0.00328878 0.000983851 0.00962367 0.00606517 0.00461348 0.000992287 0.00971776 0.00708342 0.00616237 0.00236685 0.00423834 0.00434287 0.00973055 0.0100094 0.00868346 0.00394199 0.00732145 0.00577676 0.00338031 0.00591401 0.0048392 0.00403545 0.0125237 0.00328407 0.0083809 0.0012075 0.00659794 0.00268041 0.00718705 0.00670293 0.0063896 0.00290214 -0.00401305 0.00430959 0.00382405 -0.00318989 0.00675778 0.00323132 0.00455068 0.0105626 0.0142582 0.0129231 0.000722229 0.00222194 0.0204553 0.0243586 0.000106206 0.0242341 0.0351681 0.0327781 0.0413493 0.0298851 0.00192922 0.00614018 0.0071134 0.00505182 0.00136435 -5.18408e-05 -0.00120245 -0.0128126 -0.00478003 -0.00252379 0.0102976 -0.000100322 -0.00344297 -0.00360086 -0.00120462 -0.00313396 -0.00431965 -0.0231982 -0.0456315 -0.00137268 0.0202227 -0.0112474 0.00168239 0.0132304 0.0109262 -0.00252621 0.00537608 0.0183 0.0071412 0.0139179 0.00814444 0.0029881 0.00367001 0.00296477 -0.000480455 -0.0188738 -0.0151884 -0.0208668 -0.0175227 -0.0213534 -0.000128355 0.00427468 -8.59011e-05 -0.0192732 -0.0197902 -0.0110394 -0.0270133 -0.00129962 -0.000860692 0.00211837 0.0204306 0.032045 0.00364172 -0.00725185 0.00844934 0.0341076 0.0264888 0.016554 0.00752765 0.00336892 0.0050145 -0.00476187 -0.00407847 -0.00580109 -0.00964813 -0.0203197 -0.0285896 -0.0204653 -0.000411203 0.000973477 -0.00103822 -0.0191856 -0.0177368 -0.00655979 0.00349902 0.0111364 0.0107795 0.0273593 0.0444579 0.0337526 0.013989 0.0297023 0.0308949 0.0402772 0.0368031 0.00847793 0.00505431 0.0107103 0.0106411 -0.00178021 -0.00167217 -0.00476803 -0.0189379 -0.0141811 -0.0154071 0.00084137 0.0121586 -0.00706027 -0.0204697 -0.0321721 -0.0320743 -0.00619637 0.0187493 0.0163489 0.00598448 0.0285154 0.0343574 -0.00802592 -0.00204538 0.0217994 0.0164777 0.0200754 0.0304996 0.00578707 0.00607737 0.00556811 0.011057 0.00252916 0.000678676 -0.0147154 -0.0210767 -0.0209818 -0.00347742 0.015235 0.025601 0.00537177 -0.009044 -0.0248864 -0.0173927 -0.00738167 0.014974 -0.00641009 -0.0219994 0.00940177 0.0114351 4.16476e-06 0.0197819 0.0154932 0.0253788 0.0252475 0.0163687 0.0056653 0.008218 0.00618644 0.00673355 0.0155843 0.00354376 -0.0247189 -0.0248327 -0.0228928 -0.0141951 0.00533232 -0.00672231 0.015305 0.0125958 -0.0274789 -0.0155445 -0.00678284 -0.00736503 -0.0437304 -0.036169 -0.0213845 0.0119624 0.00875862 0.0128766 0.00597954 0.0205899 0.027232 0.0163657 0.00782979 0.00359816 0.000824415 0.0122229 0.00458796 -0.0119721 -0.0256318 -0.0263253 -0.0326602 -0.0235852 -0.0264486 -0.0136332 -0.0174134 -0.0301558 -0.0353914 -0.0170567 -0.001167 -0.0246891 -0.0419142 -0.0263613 0.0143222 0.0363159 0.00115592 -0.00239095 0.00316534 0.0243442 0.0186626 0.0054473 0.00727751 0.00598439 0.00855146 0.000669584 -0.0089043 -0.0151416 -0.0314569 -0.0418458 -0.0418095 -0.0438618 -0.0480805 -0.0268986 -0.0279357 -0.0243996 -0.020045 -0.0353735 -0.0158965 -0.0437699 -0.0320075 0.00567112 0.00866751 0.00954371 0.0099736 0.0151407 0.0252956 0.0181697 0.00593755 -0.00569779 -0.000493073 0.00329904 0.0076906 0.00268479 -0.00320035 -0.0134002 -0.0223225 -0.0390832 -0.051952 -0.044066 -0.0489809 -0.0304507 -0.0106173 0.002639 -0.0110129 -0.040671 -0.0352721 -0.0186867 -0.0131003 -0.00663498 -0.025822 -0.00828776 -0.0183581 0.00916493 -0.00732258 -0.00200946 0.00336904 -0.00402648 0.000247511 0.00731959 0.00801011 0.00128504 -0.00561394 -0.0141664 -0.0250897 -0.0413395 -0.0573109 -0.0587793 -0.0590811 -0.024266 0.000949527 0.00165875 -0.0195818 -0.0427891 -0.0585596 -0.0256963 -0.0211612 -0.0462634 -0.0582579 -0.00997281 -0.0170298 -0.0128575 -0.0194769 -0.0275247 -0.0224084 -0.01221 -0.000651824 0.0085567 0.00923599 0.00130949 -0.00799756 -0.0102202 -0.0218299 -0.0391137 -0.0387083 -0.0679404 -0.0398435 -0.0162739 -0.0148397 -0.00860199 -0.00607465 -0.0273096 -0.0300368 -0.012701 -0.0414472 -0.0399986 -0.0113954 0.000606808 -0.00100006 0.00887817 -0.00323261 -0.0133896 -0.0175925 0.00294139 0.00340326 0.00691163 0.00261184 0.00540151 0.0030059 -0.0139777 -0.0178523 -0.0326002 -0.0205406 -0.0328649 -0.0319656 -0.015136 -0.0123839 0.00765225 0.0275247 0.0404442 0.0411723 0.0287714 0.00470433 0.0121936 0.0152583 0.0108678 0.00399402 0.00955716 0.0251139 0.0331735 0.00298915 0.026258 0.00922157 0.00608663 0.00672113 0.00732526 -0.00671552 -0.0297135 -0.0267162 -0.0227199 -0.0188764 0.00866918 -0.00629309 -0.00979274 0.0059865 0.0242252 0.0581817 0.0373702 0.0550729 0.0735462 0.0329962 0.0324288 0.0480879 0.0487583 0.0411524 0.0427031 0.035244 0.0462955 0.0334702 0.0348991 0.00730027 0.00845361 0.00269337 -0.000581637 -0.00632664 -0.0366316 -0.0414233 -0.025131 -0.0164228 -0.0113394 -0.0106024 0.0231578 0.0243223 0.0457084 0.0461026 0.0436579 0.0640155 0.0389226 0.0116509 0.0445842 0.0459328 0.0454308 0.0133407 0.0276698 0.0307852 0.0519955 0.0424122 0.0235149 0.00960744 0.00762887 0.00355932 0.00432822 -0.00385609 -0.0309474 -0.0260639 -0.00505073 0.00269488 -0.00384625 -0.00583669 0.0024441 0.0288808 0.00440516 -0.0250625 -0.0208162 0.0226079 0.0112195 0.0239373 0.0336072 0.033003 0.0356525 -0.00281123 0.0168768 0.00299472 0.0293708 0.0308126 0.020014 0.0148175 0.00845455 0.00506416 0.00676821 0.000967382 -0.000926024 0.00852286 0.00781843 -0.011846 0.00897151 -0.00544694 -0.0132391 -0.0381083 -0.0541191 -0.0472095 -0.0165299 -0.01365 -0.00934843 -0.00683077 0.00422477 0.0212393 0.0126187 0.00834725 0.00934711 0.00465372 0.0158689 0.0152529 0.0149069 0.0126078 0.00154639 0.00985501 0.00372227 0.0100025 0.0126046 0.0095817 -0.00818644 -0.0077971 -0.0136763 -0.018297 -0.0237281 -0.0560209 -0.0587084 -0.0258276 -0.000291838 0.00422987 0.0106477 0.00950723 0.0411396 0.0309215 0.0098606 0.0158374 0.00658288 -0.00813575 0.0146848 0.000797337 0.0097152 0.0113103 0.00793814 0.00150388 0.0010492 0.0203401 0.0240502 0.00622692 -0.0140377 -0.0169926 -0.012882 -0.0109239 -0.0259955 -0.0261467 -0.00351512 0.0059253 -0.00545232 -0.00617885 0.00714461 0.0291241 0.0156494 0.0134324 0.00455238 -0.000846607 -0.00407474 -0.00712571 0.0163602 0.00972879 0.0158708 0.000657386 0 0.00735219 0.0107272 0.0114664 0.0206868 0.0111441 -0.0210843 -0.00985969 0.00472377 0.00152217 -0.00977727 -0.0165028 0.0176804 0.0121502 -0.0107992 -0.0276246 -0.00670362 0.013542 -0.0130791 -0.0264638 -0.00193933 0.00752209 0.00216909 -0.00226466 0.00291705 0.0182047 0.0138438 0.00884096 0.00992616 0.00854216 0.00927398 0.0237082 0.0231297 -0.0102732 -0.0116742 0.0010064 -0.00625731 -0.000210924 -0.00983397 -0.028023 -0.0140566 -0.00133454 -0.00568694 -0.0145976 -0.00435615 0.0239325 -0.0265876 -0.0474199 -0.0253815 0.00529509 -0.00396145 -0.0123422 -0.00583045 0.005595 0.0170182 0.00867484 0.000286075 0.00834314 0.0107606 0.023617 0.00495124 -0.0161592 -0.00309141 -0.0056363 -0.0187014 -0.0268928 -0.0365297 -0.0393866 -0.032896 -0.0011774 0.00813846 0.0135475 0.0341692 0.0196326 -0.0146291 -0.00502569 0.0145709 0.0228463 0.00460056 0.00355505 0.00302733 0.0147804 0.00947086 0.0080988 0.00329897 0.00875962 0.00902514 0.00858238 -0.00180941 -0.0107752 -0.00940845 -0.0162055 -0.0241296 -0.0143965 -0.0140221 -0.0143623 -0.019714 -0.00551896 -0.00284357 0.0219842 0.0215727 -0.0059182 -0.0159404 -0.00926459 0.0222873 -0.00535505 -0.00176345 0.00275879 0.00170136 0.013335 0.00568734 0.00206416 0.00731959 0.00453608 0.0073908 0.0207948 0.0152611 0.0154347 0.0151867 0.0052948 -0.00457182 -0.0199667 -0.00919233 -0.00873116 -0.00065204 -0.00867899 0.00294775 0.0122324 0.0146421 -0.0141601 -0.0199103 -0.00877796 0.00202552 0.00959025 0.00649684 -0.000783009 0.000207593 0.00717442 0.0160702 0.0083716 0.00896907 0.00958763 0.00528698 0.0106164 0.00956952 0.00945651 0.00934905 0.00425761 0.00201998 0.00366014 -0.00181031 7.14718e-05 0.00934765 0.00485369 0.00840762 0.00638315 0.00717775 -0.00182165 0.00396303 -0.00167991 -8.62265e-05 0.00999894 0.0038457 0.00639837 0.00898571 0.00380865 0.00646984 0.00585982 0.000721649 0.00505155 0.00938073 0.00604221 0.00831226 0.00368891 0.00195876 0.00721649 0.00814433 0.0025779 0.00195837 0.000927835 0.000103093 0.00319573 0.00247423 0.000721649 0.00257732 0.000109137 0.00858575 0.0071134 0.00907216 0.00659794 0.00649485 0.00247423 0.00350515 0.00721649 0.00525773 0.01 0.00247423 0.00113402 0.00690722 0.00670103 0.00412371 0.00814433 0.0056701 0.0028866 0.00628866 0.00329897 0.00278351 0.00618557 0.00402062 0.00680412 0.00381443 0.00494845 0.00495031 0.000419214 0.00496158 0.00670832 0.00216495 0.00340206 0.00773196 0.0042268 0.00145403 0.00486445 0.00640292 0.0055671 0.00783505 0.00556701 0.00597789 0.00197842 0.00753422 0.00780943 0.00591736 0.000838227 0.00374938 0.00600678 0.00208169 0.00196219 0.000946733 0.0105208 0.00384703 -6.12965e-05 0.00273113 0.0114469 0.00588502 0.0110427 -0.000599749 -0.00117589 0.00532151 0.00271911 0.00685904 0.00736347 0.00909408 0.00587411 0.00814433 0.0085567 0.00893684 0.00186821 0.00253637 -0.00373439 0.00140023 -0.00205139 -0.00280064 -0.0101117 0.00153963 0.00744852 -0.00868699 -0.000655342 0.00441711 0.00455041 0.0277266 0.0346053 0.0224188 0.0209295 0.0205379 0.000878804 -0.00508696 0.0101481 0.00560703 0.000406489 0.00213839 0.00760297 0.00453608 0.000309144 0.00467766 -0.000353756 -0.0116441 -0.0200141 -0.0151861 -0.0190499 -0.0187743 -0.0104177 -0.0148631 -0.00778558 -0.00984585 -0.0246202 -0.01587 -0.00672461 0.00438421 0.0124171 0.0130279 0.0280587 0.0451701 0.0214483 0.00307269 -0.00378793 -0.00308909 -0.0102571 0.00458499 0.00747027 0.0021531 0.00216372 0.0051805 0.00801816 0.00235692 -0.00854508 -0.0246153 -0.031941 -0.0165627 -0.0137107 -0.0178303 0.0011413 -0.0140907 -0.0540661 -0.0446525 -0.0507936 -0.0337465 -0.0187414 -0.000100807 0.01997 0.0387678 0.0285981 0.00695765 0.00170989 -0.0230818 -0.0181365 0.00495245 0.00699768 0.00235213 0.00571507 0.00808262 0.0044268 -0.00727669 -0.0227169 -0.0313273 -0.0393735 -0.0161932 -0.00293664 -0.0108739 -0.00657395 -0.0248459 -0.0410195 -0.0399557 -0.0523486 -0.0402295 -0.00968987 0.0056978 0.0169858 0.0115609 0.0087497 -0.00728924 -0.00833642 -0.0312083 -0.0116124 -0.00721815 0.0113084 0.00637472 0.00353859 0.00515905 -0.000584145 -0.0119314 -0.0225586 -0.029583 -0.0281672 0.00118976 0.00623934 -0.000966009 -0.00248269 -0.0279359 -0.0467321 -0.0465295 -0.0269167 -0.0270385 -0.0190199 -0.0124553 0.0274584 0.0127092 0.00803124 -0.0235219 -0.0244805 -0.0478863 -0.0238084 -0.00919918 0.00612094 0.00567238 0.00255585 0.00654228 -0.0081419 -0.018322 -0.0283341 -0.0307298 -0.0205649 0.00423547 -0.0103818 -0.0223855 -0.0187258 -0.0299322 -0.047267 -0.0322131 -0.0324861 -0.0108789 -0.00958594 -0.0121055 -0.0047987 -0.0129233 -0.00856417 -0.0183559 -0.0355969 -0.0218699 -0.0113679 0.00372336 0.00547938 0.00389759 0.00345161 0.0106029 -0.00285605 -0.0134718 -0.0270455 -0.0376163 -0.0270962 -0.013752 -0.022509 -0.025777 -0.0270416 -0.0255722 -0.0189492 -0.014072 -0.0126234 0.0138835 0.00790869 0.0034739 -0.019081 -0.0260785 -0.000596864 -0.0311464 -0.0280553 0.00213965 -0.00772923 0.000240332 0.0017323 0.00144717 0.00360788 0.0111598 0.00162331 -0.0141109 -0.0363182 -0.0396783 -0.0149276 -0.0198042 -0.0275541 -0.0126372 -0.0173827 -0.0159983 -0.0131157 0.0121263 0.0176765 0.0166536 0.0046523 0.00855264 0.00507099 -0.00352667 0.0130409 -0.00491315 -0.0158259 -0.00529674 -0.017636 -0.00615992 0.00864164 0.00556424 0.00343765 -0.00112246 -0.00398027 -0.0176366 -0.0415476 -0.0353892 -0.0109013 -0.0244914 -0.0282497 -0.0164404 -0.00444537 0.00201914 0.0112401 0.00888377 0.00538187 0.00116554 0.01042 0.0110496 0.0095319 0.0221868 0.0338922 0.000457475 -0.0277676 -0.0239403 -0.00991765 -0.00397 0.00198676 0.0092783 0.000442267 0.00721483 -0.00958082 -0.0211771 -0.0346412 -0.0389722 -0.0232345 -0.0331842 -0.0163005 0.000543161 0.0189438 0.0101798 -0.00345766 -0.0138526 -0.00791359 -0.0073469 0.00865262 -0.0231906 -0.0207323 0.00795547 0.0134487 0.0140123 -0.0310695 -0.0382758 -0.0177192 -0.00408307 0.00552029 0.00185567 0.00481443 0.00681669 -0.00251713 -0.01079 -0.0225577 -0.0227934 -0.00525887 -0.0162587 -0.00925104 -0.00886226 -0.00599947 -0.00916916 -0.0180801 -0.0233643 -0.00361797 -0.000967519 -0.00618195 -0.0379433 -0.0261653 0.00140616 0.0050681 0.00661624 -0.0402499 -0.0359509 -0.0098814 0.00118751 0.00204278 0.00474227 0.00454446 0.00146388 0.000856966 -0.0123445 -0.0150012 -0.00492794 -0.00235629 -0.00644145 -0.0216728 -0.0021159 -0.00391683 -0.0116327 0.00822666 -0.00929403 -0.0149232 0.00919052 -0.0199227 -0.0440393 -0.0253772 0.00706343 0.0157761 -0.00261201 -0.0308257 -0.0303019 -0.00926116 0.00356748 0.00352126 0.00391645 0.00552003 0.00273225 -0.000500323 -0.00764991 -0.0168599 -0.00175017 0.0050635 -0.000202779 0.001345 -0.00759434 -0.012922 -0.0300177 -0.0270115 -0.00665303 -0.0116364 0.0170934 0.0032162 -0.00823554 -0.0156025 -0.00212638 0.0212589 -0.00189672 -0.0362459 -0.0383707 -0.00331552 0.00547833 0.002413 0.0098959 0.00518292 0.00175536 -0.00594016 -0.0196507 -0.00878721 0.00789612 0.0142275 0.0176057 0.0178978 -0.0154135 -0.0172856 -0.0207283 -0.021465 0.00919448 0.0281433 0.0218878 0.00138198 0.00488931 -0.018181 0.000932482 0.0109014 -0.004779 -0.0208928 -0.0248791 -0.0167243 -0.0034072 0.00408578 0.00237113 0.00234363 0.00588778 -0.00138065 -0.0192648 0.00554202 0.0308485 0.0312829 0.0448345 0.00232868 -0.0336664 -0.0111972 -0.00588838 -0.0392852 -0.0197425 0.02814 0.0160875 0.0292527 0.029109 0.00599842 0.0200625 -0.000401825 -0.0132531 -0.0339858 -0.0234192 -0.0177479 -0.00322608 0.00484016 0.00804124 0.00583087 0.00381004 0.00450218 -0.0141422 0.00781662 0.0414817 0.0286237 0.067295 -0.0019672 -0.0456042 -0.0345173 -0.0204847 -0.0173753 -0.0202917 0.0236047 0.0355893 0.0404669 0.0535925 0.0289137 0.0236791 0.00897312 -0.0115633 -0.0248205 -0.0194004 -0.015164 -0.00274552 0.00703617 0.000617363 0.00939551 0.00949097 0.00501254 -0.00856712 -0.00177152 0.0216802 0.0445185 0.0694975 -0.00600473 -0.054189 -0.0592377 -0.0249492 -0.0107441 -0.0417483 0.00350125 0.02565 0.0179474 0.0462606 0.0311115 0.0405667 0.0105741 -0.0133269 0.000825904 -0.00490398 -0.00040364 0.000305556 0.00170615 0.00742268 0.0026483 0.00065058 0.00125769 -0.0203058 -0.0207592 -0.000383614 0.0299084 0.0474499 -0.0145657 -0.0299485 -0.0123321 -0.0146082 -0.0178936 -0.00745063 -0.00734454 0.0238624 0.0116566 0.0417229 0.00804763 0.0257062 0.0226778 -0.0108211 0.0135706 0.0056387 -0.00538036 -0.00132109 0.00898633 0.00969072 0.00301024 -0.000709824 -0.000890989 -0.0218234 -0.0104745 0.0168679 0.0186759 0.0207279 0.00227411 0.00912319 0.00805095 -0.00473665 0.00811645 -0.0175004 -0.0193669 -0.00243122 0.0116247 0.058598 0.0328299 0.0270443 0.0106268 -0.0271065 0.00461763 0.00649695 -0.00390942 -0.00187791 0.00590497 0.0085567 0.0030192 0.00704429 0.00135073 -0.00846235 -0.0249582 0.0148427 0.016483 0.0302649 0.0150244 0.0327022 0.0307272 0.0341995 0.0289713 0.0125802 0.021888 0.0219525 0.0030197 0.0175083 0.0416672 0.0261158 0.015783 0.012988 -0.0166384 -0.0198315 -0.00721714 0.00600182 0.00935941 0.00232028 0.00589066 -0.00164558 -0.00480842 -0.0199525 -0.0324996 -0.0015558 0.00947155 0.0132416 0.0225628 0.0363 0.0314707 0.0137572 -0.0171212 -0.0138168 -0.0122902 -0.0213838 -0.0248236 0.000605616 0.0310853 0.0339061 0.0325423 0.0326633 -0.0002478 -0.00802632 0.00884279 0.00641337 0.0073807 0.00920915 0.00237562 0.00847597 0.00552058 0.00106103 -0.0306724 -0.0196584 -0.0152806 -0.0163646 -0.00581002 -0.00569679 -0.00347553 -0.0167223 -0.0238499 -0.0144568 -0.0155952 -0.00794821 0.00778641 0.0310952 0.0230067 0.0277696 0.0379294 0.0275242 0.0105911 0.00302187 0.00296279 0.00710843 0.0101926 0.00257732 0.00876478 0.00791243 0.00586413 -0.0026732 -0.0356873 -0.0393037 -0.0306914 -0.0367032 -0.0155706 -0.0223895 -0.0240715 -0.0194998 -0.00430387 -0.00241704 -0.013675 -0.00473785 0.0144736 0.0410923 0.0176989 0.0279649 0.0378899 0.0256216 0.00853642 0.0020253 -0.00326531 -0.0116508 0.00280203 0.00969072 0.00783505 0.0101294 0.00010576 -0.00322543 -0.0138366 -0.0146172 -0.00938675 -0.000881396 -0.00477226 -0.00909578 -0.00277826 0.0107106 0.0290326 0.0145508 -0.0220197 0.010545 0.0166462 0.0229959 0.0190906 0.0305129 0.0177346 0.00630575 -0.00837584 -0.000859107 -0.0046265 0.00156651 0.00212476 0.0028866 0.00752577 0.00556162 0.000880287 0.00263009 0.00315676 0.00812714 0.00355764 0.00524619 0.00576761 0.00580062 0.00391679 0.0089945 0.0110551 0.0101202 0.00239223 0.00666879 0.0112519 0.00844598 0.00290171 0.00377326 0.00882419 0.00179917 0.00515217 0.00345871 0.00517411 0.00123926 0.00604356 0.00484536 0.00835052 0.0084537 0.000636323 0.00919496 0.00866394 0.000309278 0.00618557 0.00639175 0.00330695 0.00949044 0.00443299 0.00649485 0.00237069 0.00113402 0.00412371 0.00948454 0.00443913 0.00724367 0.00195876 0.00505155 0.00123711 0.00783505 0.00463918 0.00886598 0.0057732 0.000309278 0.00659794 0.0101031 0.000824742 0.00804124 0.00391753 0.00237113 0.000515464 0.00113402 0.00958763 0.00175258 0.00443299 0.00278351 0.0014433 0.00927835 0.00164948 0.000103093 0.00402062 0.00452971 0.00368792 0.00122098 0.00762586 0.00340206 0.00412371 0.000103093 0.0085567 0.00358086 0.00283788 0.00337355 0.00381421 0.00350515 0.00793814 0.00731996 0.0023359 0.00659909 0.0061404 0.00405587 0.00679668 0.00813698 0.00513065 0.00752141 0.00984051 0.00309504 0.00625946 0.00818339 0.00184448 0.00191119 0.000844681 0.0038133 0.00712501 0.0063108 0.00081894 0.0097203 0.00353823 0.00808452 -0.000129327 0.00384739 0.00972317 0.00907216 0.00659794 0.00747844 0.00516213 0.00465778 0.0031556 0.00547266 0.0056182 0.000862224 0.00200538 0.0081839 0.0083696 0.00840322 0.00753443 0.00552794 0.0100827 0.0151578 0.0167973 0.0117806 0.0119028 0.0160021 0.0120496 0.0160205 0.00882329 0.0105907 0.00482504 0.00479846 0.00146581 0.0056701 0.0092783 0.00435649 0.00754184 -0.000114148 0.00176406 -0.00395551 0.00108232 0.0103095 0.00376659 -0.00100494 0.00292328 0.0124987 0.00526057 0.00524009 0.00761724 0.00540901 0.00833134 0.0121309 0.0138938 0.0163938 0.0206062 0.0194852 0.0190303 0.00978549 0.00392318 0.001821 0.00999725 0.00630485 0.00701714 0.00736566 0.00297156 0.00399964 0.0019463 0.00158514 0.00995486 0.0103033 0.0129853 0.00848705 0.00331619 0.0034725 0.00825057 -0.000701142 0.00448097 0.00933953 0.0100925 0.00487258 0.00592548 0.0150574 0.0134117 0.0210851 0.0235205 0.0223601 0.0137823 0.0039265 0.00154432 0.00692668 0.00631104 0.00601968 0.000332254 0.00539492 0.00494826 0.000630767 0.00800489 0.0104228 0.00993949 0.00509439 -0.000217198 0.00558949 -0.00456532 0.00737672 0.0124477 0.0079153 0.000668473 -0.00168024 0.00545317 0.00358346 0.00560675 0.00468917 0.00686319 0.026912 0.0153563 0.0112524 0.00998968 0.00197233 0.00341907 0.000282781 -0.00233061 0.000365512 0.00341673 0.00657646 0.00100543 0.00256093 0.00724271 0.00207668 -0.00780207 0.00426997 -1.04885e-05 0.00372112 0.0105208 0.00567515 0.00514457 0.00552785 -0.00162764 0.00777095 -0.00418115 -0.0089939 -0.00518796 0.0153813 0.0147764 0.0082885 0.00998373 0.006395 0.00613201 0.00483558 -0.00595979 -0.00667233 4.16919e-05 -0.00210949 -5.89118e-05 -0.00367702 0.00637699 -0.00359221 0.00113883 0.00818773 0.0037137 0.0097473 0.000213244 0.0053008 0.00278821 -0.0120729 -0.00594184 -0.00146848 -0.0123162 -0.0162492 -0.00673262 0.00448832 0.0134245 0.0123381 0.00529985 0.00875784 0.00529255 0.00714209 0.00442158 -0.00361512 -0.00370091 -0.00901979 -0.00581578 0.000821602 0.00550959 -0.00609878 0.00241807 0.000774276 0.0103443 0.0148308 0.00943791 0.00672932 -0.00926303 -0.0179518 -0.0126669 -0.0172977 -0.0147777 -0.00971092 0.000275543 -0.00300548 0.0136652 0.0136904 0.00757398 0.00906851 0.00252629 0.00859596 -0.00175339 -0.00852646 -0.00982029 -0.00268678 -0.0039693 -0.00312764 -0.00444356 -0.00583942 0.00314949 0.00800897 0.0122919 0.0144315 0.0187577 -0.0039129 -0.0072006 -0.0167398 -0.0171875 -0.00690825 -0.00621032 -0.00343834 -0.00411785 0.00517307 0.0092384 0.0121428 0.00737639 0.00958778 0.00299153 0.000436579 0.00220062 0.00101097 -0.00452543 -0.0100371 -0.0127964 -0.0128297 -0.0029059 -0.00248325 0.00952702 0.00550583 0.0111453 0.00405701 0.00808477 0.0051649 -0.00787462 -0.00403005 -0.0134053 -0.00406937 -0.0136287 -0.0133722 -0.000671653 0.00839127 0.00258928 0.00612768 0.00376903 0.000206188 0.00200558 0.00601096 0.00986551 0.00396963 -0.00697394 -0.0131731 -0.0186017 -0.00998892 -0.000527922 0.00341496 0.00522426 0.00157261 -0.00262747 -0.00202545 0.0100321 0.00539477 0.00380886 -0.0100041 -0.0155025 -0.006017 -0.00422536 -0.00575657 0.00495105 0.00610766 -6.97803e-05 0.00181209 0.00217337 0.00917525 0.00591764 0.00869286 0.00369687 -0.000181094 -0.00431612 -0.0134052 -0.0110851 -0.0070352 0.000372777 -0.00433861 -0.00193373 -0.00436755 -0.0054083 0.00164315 0.00808519 0.00408394 0.00952356 -0.00372754 -0.0138056 0.000430069 -0.00121966 0.00844891 0.00325112 0.0011701 0.00149155 0.00971992 0.00490515 0.00742267 0.00215627 0.00456723 0.00881598 0.00743986 -0.00182284 -0.0135386 -0.00139095 -0.0062933 -0.00441971 -0.0094586 -0.00463912 -0.00193379 -0.0100598 -0.0159238 -0.00713419 -0.00351854 0.00675015 -0.00584218 -0.000481666 -0.00486626 0.000724281 -0.005811 0.0073944 -0.00366804 -0.00310161 0.00401924 0.00566625 0.00535956 0.00129353 0.00529323 0.00187885 0.00866979 0.0034742 -0.00250456 -0.00149824 0.000662482 -0.00184887 -0.00943308 -0.00578046 -0.0130648 -0.0122324 -0.0210656 -0.0191737 -0.0101738 -0.0036697 -0.00504161 0.00224779 0.000197399 -0.00126558 -0.0114457 -0.00935913 -0.00547727 -0.00362882 0.00234214 0.00678183 0.00546274 0.000860626 0.00183656 0.00761034 0.0101896 0.00298596 -0.0012074 0.00561012 -0.00626507 -0.00944124 -0.00847854 -0.0123521 -0.0135245 -0.0124638 -0.0110551 -0.0131792 -0.00388583 -0.00961317 0.00109871 0.00407029 0.00413194 -0.000310948 -0.0141491 -0.000762731 -0.00576383 0.00738145 -0.000823845 0.00188441 0.00536082 0.00055454 0.00594347 0.00429171 0.00683605 0.00287179 -0.00537678 -0.00220976 -0.00743097 -0.00871164 -0.0178242 -0.0143541 -0.015316 -0.0135473 -0.0142639 -0.0109403 -0.00547033 -0.006973 -0.00463176 -0.00148662 0.00585714 -0.000609994 -0.0114944 0.00125257 0.000830078 0.00870444 0.00391303 0.00831421 0.00298969 0.00626627 0.00404257 0.0120178 0.0139221 0.00563225 -0.00306523 -0.00620644 -0.0157141 -0.01575 -0.0173912 -0.0119057 -0.00688086 -0.00697531 -0.0104292 -0.00471129 0.000828139 -0.00477551 -0.00119519 -0.00691186 -0.00608297 -0.00364575 -0.00690697 -0.000115826 0.00420443 0.00653952 0.00644465 0.00476206 0.00979318 0.00194108 0.00688944 0.00897624 0.0142005 0.0102049 -0.00430763 -0.00862014 -0.00499019 -0.015976 -0.00949869 -0.00217638 -0.000901056 -0.00553061 -0.00324471 -0.00246448 0.00570583 0.00267726 -0.0065929 -0.00842609 -0.0156916 -0.000520957 -0.00270196 -0.00268184 -0.00110092 0.00820094 0.00798276 0.00458746 0.00628866 0.00212594 0.00289639 0.0176159 0.0194624 0.00936615 -0.00157475 -0.0157515 -0.0101761 -0.00842601 -0.013707 -0.00291642 0.00131235 -0.000665853 0.00151224 0.00588927 0.00254032 0.000209276 -0.00612194 -0.00537647 -0.00488387 0.00545455 -0.00495439 -0.00159851 -0.000745099 0.000551455 0.0120979 0.00391346 0.000927835 0.00655748 0.00493193 0.0184899 0.0157178 0.00671592 -0.00520067 -0.0124176 -0.0197028 -0.0126224 -0.00613921 -0.00137254 0.00438493 0.000941811 0.00952506 3.84594e-05 -0.00299153 -0.00755717 -0.0134596 -0.00498851 -0.000948136 0.00304394 0.000764344 -0.00297302 -0.00220509 0.00331405 0.00629276 0.00468054 0.0102062 0.0063762 0.0105101 0.0135344 0.00999926 0.00289758 -0.000400856 -0.00542316 -0.00729607 -0.00981622 0.00125661 0.00204933 0.000783845 -0.000741192 0.00578314 0.0059048 0.000785392 -0.0073845 -0.00824239 -0.00812069 0.00934297 0.0114946 -0.00231417 0.00242858 0.00889881 0.00840223 0.013073 0.00863548 0.000549016 0.00185439 0.00409082 0.00839426 0.00984494 0.0109716 0.0157631 0.0122905 0.00802765 -0.0113624 -0.00521806 0.000316659 -0.00347789 -0.0032225 -0.0100416 -0.00748482 -0.0105771 -0.0107023 -0.00332109 0.00386117 0.00889849 0.00882793 0.0121448 0.0114144 0.00733067 0.00674344 0.00454782 0.00946671 0.00184655 -4.39834e-07 0.00477011 0.00386269 0.00872915 0.0135744 0.00177655 0.0183708 0.025887 0.0168675 0.00199476 -0.00295721 -0.00295451 0.00343907 -0.0123261 -0.00701985 -0.00133012 -0.0019186 0.00836953 0.00979296 0.0137255 0.00850026 0.0104387 0.00456646 0.00368025 -0.000603566 0.00148361 0.00322449 0.00360825 0.00546373 0.000876427 0.00529933 0.00325657 0.000848608 -6.20127e-05 -0.000134033 0.00810169 0.00564379 0.00576303 0.00172751 -0.0019435 0.0060024 -0.00360794 -0.000235886 0.00246671 -2.58296e-05 0.00529941 0.007239 0.00273569 -0.0067902 0.000708866 0.00113947 -7.72134e-05 0.00623893 0.0103941 0.000253856 0.00618557 0.00659794 0.0042953 0.00740503 -0.00126218 0.00284382 -0.00261066 -0.00461219 -0.00170465 0.000713037 0.00341119 0.00558838 0.0137701 0.00963824 0.0164561 0.010566 0.015554 0.0078048 0.00404429 0.000536437 0.000357837 -0.0016234 0.00646667 0.00503361 0.00550232 0.0113894 0.00613305 0.00564829 0.00659794 0.00381443 0.00597185 0.000904515 0.00150927 0.0009516 0.00425782 0.00882948 0.003612 0.00951436 0.00895279 0.0105701 0.00897363 0.0073899 0.0114462 0.00519384 0.00400587 0.0101432 0.00610865 0.00591648 0.00584769 0.00718698 0.00425913 0.00909016 0.00463644 0.00294192 0.00989758 0.00608505 0.00247423 0.0102062 0.00546369 5.77404e-05 0.00417898 0.000403334 0.00298969 0.00154639 0.00670103 0.00513319 0.00329422 0.0085567 0.00195876 0.00989724 0.00402062 0.00804124 0.00391753 0.00422528 0.000302499 0.000618557 0.00206186 0.00721649 0.00505155 0.000515464 0.00247423 0.00804124 0.00896907 0.00865979 0.00298969 0.00402062 0.0101031 0.00752577 0.00391753 0.00154639 0.000206186 0.0042268 0.00876289 0.00649485 0.00113402 0.00680412 0.00278351 0.0085567 0.00309278 0.00670103 0.00845025 0.00844126 0.00321922 0.00360843 0.00927835 0.00123711 0.0057732 0.000206186 0.00479691 0.00107066 0.00252266 0.00999876 0.00659794 0.00154639 0.00958796 0.000687671 0.00392882 0.00231079 0.00432725 0.00287536 0.00644215 0.00774344 0.00211697 -9.67854e-06 0.00485409 0.00846436 0.00278133 0.00421158 0.0059586 0.00463032 0.00179903 0.00642559 -0.00220706 0.00334152 0.00095321 0.0086848 0.00798267 0.000266228 0.00362479 -0.000131979 0.00721649 0.00402062 0.00593448 0.00949185 0.0120856 0.0273314 0.0235972 0.00170804 -0.00398263 -0.00358641 -0.00544184 -0.00886024 0.00835525 0.00853465 0.0202772 0.0200396 0.0146244 0.0150154 0.00950549 -0.00623338 -0.00724372 -0.00821879 -0.00180097 0.00437081 0.00845929 0.00389406 0.0155049 0.000276826 0.000721649 0.00979377 0.00277544 0.0162826 0.00916676 0.0396979 0.0343968 -0.0139072 -0.0103728 -0.0135099 -0.0174446 -0.0131781 -0.00524876 -0.00822453 -0.00363578 0.00179579 0.0163423 0.00887056 0.00862096 -0.00139169 -0.0154396 -0.0100651 -0.00138071 0.00858648 0.00809494 0.0126431 0.00923505 0.00447996 0.000937107 0.00849592 0.0100152 0.0162377 0.011607 0.0417491 0.0353105 -0.00316433 0.00208076 0.00519672 -0.000389407 -0.0133882 -0.0203242 -0.0175704 -0.012412 -0.00981804 -0.00225414 0.00571719 0.0152299 0.00952058 -0.00682804 -0.00302708 0.00964623 -0.00232995 -0.00214992 0.00404443 0.00137925 0.00390325 0.00121499 0.0103026 0.00408582 0.0172178 0.0179222 0.0325322 0.0315437 0.0194107 0.00285028 0.00889 0.00266511 -0.00292654 -0.0222602 -0.0243756 -0.0184257 -0.0159883 -0.0048759 -0.000893545 0.0106585 0.00975083 0.00188425 -0.00123134 0.000368921 -0.000393055 0.00592205 0.0192654 0.00300876 0.00096357 0.000657395 0.00351839 0.00368365 0.0181143 0.0170178 0.0221452 0.0301578 0.0203602 0.0102438 0.00510793 0.000677776 -0.0070429 -0.0246691 -0.0183186 -0.0225588 -0.01883 -0.0145782 -0.00774143 0.00628042 0.0138568 0.0103111 -0.000757337 0.00998142 0.0130274 0.0116996 0.0174365 0.00466307 -0.00116177 0.0073814 0.00521872 0.00925588 0.0197579 0.0215419 0.0129487 0.0240333 0.0218639 0.00661623 0.00277936 -0.00586283 -0.0108286 -0.0191317 -0.0153498 -0.0129643 -0.010965 0.00416806 -0.00523155 0.0221815 0.0227979 0.0251371 0.00550839 0.00249093 0.0206192 0.00180121 0.000108069 -1.73475e-05 0.000135774 0.00301258 0.00914935 0.0038446 0.00884959 0.00956474 0.0071681 0.0251979 0.0108974 0.00304703 0.00303102 -0.00951165 -0.0112024 -0.00418095 0.0060693 0.00346583 0.0179419 0.00131311 -0.00111938 0.00239497 0.00649248 0.00525752 0.00174465 0.00579507 0.00621355 -0.0102636 -0.00497929 0.00434113 0.00137488 0.00785002 0.00762958 0.00248421 0.00516378 0.0027878 -0.00170188 0.0199246 0.0198614 0.0032528 -0.00819311 -0.024408 -0.023938 0.00494258 0.0152815 0.0147405 0.0196465 0.0119366 0.00189073 0.0100121 0.00635396 -0.000749322 0.00731322 0.00524016 0.0113017 0.00801621 -0.00179605 0.00492504 0.00421476 0.000822097 0.000616922 0.00300745 -0.00252866 -0.00288045 0.000904066 0.027983 0.0305274 0.00803437 -0.0136067 -0.0425031 -0.0323741 -0.00323722 0.0142067 0.0268756 0.0120474 0.00318376 8.19103e-05 0.000787996 0.00840382 0.00240079 -0.00401094 0.00490033 0.0152615 0.0144977 0.00112971 -0.000367849 0.00360489 0.00989689 0.00103036 0.00368789 -0.00454452 0.00303565 0.0139925 0.0211502 0.00974073 0.0154188 -0.0107419 -0.0311815 -0.024629 -0.00155633 0.0111623 0.0322096 0.0219797 0.0096666 0.00351632 -0.000753418 0.00896087 0.000477718 0.00692699 0.00298786 0.00143571 0.00018979 -0.016043 -0.00526693 0.00961373 0.00278352 0.00482667 0.00533808 -0.00521086 -0.00245132 0.0198388 0.0380549 0.0121424 0.00568448 -0.00981117 -0.0177144 -0.0207992 -0.0019537 0.0142535 0.0229423 0.00414857 0.00565715 -0.00417209 -0.0110865 -0.00818754 -0.00131531 -0.00723168 -0.0165826 -0.0117296 -0.0213144 -0.0153272 -0.0043758 0.00878375 0.00680416 0.00060748 0.00951778 -0.00372839 -0.00823883 0.0117212 0.0492293 0.0200032 0.000601754 -0.0203902 -0.0149095 -0.00964873 0.0057113 0.0124699 0.00748987 0.0017886 0.00969738 0.0091566 -0.00843344 -0.000458916 0.00272358 -0.0146177 -0.0304203 -0.0163437 -0.0266241 -0.00745747 -0.000522464 0.00244503 0.00711039 0.0073696 0.00654506 -0.00219675 -0.00628853 0.0224867 0.0413729 0.0411695 0.0110393 -0.0221524 -0.0442031 -0.0261511 -0.00800018 0.0103241 0.0198438 0.0157816 0.00595103 0.00709323 -0.0103622 -0.00738417 -0.0101179 -0.0242044 -0.0213976 -0.0262851 -0.0281904 -0.00863844 0.00231632 0.00181293 0.00793529 0.00786036 0.00280382 -0.00809843 -0.0186505 0.0174245 0.0410072 0.0444488 0.0259211 -0.0288226 -0.048747 -0.0359215 -0.00695501 0.0162412 0.0125513 0.00843392 -0.00408597 0.0058621 -0.0142336 -0.0244158 -0.016271 -0.0161321 -0.0151222 -0.0243178 -0.0198712 -0.00426135 0.00208626 0.0104886 0.00969072 0.00503544 0.0024803 -0.00636274 -0.014169 0.00781861 0.0229278 0.0412419 0.0308689 -0.0282282 -0.0423781 -0.0352735 -0.014351 0.0125683 0.0170693 -0.0160054 -0.0223895 -0.016603 -0.0174704 -0.0274187 -0.0277211 -0.0126043 -0.00291727 -0.0115769 -0.0135373 0.00136926 0.0084372 0.00352764 0.00690722 0.00682694 0.0050992 -0.00454449 -0.0150535 0.00572413 0.0185321 0.0227184 0.0174581 -0.0295792 -0.0504533 -0.0246766 -0.0174432 -0.00316168 -0.000905846 -0.0214832 -0.019438 -0.014382 -0.0285566 -0.0411836 -0.0268096 -0.0128122 -0.00458157 -0.00185677 -0.00917494 0.00359608 0.00596368 0.00270699 0.00525757 9.17461e-05 0.00397687 -0.00309415 -0.0198964 0.00138975 0.00572971 0.0144371 0.0188899 -0.0193982 -0.0288476 -0.0289938 -0.0163826 -0.00374399 -0.010585 -0.023363 -0.0176258 -0.00280344 -0.0235544 -0.0371211 -0.0301359 -0.0117498 0.0023657 0.00918102 -0.00222775 -0.00128504 0.00749867 0.00269323 0.00886598 0.00344293 0.00331075 0.00434399 -0.0111392 0.00340201 0.00385324 0.0180486 0.0187717 0.0046893 -0.0106245 -0.0120093 -0.00748645 -0.00183101 -0.00473273 -0.0116255 -0.00950592 -0.00226459 0.00363898 -0.00810336 -0.0249619 -0.0164405 0.00111811 0.00732893 -0.00596835 -0.0102161 0.00879184 0.00840351 0.00824742 0.00361763 -8.60102e-05 0.00676835 0.00884735 0.0037413 -0.00526012 0.0187589 0.0123211 -0.00824506 -0.0072235 -0.00274111 -0.0226548 -0.00651163 -0.0026283 -0.00400087 -0.00349645 -0.00967581 0.0102181 0.00366626 -0.0123284 -0.00529236 0.00434784 0.00672278 0.00233548 -0.00263449 0.00370042 0.0079359 0.000515464 1.15794e-05 0.00862033 0.00765441 0.00513588 0.00789737 0.00340319 0.019563 0.015863 0.00782595 -0.0146079 -0.0132184 -0.0174718 0.000650166 -0.00782352 -0.0109448 -0.00541492 -0.0027808 0.00838641 0.00375543 -0.00144301 0.0215389 0.0216481 0.0140102 0.00423094 -0.00369371 0.016522 0.01017 0.00102825 0.00607374 0.00245666 0.01008 -0.00217666 0.00878332 -0.00382463 0.0126003 0.000785249 0.0100859 0.00188638 -0.01497 -0.000410898 -0.000174358 -0.00192179 0.00109645 -0.00437829 -0.0122759 -0.0168763 -0.00689188 0.0149493 0.0158188 -0.00315577 0.00433916 -0.00294178 0.00560586 0.0103378 0.00890569 0.0101027 0.00587363 0.00713054 0.00157204 -0.0126522 0.002926 0.00976819 6.0832e-05 0.00274561 0.0152446 0.00685647 -0.00383055 0.00592715 0.00157477 -0.00929312 -0.0156656 -0.0115681 -0.000592473 -0.00360636 0.00656082 0.014761 -0.00218851 -0.00503474 0.00654931 0.00618639 0.00182622 0.0134503 0.00205038 0.0057732 0.0087618 0.00889429 0.00194164 -0.000100238 0.00962273 0.012837 0.00126693 0.00232118 0.00453379 -7.00307e-06 -0.00097215 0.00822525 0.00719943 -0.0135846 -0.0182895 -0.0101799 0.00204916 0.0112057 0.0144567 0.00763239 0.00196737 0.00820765 0.0130382 0.0236202 0.0209753 0.0137565 0.0095454 0.00948454 0.00536082 0.00184153 0.00216841 0.00861645 0.0166676 0.00948979 0.0014998 -0.00785516 -0.000599245 -0.00295403 -0.00315933 0.00722581 0.00652442 0.00536632 -0.00179656 -0.000278446 -0.0073326 -0.00107202 0.00121578 0.0072234 0.00239409 -0.00518265 0.0108233 0.016221 0.0114325 0.0050472 0.00562519 0.00123711 0.00206186 0.00305132 0.00761437 0.0090085 0.00310132 0.00446491 0.00897424 0.000578078 0.00485506 0.00408334 0.00746467 0.00768824 0.00402908 0.00114146 0.00903115 -0.000553744 0.00206085 0.00484057 0.00833462 0.00360303 -0.00110826 0.00171297 0.00222469 0.00617661 0.0020196 0.0070228 0.00766027 0.000103093 0.00628866 0.00566886 0.00655321 0.00254339 0.0013055 0.00639175 0.00824742 0.00185567 0.00287574 0.00917436 0.00134021 0.0042268 0.00237082 0.00989691 0.00319588 0.00412371 0.00319586 0.00360847 0.00329897 0.00845361 0.00845361 0.00515464 0.00453608 0.00536082 0.00587629 0.000103093 0.00701031 0.00340206 0.00752577 0.00969072 0.00195876 0.00268041 0.0085567 0.00340206 0.00845361 0.00123711 0.00371134 0.00257732 0.00536082 0.00123711 0.00247423 0.00463918 0.00989691 0.000200787 0.00750593 0.00594737 0.00049913 0.00793814 0.00597938 0.00113402 0.00835052 0.00516064 0.00722716 0.00825367 0.00546397 0.00278351 0.00608247 0.00164957 0.00997021 0.0014119 0.000842991 0.00149347 -0.00416788 -0.00761926 -0.0106077 -0.0144898 -0.00850567 -0.00919541 -0.0105412 -0.00930095 -0.00895133 -0.0121694 -0.0219265 -0.0129444 -0.010367 -0.0101797 -0.00652745 -0.00671911 0.00176418 0.0025787 0.00155385 0.00173723 0.00288752 0.00247423 0.00835052 0.00390916 0.000546773 0.00530369 0.00120894 -0.000594263 -0.00572325 -0.0113549 -0.0198767 -0.0080492 -0.00792436 -0.0209915 -0.0268823 -0.00832562 -0.00025131 0.0226302 0.00927824 0.0211434 0.000298537 -0.013266 -0.0113091 -0.010873 -0.00607296 0.00226899 0.00116862 0.0104291 0.00136209 0.00247423 0.00505133 0.00865384 0.00561159 0.00322186 0.000997462 -0.0109015 0.000152629 0.010356 -0.00626185 0.00179301 -0.00723289 -0.0107625 -0.0214446 -0.014105 -0.0205861 0.00890814 0.0160253 0.00438433 0.0131855 -0.0132211 -0.01796 -0.0209979 -0.0100342 -0.00129089 0.00721581 0.00269388 0.00853367 0.00515485 0.0061314 0.00248204 0.00142273 -0.00171172 -0.00659718 -0.0111917 -0.00751022 0.0087171 -0.00345811 -0.00593081 -0.0172159 -0.0363844 -0.0318645 -0.0209713 -0.0325152 -0.00764848 -0.0124058 -0.0165148 -0.00418522 -0.0383391 -0.0327554 -0.0291151 -0.0271881 -0.0153735 -0.00471526 0.00125717 0.00478289 0.00330872 0.00622995 0.00280812 0.00134902 0.00147171 -0.00244369 -0.0235771 -0.0246021 -0.0102464 -0.0155785 -0.0127995 -0.0344676 -0.0444416 -0.0297517 -0.0250322 0.00155233 -0.0191577 -0.00940946 -0.0162101 -0.0386544 -0.0501521 -0.0416561 -0.036623 -0.0312767 -0.015942 -0.00435335 -0.00326269 0.00194387 0.00392202 0.00806326 0.00353402 0.00947132 -0.00172339 -0.00867868 -0.0199609 -0.0269252 -0.0119589 -0.00820407 -0.0183504 -0.0390042 -0.0316485 -0.0205285 -0.0215388 0.0164291 -0.00552081 -0.0181157 -0.00890945 -0.0456784 -0.0403251 -0.0279212 -0.0388477 -0.025539 -0.011788 -0.00453437 -0.00460446 0.00187698 0.00905502 0.00693307 -0.00122728 0.00588573 0.00451908 -0.00632986 -0.0195393 -0.0299613 -0.0299637 -0.0212916 -0.0279832 -0.027961 -0.0171953 -0.0308776 -0.0306012 0.000940632 0.0178394 -0.0117294 0.00221833 -0.0230927 -0.00913115 -0.0202631 -0.0311794 -0.0197757 -0.00824016 -0.00914265 -0.00575253 0.00844853 0.00262305 0.00807406 -0.00394933 0.00501387 -0.0003517 -0.0182451 -0.0234572 -0.0267643 -0.025328 -0.0119699 -0.0300905 -0.0180176 -0.00151975 -0.0171429 -0.0341503 -0.027084 -0.0348037 -0.0251508 -0.0133263 -0.01688 -0.0236349 -0.019799 -0.0281965 -0.0166481 -0.00558698 0.0025354 -0.00134728 0.00176084 0.00238896 0.00719354 0.00284788 0.00371869 -0.0121655 -0.0225971 -0.024454 -0.0238151 -0.0222605 -0.0145201 -0.0324378 -0.0275961 0.00371867 -0.0106749 -0.030505 -0.0200329 -0.0448381 -0.0169632 -0.0292791 -0.0394906 -0.0415857 -0.0200125 -0.0238898 -0.0141764 -0.0160028 0.000523338 0.00564586 0.00737517 0.0086632 0.00322392 0.00921374 -0.00302315 -0.0168292 -0.0287261 -0.0242488 -0.0298555 -0.0298519 -0.0123297 -0.0196507 -0.0241079 -0.0224041 -0.0213345 -0.0228636 -0.0280199 -0.0523091 -0.0206063 -0.0323866 -0.0439683 -0.0259958 -0.00729462 -0.0207929 -0.0114668 -0.0206286 -0.00213527 0.0062557 0.00516217 0.00649488 0.0024526 0.00200809 -0.00962412 -0.0205397 -0.0299449 -0.0275403 -0.0235353 -0.0292116 -0.0190458 -0.0107397 -0.0224415 -0.0245073 -0.0422208 -0.0459427 -0.064914 -0.067753 -0.04456 -0.0229644 -0.0437435 -0.0337684 -0.028736 -0.018102 -0.0164953 -0.0182917 -0.00805169 0.00282602 0.0096084 0.00525772 0.00145369 0.00835961 -0.0141844 -0.0170302 -0.0226335 -0.0167554 -0.0203735 -0.0253446 -0.0255834 -0.0143169 -0.0160708 -0.0028464 -0.0247873 -0.0277822 -0.00255251 -0.0245551 -0.0304338 -0.0422907 -0.06477 -0.0446381 -0.0364581 -0.0216228 -0.0143231 -0.00478923 -0.00284871 -0.00197786 0.00272505 0.00886596 0.0061648 0.00517104 -0.0107098 -0.0188825 -0.022132 -0.0123299 -0.00872549 -0.0247994 -0.0433383 -0.0242713 -0.0298715 0.00299267 -0.00272714 0.0278841 0.0423811 0.00322946 -0.0138981 -0.0297102 -0.0563003 -0.0534861 -0.0312559 -0.0102117 -0.00119694 -0.00814671 -0.0125247 -0.0130866 0.00716293 0.00927668 0.00859412 0.0030492 -0.00681388 -0.016895 -0.0186606 -0.0174598 -0.0104194 -0.0168651 -0.0280181 -0.0305957 -0.00722993 0.00546575 0.0121498 0.0465172 0.0220616 0.0179737 0.0110044 -0.000963757 -0.0149077 -0.0204404 -0.0102641 -0.00491248 0.00425657 -0.00593001 -0.0180848 -0.00945354 -0.00150765 0.00206029 0.00320613 -0.000553959 -0.00110717 -0.00987845 -0.0139004 -0.0210112 -0.0156911 -0.0130571 -0.0227022 -0.026027 -0.0181876 0.00715626 0.0117118 0.0168688 -0.00109663 -0.00484565 0.00387177 0.020902 0.0259057 0.0210737 0.0191493 0.0238838 0.00960179 0.0053368 -0.00800164 -0.00177676 0.00696588 0.000515464 0.00218114 0.00427725 -0.00791224 -0.0180974 -0.0120741 -0.0105824 -0.0099543 -0.0153079 -0.0152924 -0.0139376 0.00171006 0.044096 0.033111 0.00295483 0.00354158 -0.0081684 -0.0151433 0.00745252 0.038369 0.0288341 0.0111544 0.0104179 0.00335919 -0.0079146 -0.00353086 -0.00801544 0.0036902 0.0042268 0.00875592 0.0086169 -0.0110307 -0.0212992 -0.0116661 -0.00165684 -0.00371191 -0.0140365 -0.00809267 0.0113898 0.0171819 0.0639126 0.0359522 0.000273588 -0.00544636 -0.0103276 -0.00277621 0.0205649 0.0417957 0.0126148 -0.0136269 -0.020631 -0.0118658 0.00235217 -0.00371376 -0.000826756 0.0037262 0.00350376 0.00953617 0.00692554 -0.00474082 -0.0066688 -0.00319013 -0.00297782 -0.00924717 -0.019009 -0.0262517 0.0113828 0.0254435 0.057268 0.0159227 0.028425 0.0232248 -0.000431954 0.0289736 0.0364443 0.0432828 0.0167264 -0.0200288 -0.0111305 -0.0148759 -0.00463605 -0.00067277 0.00152493 -0.000171132 0.00185567 0.0059917 7.81714e-06 0.00351915 -0.0157636 -0.0185153 -0.014953 -0.0261503 -0.0155114 -0.0181863 -0.0103977 0.0132698 0.031353 0.00843059 0.0474941 -0.0127398 -0.0167077 0.0465831 0.0482 0.0590738 0.0332794 0.0185817 0.00732635 -0.00415024 -0.000564 -0.00483453 0.00533397 0.00260147 0.00824742 0.00807648 0.00479183 -0.00337127 -0.00840282 -0.0152294 -0.0111749 -0.017941 -0.0192759 -0.0280701 -0.00128209 0.0181455 0.0445908 0.0483072 0.0497845 -0.0256998 -0.00985488 0.0433572 0.0462117 0.0680376 0.0386081 0.00895581 -0.00848066 -0.0159815 -0.00873041 0.000184775 0.00107636 0.00498871 0.00896907 0.000253833 -0.000633045 -0.00506729 -0.00611135 -0.0224859 -0.0196227 -0.0307926 -0.0258267 -0.0243174 0.00855927 0.0213303 0.05413 0.0431601 0.0194906 -0.016512 0.0175323 0.0589551 0.0547905 0.0515039 -0.00219063 -0.00239389 -0.0108692 -0.0192878 -0.0167646 -0.00176256 0.00123097 0.0076369 0.00640923 0.0100698 0.00186278 -0.00828376 -0.0110886 -0.00760193 -0.0141502 -0.018187 -0.00576929 -0.032536 -0.0303019 0.0158673 0.0136669 0.00820909 0.0171442 0.0130793 0.0234813 0.0346606 0.0480515 0.0172412 -0.00481133 -0.0148924 -0.00985801 -0.0139409 -0.0159796 -0.00915119 -0.000926442 0.00643886 0.00947331 0.00497593 0.000733421 0.0041839 -0.0119252 -0.0113444 -0.0156206 -0.00862082 -0.00927803 -0.0386759 -0.0412531 0.0067438 -0.0138409 0.00522648 0.0138591 0.0179283 0.0130528 0.0144043 0.0433309 0.0113115 -0.0270604 -0.0313042 -0.0108627 -0.00468112 -0.00854124 -0.0118271 0.0022075 -0.00088169 0.00958763 0.00557835 0.00977206 -0.000317221 -0.00873348 -0.0171674 -0.00994675 -0.0100367 -0.022724 -0.0170828 -0.0325521 0.0330334 0.0358289 0.0352389 0.0391073 0.0185773 0.00277701 -0.0125296 -0.0105766 -0.0340399 -0.032031 -0.0287131 -0.00892501 -0.00409268 -0.000805557 -0.00283914 0.00535207 0.000800594 0.00927835 0.000824742 0.00738678 0.00672069 0.00516615 0.00448879 -0.0039703 -0.0166809 -0.0238367 0.0158165 0.00835105 0.0609704 0.0861399 0.051852 0.0133396 0.0199652 0.00768794 -0.00226631 -0.0152464 -0.0426388 -0.0212133 -0.00323712 0.00290966 0.00403699 -0.00272735 0.00226947 -0.000282938 0.00923526 0.00587629 0.00484536 0.0029407 0.0079533 0.00933329 -0.000223128 0.00582633 -0.00054474 0.0082829 0.00809312 0.00138212 0.00377742 0.0117392 0.00941875 0.00621814 -0.00011014 -0.00200342 -0.000713903 -0.00162089 -0.00658802 0.000289868 0.00794035 0.00282019 0.00362693 0.0053819 0.00690101 0.00125418 0.000571884 0.000927835 0.00731959 0.00731964 0.00433983 0.00330454 0.00432881 0.00206186 0.00257732 0.00835052 0.00183637 0.00906826 0.00525773 0.00536082 0.00587618 0.00670103 0.00773196 0.00309278 0.00524399 0.00014417 0.00515464 0.00907216 0.00484536 0.00742268 0.00927835 0.00195876 0.00175258 0.00958763 0.00618557 0.0057732 0.00948454 0.00958763 0.0102062 0.00329897 0.00505155 0.00752577 0.00443299 0.00340206 0.00453608 0.0057732 0.00886598 0.00257732 0.00659794 0 0.00329897 0.00227684 0.00467152 0.00546345 0.000928341 0.00979381 0.00484536 0.000824742 0.00195876 0.00351595 0.00373055 0.00238238 0.00453617 0.00845361 0.00927835 0.00773132 0.00475162 0.00387259 0.00425502 0.00611317 0.00597019 0.00641379 0.00137825 0.00623588 0.00753472 0.000158548 0.00809008 0.00262889 0.00526891 0.00201373 0.00702961 0.000299439 0.00246206 0.00737943 0.00826183 -0.000299765 0.00632079 0.00634686 0.00266244 0.0059945 0.0033952 0.00680412 0.0056701 0.00584631 0.00169423 0.0028141 -0.00584141 -0.0012267 -0.00424759 0.00329855 -0.000612414 0.000351175 0.00532115 -0.00821225 -0.00419137 -0.00379772 -0.00648673 0.00196339 -0.0128403 -0.00719685 -0.00447522 -0.00566896 -0.00336654 0.00227335 0.00353387 0.00188627 0.00853702 0.0134752 0.00617666 0.00587629 0.00731961 0.00592867 0.00930203 -0.00954497 -0.0162199 -0.0251838 -0.024623 -0.0144354 -0.0126031 -0.0132482 0.00346739 -0.0125681 -0.0235738 -0.0196471 -0.00741506 -0.00958391 -0.0207845 -0.0238293 -0.0154305 -0.016042 -0.0135418 -0.00988959 -0.0108763 -0.0104288 0.0117574 0.0214297 0.00439389 0.00165055 0.00228774 0.000911817 0.0117332 -0.00316066 -0.0263678 -0.037008 -0.0327583 -0.0228331 -0.0165396 -0.01507 -0.00130796 -0.00341913 -0.0154435 -0.0229196 -0.00894473 0.0012568 -0.0214553 -0.0217718 -0.0346892 -0.0300886 -0.0186324 -0.0179527 -0.0165436 -0.0176118 0.00411066 0.00894303 0.00802431 0.00695151 0.00930252 0.00268487 0.0129973 -0.00392789 -0.0243085 -0.0333512 -0.0241603 -0.0175298 -0.03531 -0.0272371 -0.00704785 -0.013667 -0.00902448 -0.0206982 -0.0160804 -0.0102546 -0.0212205 -0.0191786 -0.0384999 -0.030603 -0.0293778 -0.0221573 0.00262649 0.00466355 0.0136773 0.0154164 0.00791192 0.0048321 0.00550774 0.0112179 0.0163488 -0.00493904 -0.0183948 -0.0160283 0.00213678 0.00223433 -0.000653756 0.000607867 -0.0120427 -0.00369509 -0.0037787 -0.00710617 -0.000334526 -0.000551382 -0.0131249 -0.0107516 -0.0155907 -0.0187762 -0.0306832 -0.00590435 -0.00695109 0.0189364 0.0325218 0.0242819 0.00605581 0.00918004 0.00295558 0.00893985 0.0363936 0.0244498 0.0150222 0.0186459 0.0238091 0.0128614 0.0160178 0.0126053 -0.00491119 -0.00170661 -0.00694185 0.0165541 0.0215624 0.0280905 0.00969962 -0.00897504 0.0174731 0.0118042 0.0121194 0.0110575 -0.00586549 0.00542246 0.0342071 0.0155303 0.018187 0.00555501 0.00206257 0.0110293 0.0286024 0.0331325 0.0543801 0.0780036 0.0510142 0.0300029 0.0321446 0.0326653 0.0466141 0.0384808 0.0234471 0.016887 0.0197839 0.0501163 0.035323 0.0227228 0.014696 0.0282006 0.0340731 0.0158786 0.0299397 0.0320067 0.0394368 0.0294098 0.0119258 0.00510637 0.000296531 0.00433512 0.0306186 0.0570327 0.044083 0.0353388 0.0304348 0.033065 0.0613877 0.0500877 0.0411913 0.0269715 0.0219975 0.0174426 0.0143729 0.0359582 0.0244637 0.0101475 0.0148403 0.0247263 0.0257477 0.00401155 -0.00173138 -0.00578734 -0.0220214 0.00273068 0.00502184 0.00777452 0.00127343 0.0085369 0.0186873 0.0497933 0.0354372 0.00767274 -0.00150046 0.0271251 0.0431594 0.024511 0.0146522 0.0047675 -0.010206 -0.0205295 0.00238305 0.0147009 0.0126513 -0.00167106 -0.027204 -0.0269376 -0.0181219 -0.0246028 -0.00208605 -0.00482148 -0.00711255 -0.00387642 0.000236294 0.00268098 7.00886e-06 0.00867706 0.013022 0.00610763 -0.00581268 -0.0188379 -0.0233666 -0.0118261 -0.0169696 -0.0277598 -0.0029543 0.000398077 -0.0301654 -0.0181122 -0.000819145 -0.0274287 -0.0077741 -0.00146154 -0.0123546 -0.0271319 -0.0308738 -0.0178658 -0.00880211 -0.00928269 0.00103688 0.00258467 -0.000334121 0.00443308 -0.00246164 0.00556028 -0.00955461 -0.029875 -0.0555369 -0.0724728 -0.0430996 -0.0560675 -0.0483287 -0.0123888 -0.0101912 -0.00875651 -0.0272454 -0.00733229 0.0179083 -0.00426159 0.0022974 -0.0226092 -0.0448197 -0.0457995 -0.0380457 -0.0178008 -0.0181229 -0.0390498 -0.0134482 -0.000135774 0.00231795 0.00907235 0.00591488 0.00791546 -0.010787 -0.0529039 -0.0863026 -0.0864922 -0.0196357 -0.0310896 -0.0342804 -0.0125865 -0.00723727 -0.0227757 -0.0212692 -0.00349883 0.0100379 0.00536347 -0.0175257 -0.034883 -0.0455942 -0.0335589 -0.0260327 -0.0300215 -0.034301 -0.0119023 0.011701 0.00447637 0.00862046 0.00377098 0.00691209 0.00119548 -0.0161772 -0.0535543 -0.0926317 -0.0384794 0.00521135 -0.0134099 -0.034937 0.0143151 0.0356351 0.0272713 0.0160813 -0.0306346 -0.00103547 -0.0190419 -0.0344898 -0.0447939 -0.0304311 -0.0116142 -0.0195491 -0.0206174 -0.0103746 0.00569781 0.0113559 0.00193829 0.00448529 0.00314883 0.00676378 0.00347262 -0.0178444 -0.0455244 -0.0459032 0.00670186 0.0225888 0.00531213 -0.00297901 0.0225816 0.0251207 0.0234991 -0.00450432 -0.0389995 -0.00884902 -0.00531664 -0.0367581 -0.0461919 -0.0179989 -0.0145999 -0.018899 -0.0201975 -0.00143839 0.00567346 0.00641784 0.00705831 0.00904264 0.00278351 0.00658616 0.00570593 -0.00238556 -0.0141038 0.00577215 0.0137723 0.0067865 0.0109202 -0.00549927 -0.026147 0.00196802 0.0263157 -0.00310054 -0.0141734 -0.00903317 -0.030305 -0.0354087 -0.009325 0.0119005 -0.000185046 -0.00244666 -0.00556094 0.00306881 -0.000608394 0.00983782 0.00971002 0.00122595 0.00876289 0.00913723 0.0171981 0.0257207 0.0334285 0.0286043 0.0103835 0.0275065 0.021419 -0.0161734 -0.00140292 0.00881105 0.0283052 -0.0026186 0.0106762 -0.0126625 -0.0507787 -0.0391013 -0.00612771 0.0112 0.00261435 -0.00358084 -0.00846811 -0.00192629 0.00304642 0.00759816 0.0165401 0.00753759 0.00794524 0.00544307 0.0123327 